svm_type c_svc
kernel_type rbf
gamma 1.0
nr_class 6
total_sv 572
rho 0.15058057139170014 0.28858234214890355 0.45061630696112515 0.5214187279450874 0.5515246673564886 0.09107157130786207 0.3035953423802507 0.3778411427682568 0.4123160453934129 0.2533749470506939 0.3088962591570633 0.3412766799962989 0.1154998231639999 0.15250343707357306 0.047043095930826645
label 1 2 3 4 5 6
nr_sv 80 97 97 100 99 99
SV
1.0 0.3042047987108614 0.3854075535344727 0.4033492370010377 0.41100111106288045 1:-1.1344824237367481 2:-1.2633340153062136 3:-1.086609342863329 4:-0.9189336485713236 5:-1.1003562626609258 6:-1.1107962395161635 7:-1.2284678227249446 8:-1.169540947179665 9:0.6654460991275198 10:-1.3284762203726694 11:1.0878920453661152 12:-1.4719056183267447 13:-1.471905618326746 14:0.7860191414920141 15:0.3161443314608725 16:-1.054770789192844 17:-1.4719056183267447 18:-0.6948716972422346 19:-1.0963512137368947 20:-1.0900081667682642 21:-1.035289489086437 22:-0.956342582372734 23:-1.0009907746693913 24:-1.0837861273739413 25:-0.8712727502604211 26:-0.8569585752042226 27:-0.6266574706535716 
0.09945046311825188 0.29108938911657734 0.3025099460850794 0.31693211569951396 0.32345263896600013 1:-1.1427632166010933 2:-1.2633340153062136 3:-1.0971593749150788 4:-1.014275199521141 5:-1.0985978777270127 6:-1.1211510612132256 7:-1.2284678227249446 8:-1.169540947179665 9:0.8695348558783198 10:-1.3038954959372024 11:1.2954359937988438 12:-1.437878996716293 13:-1.4378789967162946 14:1.0945940338603684 15:0.7452644441582443 16:-1.1925585197773176 17:-1.437878996716293 18:-1.0849826975554115 19:-1.1105640073812595 20:-1.1051650626421188 21:-1.1806224164624535 22:-1.2166899278462548 23:-1.126954378864365 24:-1.1486187970074773 25:-1.100276838941022 26:0.4157521800495733 27:-0.04909298157193877 
0.8878316716528719 0.5182494894285363 0.5851017278639042 0.6125289518567882 0.6234865205073009 1:-1.1344824237367481 2:-0.48970632681496207 3:-1.1499095351738269 4:-1.0619459749960498 5:-1.1390407312070103 6:-1.0797317744249775 7:-1.1655608760973977 8:-1.1907378832409186 9:0.26927380661126077 10:-1.424624835121431 11:2.066313516548976 12:-1.148670851895697 13:-1.1486708518956985 14:2.234321852381278 15:2.3786417057624196 16:-1.6403686441768586 17:-1.148670851895697 18:-1.0494196992105729 19:-1.0679256264481651 20:-1.0900081667682642 21:-1.0768131826224416 22:-1.1588349621854726 23:-1.126954378864365 24:-1.213451466641013 25:-1.1322752281365478 26:-0.6448401159952566 27:-0.6266574706535716 
1.0 0.26683737793530526 0.2823519397719594 0.2968962723185564 0.30286720059720057 1:-1.109640045143712 2:-1.1086084776079632 3:-1.0707842947857047 4:-0.8235920976215062 5:-1.0792556434539704 6:-1.0486673093337915 7:-1.1970143494111711 8:-1.1907378832409186 9:-0.24467943773415593 10:-1.4883096984570157 11:0.9821167511841851 12:-1.410646359643522 13:-1.4106463596435237 14:0.6704700156692075 15:0.20601452304129025 16:-0.9812839995477906 17:-1.410646359643522 18:-0.9102776837835229 19:-1.0110744518707058 20:-1.1051650626421188 21:-1.0768131826224416 22:-0.956342582372734 23:-1.0429786427343826 24:-1.0837861273739413 25:-0.9939309016020997 26:-0.8569585752042226 27:-0.04909298157193877 
1.0 1.0 1.0 1.0 1.0 1:-0.8777778449420435 2:-0.6444318645132123 3:-0.833408573621338 4:-0.5852382202469627 5:-0.7943972841600744 6:-0.8933449838778617 7:-0.7881191963321164 8:-0.7244052898933403 9:1.8052033099050655 10:-0.32053666906569445 11:1.403997443748271 12:-0.46167802622507925 13:-0.4616780262250812 14:1.5263403733192316 15:1.6058432997435665 16:-1.2614523850695545 17:-0.46167802622507925 18:-0.8628168850492278 19:-0.925797690004517 20:-0.8778116245342977 21:-1.0145276423184346 22:-0.7827776853903866 23:-0.791051434344435 24:-1.1486187970074773 25:-0.85001671544714 26:-0.4327216567862906 27:-0.6266574706535716 
1.0 0.779113684813265 0.7822563471650413 0.822931016248247 0.8404834339893443 1:-1.0351129093646043 2:-0.953882939909713 3:-1.0813343268374542 4:-1.014275199521141 5:-1.0581550242470152 6:-1.0176028442426055 7:-1.086927192812964 8:-0.9999654586896365 9:1.2510920967602501 10:-0.8964637797805889 11:0.928366805499345 12:-1.1640328036483127 13:-1.164032803648314 14:0.716846108463915 15:0.4038569756059241 16:-0.9430510076378648 17:-1.1640328036483127 18:-1.0940180313601704 19:-0.9542232772932465 20:-1.029380583272845 21:-1.097575029390444 22:-1.0141975480335164 23:-1.2109301149943477 24:-1.0189534577404054 25:-1.162649955268452 26:-0.4327216567862906 27:0.5284715075096941 
0.2634684096353291 0.3651324222287744 0.41220092632958905 0.4390888493121552 0.4511167582556856 1:-1.1676055951941293 2:-1.1086084776079632 3:-1.1499095351738269 4:-1.0619459749960498 5:-1.1460742709426621 6:-1.1522155263044116 7:-1.2127410860680579 8:-1.2331317553634256 9:0.21645083427575976 10:-1.529990436086892 11:2.2783048353052626 12:-1.2397537584955318 13:-1.2397537584955334 14:2.5106331990666644 15:2.74756539394783 16:-1.748460743169851 17:-1.2397537584955318 18:-0.996372584039631 19:-1.1674151819587189 20:-1.1051650626421188 21:-1.1806224164624535 22:-1.1299074793550812 23:-1.0429786427343826 24:-1.213451466641013 25:-1.200590746978913 26:-0.6448401159952566 27:-0.6266574706535716 
0.5528219399293639 0.4675432789585003 0.6041956841641277 0.6334246000053824 0.645681050559836 1:-1.1427632166010933 2:-1.1086084776079632 3:-1.1657345832514512 4:-1.1572875259458673 5:-1.1601413504139657 6:-1.1522155263044116 7:-1.2441945593818313 8:-1.2119348193021722 9:0.05317982887511937 10:-1.4990845753683102 11:1.0434183421305314 12:-1.519902924810142 13:-1.519902924810144 14:0.6967770010363414 15:0.1652945019396597 16:-1.0241512935074046 17:-1.519902924810142 18:-0.9944703200146109 19:-1.1389895946699893 20:-1.1203219585159736 21:-1.1183368761584465 22:-1.1588349621854726 23:-1.0849665107993738 24:-0.8892881184733337 25:-1.2313235234323614 26:0.20363372084060732 27:-0.6266574706535716 
0.9385487178741057 0.43972194844981133 0.5210843137235012 0.558463679398038 0.5749884662903463 1:-1.1758863880584747 2:-1.1086084776079632 3:-1.1077094069668283 4:-0.8235920976215062 5:-1.1179401120000552 6:-1.2143444564867834 7:-1.2441945593818313 8:-1.127147075057158 9:2.755596469989162 10:-0.9849534597474157 11:1.9819668379987294 12:-1.3721007614620246 13:-1.3721007614620264 14:2.0801987074231865 15:2.1201661671457974 16:-1.5957152129689267 17:-1.3721007614620246 18:-1.100896602280117 19:-1.1816279756030836 20:-1.1961064378852473 21:-1.222146109998458 22:-1.10097999652469 23:-1.2529179830593389 24:-1.213451466641013 25:-1.055859020719215 26:-0.8569585752042226 27:-0.6266574706535716 
1.0 0.7949902977948353 0.783122768872655 0.829819377300575 0.8494773819667933 1:-1.0433937022289497 2:-0.7991574022114627 3:-1.0549592467080802 4:-0.9666044240462324 5:-1.063430179048754 6:-0.9451190923631716 7:-1.0554737194991906 8:-1.127147075057158 9:-0.38220951885992066 10:-1.3750782270998085 11:1.4466465847998313 12:-0.9951462565529553 13:-0.9951462565529569 14:1.4540594547018315 15:1.3926520496882178 16:-1.2879500255665695 17:-0.9951462565529553 18:-0.9277093443938739 19:-0.8689465154270577 20:-0.9687529997774261 21:-0.9730039487824299 22:-0.840632651051169 23:-1.0429786427343826 24:-0.8244554488397978 25:-1.057337773658759 26:-0.6448401159952566 27:-0.6266574706535716 
0.9449719751669543 1.0 1.0 1.0 1.0 1:-1.0930784594150216 2:-0.6444318645132123 3:-1.0971593749150788 4:-1.014275199521141 5:-1.1073898023965774 6:-1.0176028442426055 7:-1.2127410860680579 8:-1.2967225635471864 9:-2.2702921710570663 10:-1.9754895570064528 11:0.42306719956237715 12:-1.5464688248617775 13:-1.5464688248617795 14:-0.2011395393775628 15:-1.0074509532594 16:-0.5511328774013176 17:-1.5464688248617775 18:-1.0519420027009212 19:-0.8689465154270577 20:-1.0445374791467 21:-1.097575029390444 22:-1.1299074793550812 23:-1.0009907746693913 24:-0.9541207881068696 25:-0.9668351137763508 26:-0.6448401159952566 27:-0.6266574706535716 
1.0 0.6461841835767446 0.7124988319268893 0.7455861552464754 0.7597311441813149 1:-1.0930784594150216 2:-1.1086084776079632 3:-1.1340844870962024 4:-1.0619459749960498 5:-1.1179401120000552 6:-1.0900865961220396 7:-1.1812876127542844 8:-1.0423593308121437 9:1.8742795044976437 10:-0.898202523448093 11:0.8495586100779825 12:-1.3955667449664464 13:-1.3955667449664484 14:0.4951162845918674 15:-0.008219482058622773 16:-0.8858697000892948 17:-1.3955667449664464 18:-0.9342740557263505 19:-1.0679256264481651 20:-1.0596943750205545 21:-1.1183368761584465 22:-1.0720525136942989 23:-1.0849665107993738 24:-1.0837861273739413 25:-1.0145875934938329 26:-0.008484738368358646 27:-0.6266574706535716 
1.0 0.8962958032525881 1.0 1.0 1.0 1:-1.159324802329784 2:-1.1086084776079632 3:-1.1499095351738269 4:-1.014275199521141 5:-1.147832655876575 6:-1.1211510612132256 7:-1.307101506009378 8:-1.2119348193021722 9:0.44819032581215223 10:-1.45259945316332 11:0.4093094121263897 12:-1.7880932888995644 13:-1.7880932888995664 14:-0.432724197935488 15:-1.5872277921274582 16:-0.5395644922248102 17:-1.7880932888995644 18:-0.6992733869056872 19:-1.1105640073812595 20:-1.1657926461375379 21:-1.0768131826224416 22:-1.1299074793550812 23:-1.0429786427343826 24:-0.9541207881068696 25:-1.0681520665755204 26:-0.8569585752042226 27:-0.6266574706535716 
0.8104742009127922 0.3181150777861081 0.37590954900975093 0.39187023669735077 0.3986714389868391 1:-1.1924479737871652 2:-1.2633340153062136 3:-1.1973846794067 4:-1.1096167504709584 5:-1.1882755093565727 6:-1.1418607046073495 7:-1.3228282426662648 8:-1.2755256274859328 9:-0.08287934229208083 10:-1.6682647918058957 11:1.0154163808340515 12:-1.7395699656758854 13:-1.7395699656758874 14:0.5152717190442252 15:-0.26946497675562636 16:-1.0046661598893984 17:-1.7395699656758854 18:-1.0252547810534764 19:-1.1674151819587189 20:-1.0900081667682642 21:-1.1183368761584465 22:-1.0720525136942989 23:-1.0429786427343826 24:-1.0837861273739413 25:-1.0960406142399914 26:-0.8569585752042226 27:-0.6266574706535716 
0.2611143703755862 0.21300927584409907 0.24201487413656114 0.25343248849238287 0.2592593142133864 1:-1.1427632166010933 2:-1.1086084776079632 3:-1.1235344550444528 4:-0.9666044240462324 5:-1.151349425744401 6:-1.1107962395161635 7:-1.1970143494111711 8:-1.169540947179665 9:0.8695348558783198 10:-1.3038954959372024 11:1.7994712971354685 12:-1.273831140528594 13:-1.273831140528596 14:1.8492906892716956 15:1.8283332628272027 16:-1.4956915270631603 17:-1.273831140528594 18:-1.0939932358515527 19:-1.0963512137368947 20:-1.0596943750205545 21:-1.097575029390444 22:-0.8695601338815603 23:-0.9170150385394088 24:-0.8244554488397978 25:-1.2370785941312241 26:-0.22060319757732463 27:-0.04909298157193877 
1.0 0.05567672424031446 0.08273076964878953 0.08647676503689282 0.08598864231223001 1:-1.109640045143712 2:-1.2633340153062136 3:-1.1393595031220771 4:-1.1096167504709584 5:-1.1126649571983163 6:-1.0797317744249775 7:-1.1812876127542844 8:-1.2119348193021722 9:-0.6087296524788264 10:-1.5804780092473032 11:1.2068892513207878 12:-1.3331829388535033 13:-1.333182938853505 14:1.017785487922368 15:0.7003637121620823 16:-1.1347765682418929 17:-1.3331829388535033 18:-1.0059157200465225 19:-1.0252872455150706 20:-1.0748512708944093 21:-1.0560513358544394 22:-1.10097999652469 23:-1.0849665107993738 24:-1.0837861273739413 25:-1.209264060363792 26:-0.4327216567862906 27:-0.6266574706535716 
0.48649381058534175 0.0779461269404424 0.10522752660391266 0.1297749216753227 0.14379404557769696 1:-1.1758863880584747 2:-0.953882939909713 3:-1.1340844870962024 4:-1.014275199521141 5:-1.1355239613391845 6:-1.1729251696985354 7:-1.2441945593818313 8:-1.1483440111184113 9:2.2911186097976866 10:-1.089061312976584 11:1.9819668379987294 12:-1.3721007614620246 13:-1.3721007614620264 14:2.0801987074231865 15:2.1201661671457974 16:-1.5957152129689267 17:-1.3721007614620246 18:-1.002879048333408 19:-1.1389895946699893 20:-1.2112633337591021 21:-1.263669803534463 22:-1.2745448935070374 23:-1.2529179830593389 24:-1.1486187970074773 25:-1.1362012520985474 26:-0.008484738368358646 27:-0.04909298157193877 
1.0 1.0 1.0 1.0 1.0 1:-1.2090095595158559 2:-1.2633340153062136 3:-1.1921096633808252 4:-1.0619459749960498 5:-1.175966814819182 6:-1.2143444564867834 7:-1.4329153992644719 8:-1.2755256274859328 9:0.39604894021646353 10:-1.6174715974471152 11:-0.7711087498813198 12:-2.320974202993331 13:-2.320974202993333 14:-3.1778883832562044 15:-6.489945168511858 16:0.6905404648771617 17:-2.320974202993331 18:-1.1157123078473061 19:-1.1816279756030836 20:-1.1961064378852473 21:-1.1183368761584465 22:-1.10097999652469 23:-1.0009907746693913 24:-1.343116805908085 25:-1.083955883586736 26:-0.4327216567862906 27:-0.04909298157193877 
0.7155185166909549 0.8557045403198277 0.9795551177680033 1.0 1.0 1:-1.159324802329784 2:-1.1086084776079632 3:-1.1657345832514512 4:-1.014275199521141 5:-1.1636581202817915 6:-1.1625703480014735 7:-1.2127410860680579 8:-1.0847532029346507 9:3.0552596055965657 10:-0.8484381659880016 11:2.018970542136902 12:-1.280322238174909 13:-1.2803222381749106 14:2.149063098291247 15:2.237295383901241 16:-1.6154243136400144 17:-1.280322238174909 18:-1.1901892035875237 19:-1.1389895946699893 20:-1.150635750263683 21:-1.2013842632304559 22:-1.2456174106766462 23:-1.126954378864365 24:-1.213451466641013 25:-1.2429879989199981 26:0.20363372084060732 27:0.5284715075096941 
0.037014516017570165 0.41858333482804005 0.4326002959868882 0.4547784083026063 0.4631094132424036 1:-1.1841671809228198 2:-1.2633340153062136 3:-1.1868346473549505 4:-1.1096167504709584 5:-1.2005842038939631 6:-1.2039896347897214 7:-1.2756480326956048 8:-1.169540947179665 9:2.108645164722463 10:-1.1618422473697048 11:1.6644618408845875 12:-1.508377954534061 13:-1.5083779545340628 14:1.591065086400084 15:1.387119728343188 16:-1.4185303979358548 17:-1.508377954534061 18:-1.0190039116539136 19:-1.1816279756030836 20:-1.1809495420113927 21:-1.159860569694451 22:-1.10097999652469 23:-1.2529179830593389 24:-1.1486187970074773 25:-1.0624744316305434 26:-0.8569585752042226 27:-0.6266574706535716 
1.0 0.8616844300610107 0.879123709721726 0.9280300256027367 0.9494942780080868 1:-1.0185513236359136 2:-1.2633340153062136 3:-1.0496842306822054 4:-1.014275199521141 5:-1.00716186116354 6:-1.0900865961220396 7:-1.0082935095285304 8:-0.9363746505058759 9:1.787934261256921 10:-0.697211382334105 11:1.515951439008617 12:-0.878101753500984 13:-0.8781017535009857 14:1.5725759501840366 15:1.5733148498889993 16:-1.330346250361792 17:-0.878101753500984 18:-1.1176131315603541 19:-1.0395000391594356 20:-1.0900081667682642 21:-0.9937657955504323 22:-1.10097999652469 23:-1.0849665107993738 24:-1.213451466641013 25:-0.9933679827879185 26:-0.6448401159952566 27:-0.04909298157193877 
1.0 0.6885580460591232 0.7894310240161769 0.8282410180843199 0.8447181102765612 1:-1.1841671809228198 2:-0.33498078911671175 3:-1.1551845511997016 4:-1.014275199521141 5:-1.1548661956122268 6:-1.1625703480014735 7:-1.2913747693524915 8:-1.1907378832409186 9:1.6275788095241486 10:-1.2677928605304056 11:1.3674410371326469 12:-1.5974247956864616 13:-1.5974247956864633 14:1.1225050458246797 15:0.6856193605880011 16:-1.2384877633054754 17:-1.5974247956864616 18:-1.160889501097384 19:-1.153202388314354 20:-1.1203219585159736 21:-1.159860569694451 22:-1.1588349621854726 23:-0.9170150385394088 24:-1.1486187970074773 25:-1.1164145894666726 26:-0.6448401159952566 27:-0.6266574706535716 
1.0 1.0 1.0 1.0 1.0 1:-0.7701275377055544 2:-0.6444318645132123 3:-0.833408573621338 4:-0.9189336485713236 5:-0.8190146732348556 6:-0.7897967669072418 7:-0.7409389863614563 8:-0.830389970199608 9:-0.3706968197611576 10:-0.8681710126396122 11:0.5296900521912782 12:-0.5867844056643663 13:-0.5867844056643675 14:0.44102569321122087 15:0.3121186594926311 16:-0.6390722121752777 17:-0.5867844056643663 18:-0.8472697898263614 19:-0.769456959916504 20:-0.7565564575434597 21:-0.7653854811024065 22:-0.6381402712384304 23:-0.7070756982144526 24:-0.5651247703056543 25:-1.001230968775537 26:-0.008484738368358646 27:-0.6266574706535716 
0.6682172488492341 0.056063919710481455 0.17105156725987253 0.1799020969968264 0.18374808767889575 1:-1.1427632166010933 2:-1.2633340153062136 3:-1.0760593108115795 4:-0.8712628730964149 5:-1.1021146475948387 6:-1.1315058829102875 7:-1.2127410860680579 8:-1.1059501389959043 9:2.094067396383121 10:-1.0111118767905414 11:1.5474536454671561 12:-1.3558550686224433 13:-1.355855068622445 14:1.4784496572713137 15:1.2989107805397764 16:-1.3493514545803398 17:-1.3558550686224433 18:-0.8590126302426836 19:-1.1674151819587189 20:-1.1051650626421188 21:-1.1183368761584465 22:-1.0720525136942989 23:-1.126954378864365 24:-1.0837861273739413 25:-1.012986774300237 26:-0.8569585752042226 27:-0.6266574706535716 
1.0 0.2743884536277906 0.33759641931986395 0.3556749077256434 0.36460959829059236 1:-1.1179208380080574 2:-1.1086084776079632 3:-1.0655092787598297 4:-0.8235920976215062 5:-1.0722221037183186 6:-1.0797317744249775 7:-1.1970143494111711 8:-1.2119348193021722 9:-0.45704206300188044 10:-1.5614078027115108 11:1.1694271679646877 12:-1.3785910160928336 13:-1.3785910160928352 14:0.9459192034109105 15:0.5824059893548408 16:-1.1098858814266335 17:-1.3785910160928336 18:-0.9931995892865331 19:-1.0679256264481651 20:-1.1051650626421188 21:-1.097575029390444 22:-1.10097999652469 23:-1.2529179830593389 24:-1.1486187970074773 25:-0.9318793160752914 26:-0.8569585752042226 27:-0.6266574706535716 
1.0 0.2813595251197161 0.30393572581922085 0.3173805153790557 0.32261642594048445 1:-1.1013592522793667 2:-1.2633340153062136 3:-1.0549592467080802 4:-0.8235920976215062 5:-1.0687053338504928 6:-1.0693769527279156 7:-1.1655608760973977 8:-1.169540947179665 9:-0.04349379274368043 10:-1.4168954335827928 11:1.2423796460791985 12:-1.288553146084306 13:-1.288553146084308 14:1.0849434396460607 15:0.8096165822675899 16:-1.158111587131199 17:-1.288553146084306 18:-1.0629079612989556 19:-1.0679256264481651 20:-1.0748512708944093 21:-0.9937657955504323 22:-0.9274150995423427 23:-1.126954378864365 24:-0.9541207881068696 25:-1.0584880448550207 26:-0.8569585752042226 27:-0.04909298157193877 
0.7845830147311234 0.3768312613074815 0.4330339993582134 0.4556999448329073 0.4657058334183154 1:-1.1262016308724028 2:-0.7991574022114627 3:-1.0813343268374542 4:-0.8712628730964149 5:-1.0774972585200575 6:-1.1004414178191015 7:-1.2441945593818313 8:-1.2119348193021722 9:-0.2966866112691095 10:-1.541526031390953 11:0.6545911081279918 12:-1.584109251361427 13:-1.5841092513614285 14:0.10011532612446143 15:-0.6639765762316888 16:-0.7383693337766439 17:-1.584109251361427 18:-1.172974326424591 19:-1.08213842009253 20:-1.1809495420113927 21:-1.2013842632304559 22:-1.1299074793550812 23:-1.126954378864365 24:-1.278284136274549 25:-1.1673120396407144 26:-0.8569585752042226 27:-0.6266574706535716 
0.4037952445927075 0.0416647027494577 0.06285311430117797 0.06626552987536537 0.06650654412259972 1:-1.1262016308724028 2:-1.1086084776079632 3:-1.1235344550444528 4:-1.014275199521141 5:-1.1091481873304905 6:-1.1418607046073495 7:-1.1655608760973977 8:-1.1483440111184113 9:0.857872641206845 10:-1.2572307034488202 11:1.8426743231357507 12:-1.1858796713646398 13:-1.1858796713646413 14:1.927842923630516 15:1.9575489657627845 16:-1.5198043799154437 17:-1.1858796713646398 18:-1.1828832907287081 19:-1.1247768010256243 20:-1.150635750263683 21:-1.097575029390444 22:-1.1877624450158637 23:-1.126954378864365 24:-1.0837861273739413 25:-1.1901792560075344 26:-0.8569585752042226 27:-0.04909298157193877 
0.18120623560094815 0.14522582013352656 0.1984984192093075 0.2094290027240316 0.21338796836307905 1:-1.1758863880584747 2:-0.48970632681496207 3:-1.1868346473549505 4:-1.1096167504709584 5:-1.179483584687008 6:-1.1418607046073495 7:-1.259921296038718 8:-1.1907378832409186 9:1.362162889414734 10:-1.2972770194349212 11:1.6951881309278913 12:-1.4595988437539524 13:-1.4595988437539544 14:1.651524775945978 15:1.4926220587676562 16:-1.4363368123498486 17:-1.4595988437539524 18:-1.1340602260743702 19:-1.1389895946699893 20:-1.0900081667682642 21:-1.159860569694451 22:-1.1877624450158637 23:-1.126954378864365 24:-0.9541207881068696 25:-1.1213889760029896 26:-0.4327216567862906 27:-0.6266574706535716 
0.2322418972242658 0.41683104146061084 0.510949421509334 0.5356176689279689 0.5455418910318794 1:-1.1676055951941293 2:-0.953882939909713 3:-1.1235344550444528 4:-0.9666044240462324 5:-1.124973651735707 6:-1.1107962395161635 7:-1.2441945593818313 8:-1.1907378832409186 9:1.11444136397928 10:-1.3252744025133598 11:1.7238660016349752 12:-1.4118086015885347 13:-1.411808601588537 14:1.707056091824068 15:1.5883554953038905 16:-1.4528242331035464 17:-1.4118086015885347 18:-1.143331309677159 19:-1.1105640073812595 20:-1.1051650626421188 21:-1.1183368761584465 22:-0.9852700652031252 23:-1.0429786427343826 24:-1.1486187970074773 25:-1.1986831749058033 26:0.4157521800495733 27:-0.6266574706535716 
1.0 1.0 1.0 1.0 1.0 1:-1.1510440094654386 2:-1.1086084776079632 3:-1.1393595031220771 4:-1.014275199521141 5:-1.1337655764052716 6:-1.1107962395161635 7:-1.307101506009378 8:-1.2331317553634256 9:-0.17642002246953054 10:-1.5754945408207421 11:0.21648542259388032 12:-1.8187480502851747 13:-1.8187480502851763 14:-0.7526435168132855 15:-2.0409542947742407 16:-0.3718229071654505 17:-1.8187480502851747 18:-0.6730350453341863 19:-1.1247768010256243 20:-1.0900081667682642 21:-1.097575029390444 22:-1.0431250308639075 23:-1.0429786427343826 24:-1.0189534577404054 25:-0.987608795452446 26:0.20363372084060732 27:-0.6266574706535716 
0.37997705241479207 0.0 0.0 0.0 0.0 1:-1.159324802329784 2:-1.1086084776079632 3:-1.112984422992703 4:-0.9189336485713236 5:-1.119698496933968 6:-1.1522155263044116 7:-1.2127410860680579 8:-1.169540947179665 9:1.3172134190736229 10:-1.2512123574382137 11:2.018970542136902 12:-1.280322238174909 13:-1.2803222381749106 14:2.149063098291247 15:2.237295383901241 16:-1.6154243136400144 17:-1.280322238174909 18:-1.0466315640747887 19:-1.1816279756030836 20:-1.150635750263683 21:-1.1806224164624535 22:-1.1877624450158637 23:-1.1689422469293562 24:-1.0189534577404054 25:-1.012931809030479 26:-0.8569585752042226 27:-0.6266574706535716 
0.5720097750718578 0.5990509608171735 0.661485670061064 0.6935724746252547 0.7081511890881308 1:-1.1924479737871652 2:-1.2633340153062136 3:-1.1499095351738269 4:-0.9666044240462324 5:-1.1566245805461397 6:-1.1625703480014735 7:-1.2756480326956048 8:-1.2543286914246792 9:0.41600428532098604 10:-1.560369968531252 11:1.9394811036178647 12:-1.4675273723574958 13:-1.4675273723574973 14:1.9987500684573445 15:1.9783320102564013 16:-1.5728526561904659 17:-1.4675273723574958 18:-1.1338861625261736 19:-1.153202388314354 20:-1.1809495420113927 21:-1.159860569694451 22:-1.10097999652469 23:-1.0849665107993738 24:-1.213451466641013 25:-1.0010911643419886 26:-0.6448401159952566 27:-0.04909298157193877 
0.8334820152411128 1.0 1.0 1.0 1.0 1:-1.2007287666515105 2:-1.1086084776079632 3:-1.1393595031220771 4:-0.9189336485713236 5:-1.1566245805461397 6:-1.2246992781838455 7:-1.2913747693524915 8:-1.1907378832409186 9:2.2196604774605366 10:-1.2038003119452694 11:1.915787136366998 12:-1.5167504021345113 13:-1.5167504021345128 14:1.9522282940976488 15:1.8957540129973318 16:-1.5599924680025823 17:-1.5167504021345113 18:-1.126583221545939 19:-1.2100535628918132 20:-1.2112633337591021 21:-1.159860569694451 22:-1.1877624450158637 23:-1.1689422469293562 24:-1.213451466641013 25:-1.1522506226804536 26:-0.4327216567862906 27:1.106035996591327 
0.6044180919605299 0.4391114576005061 0.4936207743471459 0.526755289407332 0.5418247379313812 1:-1.1179208380080574 2:-0.953882939909713 3:-1.1235344550444528 4:-1.0619459749960498 5:-1.1161817270661423 6:-1.0590221310308536 7:-1.1183806661267375 8:-1.1483440111184113 9:0.6654460991275198 10:-1.2810888290334899 11:2.3245080714444533 12:-0.9859313548842932 13:-0.9859313548842946 14:2.591193893330025 15:2.879869336460377 16:-1.7712669882321093 17:-0.9859313548842932 18:-1.0482664235663826 19:-1.0963512137368947 20:-1.0748512708944093 21:-1.159860569694451 22:-1.10097999652469 23:-1.1689422469293562 24:-0.9541207881068696 25:-1.1442911181874749 26:-0.22060319757732463 27:-0.6266574706535716 
0.7687127336954258 0.9027590045348103 1.0 1.0 1.0 1:-1.2007287666515105 2:-1.1086084776079632 3:-1.1499095351738269 4:-0.9666044240462324 5:-1.1654165052157044 6:-1.1832799913955976 7:-1.259921296038718 8:-1.1907378832409186 9:2.2196604774605366 10:-1.2038003119452694 11:2.5555242521404065 12:-1.3319338537003806 13:-1.3319338537003824 14:2.89186613764364 15:3.2889406314224425 16:-1.881497172699688 17:-1.3319338537003806 18:-1.066638137905733 19:-1.2100535628918132 20:-1.2112633337591021 21:-1.222146109998458 22:-1.2166899278462548 23:-1.1689422469293562 24:-1.278284136274549 25:-1.0190149083270368 26:-0.6448401159952566 27:-0.04909298157193877 
0.11307784189067277 0.0 0.0 0.0 0.0 1:-1.1262016308724028 2:-0.953882939909713 3:-1.1393595031220771 4:-1.0619459749960498 5:-1.1320071914713585 6:-1.1107962395161635 7:-1.1655608760973977 8:-1.0847532029346507 9:2.0124318936828 10:-0.9729353755066875 11:1.8426743231357507 12:-1.1858796713646398 13:-1.1858796713646413 14:1.927842923630516 15:1.9575489657627845 16:-1.5198043799154437 17:-1.1858796713646398 18:-1.0039218147648923 19:-1.08213842009253 20:-1.1203219585159736 21:-1.1390987229264486 22:-1.10097999652469 23:-1.126954378864365 24:-0.759622779206262 25:-1.107959900946867 26:-0.4327216567862906 27:-0.04909298157193877 
1.0 0.6357471888881504 0.7383036862469191 0.7851164130073514 0.806723879611777 1:-1.1179208380080574 2:-0.953882939909713 3:-1.112984422992703 4:-1.0619459749960498 5:-1.121456881867881 6:-1.1315058829102875 7:-1.1812876127542844 8:-1.0423593308121437 9:2.5362597026765203 10:-0.8138905395701213 11:1.400443348660641 12:-1.3000590838511255 13:-1.300059083851127 14:1.2958901904870204 15:1.0797052683665236 16:-1.259230002318192 17:-1.3000590838511255 18:-1.1364730508082284 19:-1.0537128328038003 20:-1.1354788543898284 21:-1.0560513358544394 22:-1.0431250308639075 23:-0.9170150385394088 24:-1.0189534577404054 25:-1.119778822715509 26:0.4157521800495733 27:-0.6266574706535716 
1.0 0.6118895094490163 0.480836906156338 0.5088209611627454 0.5206548380878159 1:-1.0847976665506762 2:-0.33498078911671175 3:-1.0918843588892038 4:-1.0619459749960498 5:-1.0985978777270127 6:-1.1004414178191015 7:-1.149834139440511 8:-1.127147075057158 9:0.3286996504886994 10:-1.2787544575532819 11:1.1001223137559009 12:-1.2759852114597539 13:-1.2759852114597554 14:0.8972936202834451 15:0.5745572327604745 16:-1.0631215607434177 17:-1.2759852114597539 18:-1.0794854277501185 19:-1.0963512137368947 20:-1.0900081667682642 21:-1.0768131826224416 22:-1.0720525136942989 23:-1.126954378864365 24:-0.8892881184733337 25:-1.1309409659720469 26:-0.22060319757732463 27:-0.6266574706535716 
0.0 0.11852581829573852 0.14382873294860327 0.1504634967977646 0.15391764682387374 1:-1.2090095595158559 2:-0.953882939909713 3:-1.1657345832514512 4:-1.014275199521141 5:-1.179483584687008 6:-1.2039896347897214 7:-1.3228282426662648 8:-1.2543286914246792 9:0.9348432580385763 10:-1.5053440079759066 11:1.5575343515338886 12:-1.6613059721629828 13:-1.6613059721629846 14:1.3729188716007763 15:0.9957122060540897 16:-1.355398565013514 17:-1.6613059721629828 18:-1.0917221837059126 19:-1.1389895946699893 20:-1.1809495420113927 21:-1.159860569694451 22:-1.1877624450158637 23:-1.1689422469293562 24:-1.213451466641013 25:-1.1744158193915923 26:-0.4327216567862906 27:-0.6266574706535716 
0.40636604976211776 0.46690286876901727 0.5422266818091459 0.5861190110093779 0.6044841184727766 1:-1.1676055951941293 2:-1.1086084776079632 3:-1.1288094710703276 4:-0.9666044240462324 5:-1.149591040810488 6:-1.1418607046073495 7:-1.307101506009378 8:-1.2543286914246792 9:-0.23254443057600038 10:-1.6323484528736578 11:0.6149883342944 12:-1.755918287774541 13:-1.755918287774543 14:-0.09604425745078425 15:-1.1069337198181717 16:-0.7073060772841698 17:-1.755918287774541 18:-1.093704952343506 19:-1.1247768010256243 20:-1.0748512708944093 21:-1.0560513358544394 22:-0.840632651051169 23:-1.0009907746693913 24:-0.6299574399391902 25:-1.1389830354717838 26:-0.6448401159952566 27:-0.6266574706535716 
0.38240419466600417 0.3411898188038174 0.4231771569627266 0.4463752444316893 0.45557485665695124 1:-1.159324802329784 2:-0.953882939909713 3:-1.1499095351738269 4:-1.014275199521141 5:-1.1284904216035327 6:-1.1832799913955976 7:-1.2441945593818313 8:-1.169540947179665 9:1.3172134190736229 10:-1.2512123574382137 11:1.4824168321333981 12:-1.4495792550831272 13:-1.449579255083129 14:1.3531590397241593 15:1.0871005097055155 16:-1.309933253238166 17:-1.4495792550831272 18:-1.1743325206478556 19:-1.1247768010256243 20:-1.2112633337591021 21:-1.2013842632304559 22:-1.1877624450158637 23:-1.1689422469293562 24:-1.0189534577404054 25:-1.2157380695221687 26:-0.22060319757732463 27:0.5284715075096941 
0.16806909757313834 0.0 0.0 0.0 0.0 1:-1.159324802329784 2:-0.953882939909713 3:-1.171009599277326 4:-1.1096167504709584 5:-1.1689332750835304 6:-1.1522155263044116 7:-1.259921296038718 8:-1.1907378832409186 9:0.8827018724428876 10:-1.351905905300767 11:1.2141399771316463 12:-1.5342077635372364 13:-1.5342077635372384 14:0.9328103733104355 15:0.4695322458103984 16:-1.1395632387832892 17:-1.5342077635372364 18:-0.9398206872632264 19:-1.1816279756030836 20:-1.150635750263683 21:-1.097575029390444 22:-1.0720525136942989 23:-1.1689422469293562 24:-1.1486187970074773 25:-1.1444147283359771 26:0.20363372084060732 27:-0.04909298157193877 
1.0 0.3801881132044452 0.12688671639496443 0.13199093157775635 0.13432333305433758 1:-1.0682360808219855 2:-1.1086084776079632 3:-1.0444092146563306 4:-0.9666044240462324 5:-1.063430179048754 6:-1.0176028442426055 7:-1.1026539294698507 8:-1.0423593308121437 9:1.3068679060586066 10:-0.9733114630647269 11:1.3674410371326469 12:-1.1171170949834968 13:-1.1171170949834983 14:1.314446618955545 15:1.1756746306768118 16:-1.2384877633054754 17:-1.1171170949834968 18:-1.0994584142350834 19:-1.0110744518707058 20:-0.9990667915251357 21:-1.0145276423184346 22:-1.0431250308639075 23:-1.1689422469293562 24:-0.8892881184733337 25:-0.9623924118842881 26:-0.4327216567862906 27:-0.6266574706535716 
0.3355174926038084 0.08813383698468401 0.1050798733524636 0.11126346605182391 0.11483289454101339 1:-1.159324802329784 2:-1.1086084776079632 3:-1.1499095351738269 4:-1.014275199521141 5:-1.1372823462730974 6:-1.1522155263044116 7:-1.2284678227249446 8:-1.2119348193021722 9:0.44819032581215223 10:-1.45259945316332 11:1.75069368713515 12:-1.364950746629018 13:-1.36495074662902 14:1.7582188668349341 15:1.6755522347911558 16:-1.4681339809462657 17:-1.364950746629018 18:-1.1480554780206356 19:-1.153202388314354 20:-1.1051650626421188 21:-1.0768131826224416 22:-1.1299074793550812 23:-0.9590029066044 24:-1.213451466641013 25:-1.2499091936457543 26:-0.8569585752042226 27:-0.6266574706535716 
0.09310000016921142 0.0 0.0 0.0 0.0 1:-1.1676055951941293 2:-0.953882939909713 3:-1.0971593749150788 4:-0.8235920976215062 5:-1.1144233421322292 6:-1.1832799913955976 7:-1.2441945593818313 8:-1.1483440111184113 9:2.0124318936828 10:-1.120558368939828 11:1.7238660016349752 12:-1.4118086015885347 13:-1.411808601588537 14:1.707056091824068 15:1.5883554953038905 16:-1.4528242331035464 17:-1.4118086015885347 18:-1.092918306782656 19:-1.2100535628918132 20:-1.1961064378852473 21:-1.0560513358544394 22:-1.1877624450158637 23:-1.126954378864365 24:-1.213451466641013 25:-1.1900597071143952 26:-0.6448401159952566 27:-0.6266574706535716 
1.0 0.27932661315780294 0.12225791334657407 0.1278314315568255 0.1312218293816249 1:-1.0682360808219855 2:-1.1086084776079632 3:-1.0918843588892038 4:-1.014275199521141 5:-1.0792556434539704 6:-1.0590221310308536 7:-1.1341074027836242 8:-1.1059501389959043 9:0.3447351956619765 10:-1.2328364032434518 11:0.9714132987967274 12:-1.2625299776701955 13:-1.262529977670197 14:0.7295461971771691 15:0.3688978143755837 16:-0.9737191829666823 17:-1.2625299776701955 18:-0.7105193244246176 19:-1.0395000391594356 20:-0.9687529997774261 21:-1.0560513358544394 22:-0.9852700652031252 23:-0.9170150385394088 24:-0.694790109572726 25:-1.1224439861881867 26:-0.4327216567862906 27:-0.6266574706535716 
0.9089233579693466 0.9233799455699865 1.0 1.0 1.0 1:-1.1344824237367481 2:0.12919582397803914 3:-1.1182594390185778 4:-1.0619459749960498 5:-1.1038730325287516 6:-1.1522155263044116 7:-1.1970143494111711 8:-1.2331317553634256 9:-0.5230707784212575 10:-1.6169220646189542 11:1.5771027809575457 12:-1.3102882351112208 13:-1.3102882351112224 14:1.534326792918665 15:1.3919068204299374 16:-1.3670896451843184 17:-1.3102882351112208 18:-1.0203539470435017 19:-1.1105640073812595 20:-1.1961064378852473 21:-1.0768131826224416 22:-1.10097999652469 23:-1.0429786427343826 24:-1.0837861273739413 25:-1.0182814807034277 26:-0.4327216567862906 27:-0.6266574706535716 
0.6513970786612325 0.384554238528997 0.43543586547226454 0.4560183433504385 0.4645399721431615 1:-1.1179208380080574 2:-1.1086084776079632 3:-1.1499095351738269 4:-1.0619459749960498 5:-1.1548661956122268 6:-1.1729251696985354 7:-1.2284678227249446 8:-1.1483440111184113 9:0.6654460991275198 10:-1.2810888290334899 11:0.707394806572781 12:-1.5356548805762498 13:-1.5356548805762515 14:0.20954732772715487 15:-0.47980443358521824 16:-0.7791953280238951 17:-1.5356548805762498 18:-0.9760825413348724 19:-1.1247768010256243 20:-1.2112633337591021 21:-1.2013842632304559 22:-1.1877624450158637 23:-1.2109301149943477 24:-1.1486187970074773 25:-1.1917052771784964 26:-0.6448401159952566 27:-0.6266574706535716 
0.5224533206267948 0.4409166154877689 0.49718601269182244 0.5289253253927668 0.5430360504824878 1:-1.2090095595158559 2:-1.2633340153062136 3:-1.1340844870962024 4:-0.7759213221465975 5:-1.1460742709426621 6:-1.1936348130926595 7:-1.2913747693524915 8:-1.2119348193021722 9:2.0124318936828 10:-1.2810888290334899 11:2.2228609519382334 12:-1.4728293347828836 13:-1.4728293347828851 14:2.4068092527427902 15:2.5666767098419245 16:-1.7207448203511349 17:-1.4728293347828836 18:-1.043116876182104 19:-1.2100535628918132 20:-1.1961064378852473 21:-1.2013842632304559 22:-1.10097999652469 23:-1.2109301149943477 24:-1.0837861273739413 25:-0.9434159902350407 26:-0.6448401159952566 27:-0.6266574706535716 
1.0 0.12019256707647577 0.04198844088804873 0.04169089899736677 0.041006763681207196 1:-1.0847976665506762 2:-1.1086084776079632 3:-1.0971593749150788 4:-0.9189336485713236 5:-1.0792556434539704 6:-1.1004414178191015 7:-1.1812876127542844 8:-1.1483440111184113 9:-0.00804679815012031 10:-1.3673991003716153 11:0.6842931885031858 12:-1.4249890764224402 13:-1.4249890764224418 14:0.2490628205842001 15:-0.33986111583182776 16:-0.7614162660129957 17:-1.4249890764224402 18:-0.9314152661087027 19:-1.0679256264481651 20:-1.1203219585159736 21:-1.1183368761584465 22:-1.0431250308639075 23:-0.8330393024094264 24:-0.9541207881068696 25:-0.96197822078868 26:-0.4327216567862906 27:-0.6266574706535716 
0.519916285937549 0.3061031281126215 0.3567226286551416 0.37605178202105904 0.3818769975281372 1:-1.1841671809228198 2:-1.2633340153062136 3:-1.1921096633808252 4:-1.1096167504709584 5:-1.1882755093565727 6:-1.1625703480014735 7:-1.2756480326956048 8:-1.2755256274859328 9:-0.2966866112691095 10:-1.6915953131732082 11:1.6644618408845875 12:-1.508377954534061 13:-1.5083779545340628 14:1.591065086400084 15:1.387119728343188 16:-1.4185303979358548 17:-1.508377954534061 18:-1.060258822629024 19:-1.153202388314354 20:-1.1657926461375379 21:-1.159860569694451 22:-1.10097999652469 23:-1.126954378864365 24:-1.0189534577404054 25:-1.1823167070483194 26:-0.6448401159952566 27:-0.6266574706535716 
0.2467873321006096 0.3725679513522765 0.4545129068053961 0.4802671634847308 0.4911098168738734 1:-1.159324802329784 2:-1.1086084776079632 3:-1.0918843588892038 4:-0.8235920976215062 5:-1.0810140283878833 6:-1.1625703480014735 7:-1.259921296038718 8:-1.1483440111184113 9:1.7517249657043596 10:-1.1505188095756607 11:1.2141399771316463 12:-1.5342077635372364 13:-1.5342077635372384 14:0.9328103733104355 15:0.4695322458103984 16:-1.1395632387832892 17:-1.5342077635372364 18:-1.185293729130919 19:-1.1958407692474484 20:-1.1354788543898284 21:-1.1390987229264486 22:-1.1588349621854726 23:-0.9590029066044 24:-1.1486187970074773 25:-1.2293689759798798 26:-0.4327216567862906 27:0.5284715075096941 
0.027029550447531744 0.0 0.024089477169141556 0.025642912128320507 0.02596951027219691 1:-1.159324802329784 2:-0.953882939909713 3:-1.0918843588892038 4:-0.8712628730964149 5:-1.1073898023965774 6:-1.1315058829102875 7:-1.2441945593818313 8:-1.1907378832409186 9:0.8827018724428876 10:-1.351905905300767 11:1.4824168321333981 12:-1.4495792550831272 13:-1.449579255083129 14:1.3531590397241593 15:1.0871005097055155 16:-1.309933253238166 17:-1.4495792550831272 18:-1.1412302481888883 19:-1.153202388314354 20:-1.1354788543898284 21:-1.0560513358544394 22:-1.1588349621854726 23:-1.126954378864365 24:-1.213451466641013 25:-1.235445815257159 26:-0.8569585752042226 27:-0.04909298157193877 
0.5325175731998634 0.0 0.0 0.0 0.0 1:-1.1013592522793667 2:-1.2633340153062136 3:-1.0813343268374542 4:-0.9666044240462324 5:-1.091564337991361 6:-1.0486673093337915 7:-1.1655608760973977 8:-1.1483440111184113 9:0.31097615319191935 10:-1.3259479490228618 11:1.2423796460791985 12:-1.288553146084306 13:-1.288553146084308 14:1.0849434396460607 15:0.8096165822675899 16:-1.158111587131199 17:-1.288553146084306 18:-1.099302601813414 19:-0.9542232772932465 20:-0.9990667915251357 21:-1.0560513358544394 22:-1.1877624450158637 23:-1.2529179830593389 24:-0.9541207881068696 25:-1.0977629181221003 26:-0.8569585752042226 27:-0.6266574706535716 
1.0 0.4580203769421054 0.5094195652616511 0.5353852306020763 0.5465919950618563 1:-1.1013592522793667 2:-1.1086084776079632 3:-1.1182594390185778 4:-1.014275199521141 5:-1.1021146475948387 6:-1.0486673093337915 7:-1.1026539294698507 8:-1.0847532029346507 9:1.3743859909987208 10:-1.0531054953430694 11:2.117809383453337 12:-0.9828036664268344 13:-0.9828036664268368 14:2.323375341772369 15:2.5217587084907915 16:-1.6671607029016173 17:-0.9828036664268344 18:-1.0339855346396543 19:-1.0252872455150706 20:-1.029380583272845 21:-1.0768131826224416 22:-1.0720525136942989 23:-1.126954378864365 24:-0.9541207881068696 25:-1.1821775059221693 26:-0.8569585752042226 27:-0.6266574706535716 
0.6128701801453349 0.6033880047787339 0.5915379772248188 0.618692436203744 0.6304732171491403 1:-1.109640045143712 2:-1.1086084776079632 3:-1.1657345832514512 4:-1.1572875259458673 5:-1.1320071914713585 6:-1.1211510612132256 7:-1.1655608760973977 8:-1.1059501389959043 9:1.211521421244526 10:-1.1196364552958653 11:1.4316617514573913 12:-1.2557195180634848 13:-1.2557195180634866 14:1.3540731893862488 15:1.1745390897679044 16:-1.278675851392614 17:-1.2557195180634848 18:-1.0328258012338911 19:-1.0679256264481651 20:-1.0900081667682642 21:-1.2013842632304559 22:-1.1588349621854726 23:-1.1689422469293562 24:-1.1486187970074773 25:-1.1947667161328759 26:0.6278706392585393 27:-0.6266574706535716 
1.0 1.0 1.0 1.0 1.0 1:-1.1924479737871652 2:-0.953882939909713 3:-1.171009599277326 4:-1.0619459749960498 5:-1.1654165052157044 6:-1.1832799913955976 7:-1.259921296038718 8:-1.1059501389959043 9:3.9081896786124544 10:-0.8051062056087485 11:2.247502677879135 12:-1.376846507918032 13:-1.376846507918034 14:2.4538978762966845 15:2.6501102004302615 16:-1.733110385916408 17:-1.376846507918032 18:-1.1931294791258136 19:-1.1674151819587189 20:-1.2264202296329567 21:-1.1806224164624535 22:-1.1299074793550812 23:-1.126954378864365 24:-1.0837861273739413 25:-1.1770960664837755 26:-0.8569585752042226 27:-0.6266574706535716 
0.0881118236347788 0.10646209329772971 0.07610690981507325 0.07797614066260014 0.07924908246016053 1:-1.1841671809228198 2:-0.953882939909713 3:-1.1393595031220771 4:-1.014275199521141 5:-1.1460742709426621 6:-1.2143444564867834 7:-1.2913747693524915 8:-1.2119348193021722 9:1.1465124543258343 10:-1.3737434736911063 11:1.3674410371326469 12:-1.5974247956864616 13:-1.5974247956864633 14:1.1225050458246797 15:0.6856193605880011 16:-1.2384877633054754 17:-1.5974247956864616 18:-1.167585452668294 19:-1.224266356536178 20:-1.1961064378852473 21:-1.159860569694451 22:-1.1588349621854726 23:-1.0429786427343826 24:-1.1486187970074773 25:-1.205046510196939 26:-0.8569585752042226 27:-0.04909298157193877 
0.42894077643951084 0.4659478710133515 0.530913651743118 0.5593948407659085 0.5739599966367062 1:-1.1510440094654386 2:-1.2633340153062136 3:-1.1604595672255764 4:-1.1572875259458673 5:-1.149591040810488 6:-1.1315058829102875 7:-1.2284678227249446 8:-1.2543286914246792 9:-0.5973530832680558 10:-1.6746022644122331 11:1.515951439008617 12:-1.4022695865767174 13:-1.4022695865767192 14:1.4182288927373838 15:1.1976672192638282 16:-1.330346250361792 17:-1.4022695865767174 18:-1.0898561159607436 19:-1.153202388314354 20:-1.1051650626421188 21:-1.159860569694451 22:-1.10097999652469 23:-1.0849665107993738 24:-1.1486187970074773 25:-1.1664740516225074 26:-0.22060319757732463 27:-0.6266574706535716 
0.6152915905251134 0.2521258557283804 0.2687124113936946 0.28050870773154 0.28544263095953604 1:-1.159324802329784 2:-0.953882939909713 3:-1.112984422992703 4:-1.014275199521141 5:-1.1355239613391845 6:-1.1418607046073495 7:-1.2284678227249446 8:-1.1059501389959043 9:2.6207480589658303 10:-0.9491317138505546 11:1.75069368713515 12:-1.364950746629018 13:-1.36495074662902 14:1.7582188668349341 15:1.6755522347911558 16:-1.4681339809462657 17:-1.364950746629018 18:-1.0397454780967228 19:-1.0963512137368947 20:-1.2112633337591021 21:-1.2013842632304559 22:-1.1877624450158637 23:-1.2109301149943477 24:-1.1486187970074773 25:-1.1489586561273872 26:-0.8569585752042226 27:-0.6266574706535716 
0.2874629985116798 0.03688901148255955 0.034907185521935745 0.027256899314362114 0.023378849950654524 1:-1.1676055951941293 2:-1.2633340153062136 3:-1.1340844870962024 4:-0.9189336485713236 5:-1.1337655764052716 6:-1.1004414178191015 7:-1.2284678227249446 8:-1.127147075057158 9:2.46142715853456 10:-1.0182003521530618 11:2.001085418470119 12:-1.3257811800420336 13:-1.3257811800420352 14:2.116020967208513 15:2.1814194011662447 16:-1.60592171153074 17:-1.3257811800420336 18:-1.0714613579778876 19:-1.0537128328038003 20:-1.0900081667682642 21:-1.0768131826224416 22:-1.0141975480335164 23:-1.0429786427343826 24:-1.0837861273739413 25:-1.0345872771966305 26:-0.8569585752042226 27:-0.6266574706535716 
0.7707393726954738 0.8805966984063838 0.9918921193564784 1.0 1.0 1:-1.1510440094654386 2:-1.2633340153062136 3:-1.1340844870962024 4:-1.014275199521141 5:-1.1284904216035327 6:-1.0900865961220396 7:-1.1655608760973977 8:-1.1907378832409186 9:0.6654460991275198 10:-1.3772790936377601 11:2.5555242521404065 12:-1.069086815609952 13:-1.0690868156099536 14:2.89186613764364 15:3.2889406314224425 16:-1.881497172699688 17:-1.069086815609952 18:-1.0486238752330228 19:-1.0679256264481651 20:-1.0748512708944093 21:-1.0145276423184346 22:-1.0141975480335164 23:-1.1689422469293562 24:-0.9541207881068696 25:-1.1879348711706388 26:-0.8569585752042226 27:-0.04909298157193877 
0.6598892979682442 0.7512741467472801 0.8581572635392981 0.902197821441948 0.9213430743945985 1:-1.159324802329784 2:-0.7991574022114627 3:-1.1182594390185778 4:-0.8712628730964149 5:-1.1320071914713585 6:-1.1211510612132256 7:-1.2756480326956048 8:-1.127147075057158 9:2.186236512335095 10:-1.0498252617131079 11:0.9458631221298934 12:-1.6188362719913456 13:-1.6188362719913478 14:0.4959732987288345 15:-0.1798871783455941 16:-0.9555636231720224 17:-1.6188362719913456 18:-1.1081282924525266 19:-1.153202388314354 20:-1.0900081667682642 21:-1.2429079567664605 22:-1.0720525136942989 23:-1.0849665107993738 24:-0.9541207881068696 25:-1.1564753632740692 26:0.20363372084060732 27:-0.04909298157193877 
0.0 0.0 0.08151280299197922 0.0857864859278934 0.08761545931618088 1:-1.1427632166010933 2:-1.2633340153062136 3:-1.112984422992703 4:-0.9666044240462324 5:-1.1109065722644034 6:-1.0900865961220396 7:-1.2284678227249446 8:-1.169540947179665 9:0.8695348558783198 10:-1.3038954959372024 11:1.2954359937988438 12:-1.437878996716293 13:-1.4378789967162946 14:1.0945940338603684 15:0.7452644441582443 16:-1.1925585197773176 17:-1.437878996716293 18:-1.115019245916368 19:-1.1105640073812595 20:-1.1657926461375379 21:-1.0145276423184346 22:-0.9852700652031252 23:-1.126954378864365 24:-0.9541207881068696 25:-1.0932873928939284 26:-0.8569585752042226 27:-0.6266574706535716 
0.25935046328524153 0.0 0.0 0.0 0.0 1:-1.1179208380080574 2:-1.2633340153062136 3:-1.1077094069668283 4:-1.014275199521141 5:-1.0810140283878833 6:-1.0693769527279156 7:-1.1655608760973977 8:-1.127147075057158 9:1.0396088198373201 10:-1.1876491711408161 11:1.6314595293565932 12:-1.2215271516094175 13:-1.2215271516094188 14:1.6347490903205575 15:1.5567103461494034 16:-1.3992401156540288 17:-1.2215271516094175 18:-0.8933059233745697 19:-1.0679256264481651 20:-1.0445374791467 21:-1.0768131826224416 22:-0.956342582372734 23:-1.126954378864365 24:-1.1486187970074773 25:-0.9550271078115544 26:-0.008484738368358646 27:-0.6266574706535716 
0.08811210644080374 0.0 0.0 0.0 0.0 1:-1.0847976665506762 2:-1.1086084776079632 3:-1.086609342863329 4:-1.0619459749960498 5:-1.1091481873304905 6:-1.0383124876367296 7:-1.1341074027836242 8:-1.0847532029346507 9:1.0021925477663403 10:-1.101465171916615 11:1.308036876382259 12:-1.201483278978411 13:-1.2014832789784125 14:1.2068185672009344 15:1.0054324260401921 16:-1.2006636803999338 17:-1.201483278978411 18:-1.1481017354555327 19:-1.0110744518707058 20:-0.9990667915251357 21:-1.035289489086437 22:-1.0431250308639075 23:-1.0849665107993738 24:-1.0189534577404054 25:-1.1537079287625456 26:-0.6448401159952566 27:-0.04909298157193877 
1.0 1.0 1.0 1.0 1.0 1:-1.1344824237367481 2:-1.1086084776079632 3:-1.0971593749150788 4:-1.014275199521141 5:-1.1302488065374456 6:-1.0590221310308536 7:-1.2441945593818313 8:-1.3179194996084398 9:-2.1077599484862932 10:-2.0015165236140007 11:0.8432866775704 12:-1.5527143099345062 13:-1.552714309934508 14:0.39156989172315293 15:-0.25991316166782963 16:-0.8812603136420243 17:-1.5527143099345062 18:-0.932034012250631 19:-1.0537128328038003 20:-1.0445374791467 21:-0.9730039487824299 22:-0.9852700652031252 23:-0.9590029066044 24:-1.0189534577404054 25:-1.0134218042001502 26:-0.6448401159952566 27:-0.6266574706535716 
0.6389695822363974 0.1404665045719193 0.1449467580270316 0.1515646306038789 0.1539392839106431 1:-1.1510440094654386 2:-1.1086084776079632 3:-1.1604595672255764 4:-1.0619459749960498 5:-1.1425575010748363 6:-1.1315058829102875 7:-1.2441945593818313 8:-1.2119348193021722 9:0.24451303832899468 10:-1.4763868172292514 11:1.2560582357256698 12:-1.485565279318409 13:-1.4855652793184106 14:1.016879712545753 15:0.6135725511856419 16:-1.1670422733727857 17:-1.485565279318409 18:-1.0639016995505004 19:-1.1247768010256243 20:-1.1051650626421188 21:-1.159860569694451 22:-1.0720525136942989 23:-1.0849665107993738 24:-1.0837861273739413 25:-1.0464705322401078 26:0.20363372084060732 27:-0.04909298157193877 
0.23703230642264214 0.25967393845787373 0.3106572538813237 0.337064221162463 0.3491167225123816 1:-1.1427632166010933 2:-1.1086084776079632 3:-1.1182594390185778 4:-0.9189336485713236 5:-1.1144233421322292 6:-1.1315058829102875 7:-1.259921296038718 8:-1.169540947179665 9:0.8695348558783198 10:-1.3038954959372024 11:0.7914006904622182 12:-1.6019268529039918 13:-1.6019268529039936 14:0.2839445056071849 15:-0.4433723012295455 16:-0.8427896652167299 17:-1.6019268529039918 18:-0.9845702036553623 19:-1.1105640073812595 20:-1.1354788543898284 21:-1.1390987229264486 22:-1.0431250308639075 23:-0.9170150385394088 24:-1.213451466641013 25:-1.0548702178483298 26:-0.4327216567862906 27:-0.04909298157193877 
0.4382196159264919 0.07605020186863609 0.07096983444940232 0.06748237411720545 0.06574915784008502 1:-1.1758863880584747 2:-0.7991574022114627 3:-1.1551845511997016 4:-1.1096167504709584 5:-1.147832655876575 6:-1.1729251696985354 7:-1.2441945593818313 8:-1.1907378832409186 9:1.362162889414734 10:-1.2972770194349212 11:1.9819668379987294 12:-1.3721007614620246 13:-1.3721007614620264 14:2.0801987074231865 15:2.1201661671457974 16:-1.5957152129689267 17:-1.3721007614620246 18:-1.1055419580018666 19:-1.1674151819587189 20:-1.1203219585159736 21:-1.159860569694451 22:-1.10097999652469 23:-0.8750271704744176 24:-0.9541207881068696 25:-1.1537894499320749 26:-0.6448401159952566 27:-0.6266574706535716 
0.5973189122573791 0.566886074828109 0.6505811650823381 0.6811965985591848 0.6946550360423334 1:-1.1510440094654386 2:-0.953882939909713 3:-1.0918843588892038 4:-0.7759213221465975 5:-1.089805953057448 6:-1.1625703480014735 7:-1.2756480326956048 8:-1.2543286914246792 9:-0.5973530832680558 10:-1.6746022644122331 11:0.7362718291597751 12:-1.6521566648017922 13:-1.6521566648017936 14:0.16754642547469878 15:-0.6440340145928258 16:-0.8012413649174113 17:-1.6521566648017922 18:-0.9324189622581756 19:-1.1816279756030836 20:-1.1354788543898284 21:-1.1183368761584465 22:-1.0141975480335164 23:-1.0849665107993738 24:-0.8892881184733337 25:-1.2098787901455432 26:-0.6448401159952566 27:-0.04909298157193877 
0.4839939683765192 0.500396462753856 0.5722001961843606 0.6139901081731494 0.6311625454078594 1:-1.1758863880584747 2:-0.48970632681496207 3:-1.1235344550444528 4:-0.9666044240462324 5:-1.1320071914713585 6:-1.1522155263044116 7:-1.2284678227249446 8:-1.169540947179665 9:1.8266407496062094 10:-1.1931691662057526 11:2.2687455450695686 12:-1.2846026791700969 13:-1.2846026791700988 14:2.4932809946883805 15:2.718123404801337 16:-1.7437094421152137 17:-1.2846026791700969 18:-1.093607210046919 19:-1.0679256264481651 20:-1.1203219585159736 21:-1.1183368761584465 22:-1.0431250308639075 23:-1.126954378864365 24:-1.0837861273739413 25:-1.1199524448677198 26:-0.8569585752042226 27:-0.04909298157193877 
0.6759706605361998 0.8793175389389738 0.9843535818808696 1.0 1.0 1:-1.1179208380080574 2:-1.2633340153062136 3:-1.1077094069668283 4:-1.014275199521141 5:-1.0810140283878833 6:-1.1315058829102875 7:-1.1655608760973977 8:-1.02116239475089 9:2.9104224233863203 10:-0.7204508816774476 11:1.6314595293565932 12:-1.2215271516094175 13:-1.2215271516094188 14:1.6347490903205575 15:1.5567103461494034 16:-1.3992401156540288 17:-1.2215271516094175 18:-1.1263100060876654 19:-1.1389895946699893 20:-1.1203219585159736 21:-1.097575029390444 22:-1.1299074793550812 23:-1.126954378864365 24:-1.0189534577404054 25:-1.2166256361205512 26:0.8399890984675052 27:-0.04909298157193877 
1.0 1.0 1.0 1.0 1.0 1:-1.1841671809228198 2:-1.1086084776079632 3:-1.1921096633808252 4:-1.1096167504709584 5:-1.1882755093565727 6:-1.1729251696985354 7:-1.2913747693524915 8:-1.1059501389959043 9:3.5518442303174074 10:-0.8439904078876028 11:1.3674410371326469 12:-1.5974247956864616 13:-1.5974247956864633 14:1.1225050458246797 15:0.6856193605880011 16:-1.2384877633054754 17:-1.5974247956864616 18:-1.186678733258618 19:-1.1816279756030836 20:-1.1354788543898284 21:-1.1390987229264486 22:-1.0720525136942989 23:-1.0849665107993738 24:-1.0837861273739413 25:-1.089034016442179 26:-0.8569585752042226 27:-0.6266574706535716 
0.9121540646439009 1.0 1.0 1.0 1.0 1:-1.1427632166010933 2:-1.2633340153062136 3:-1.0971593749150788 4:-0.9666044240462324 5:-1.1003562626609258 6:-1.1315058829102875 7:-1.259921296038718 8:-1.1483440111184113 9:1.2777123693799197 10:-1.206300956221649 11:0.7914006904622182 12:-1.6019268529039918 13:-1.6019268529039936 14:0.2839445056071849 15:-0.4433723012295455 16:-0.8427896652167299 17:-1.6019268529039918 18:-1.0561022139767222 19:-1.0963512137368947 20:-1.1354788543898284 21:-1.2013842632304559 22:-1.1299074793550812 23:-1.0009907746693913 24:-1.1486187970074773 25:-1.0538336865652265 26:-0.008484738368358646 27:1.106035996591327 
0.1749438422957886 0.0 0.0 0.0 0.0 1:-1.109640045143712 2:-1.2633340153062136 3:-1.1235344550444528 4:-1.0619459749960498 5:-1.089805953057448 6:-1.0590221310308536 7:-1.1970143494111711 8:-1.127147075057158 9:0.8474712064998547 10:-1.211804766086153 11:0.9821167511841851 12:-1.410646359643522 13:-1.4106463596435237 14:0.6704700156692075 15:0.20601452304129025 16:-0.9812839995477906 17:-1.410646359643522 18:-0.8985247438500054 19:-1.0110744518707058 20:-1.0596943750205545 21:-0.9937657955504323 22:-0.9274150995423427 23:-0.9170150385394088 24:-0.8244554488397978 25:-1.0574414170234026 26:-0.22060319757732463 27:-0.6266574706535716 
0.35130108134634885 0.0 0.0 0.0 0.0 1:-1.0847976665506762 2:-0.953882939909713 3:-1.060234262733955 4:-0.8712628730964149 5:-1.0792556434539704 6:-1.0383124876367296 7:-1.1341074027836242 8:-1.127147075057158 9:0.3286996504886994 10:-1.2787544575532819 11:1.308036876382259 12:-1.201483278978411 13:-1.2014832789784125 14:1.2068185672009344 15:1.0054324260401921 16:-1.2006636803999338 17:-1.201483278978411 18:-0.9497267146937711 19:-0.9684360709376114 20:-0.9990667915251357 21:-1.097575029390444 22:-0.9852700652031252 23:-1.126954378864365 24:-1.0189534577404054 25:-0.9415901829315755 26:-0.6448401159952566 27:-0.6266574706535716 
0.9716014973469768 0.0069537611447870904 0.04005814445908405 0.039839284549869805 0.03891534399276713 1:-1.109640045143712 2:-0.7991574022114627 3:-1.1024343909409535 4:-0.9189336485713236 5:-1.1038730325287516 6:-1.0900865961220396 7:-1.1970143494111711 8:-1.127147075057158 9:0.8474712064998547 10:-1.211804766086153 11:0.9821167511841851 12:-1.410646359643522 13:-1.4106463596435237 14:0.6704700156692075 15:0.20601452304129025 16:-0.9812839995477906 17:-1.410646359643522 18:-1.1344123894185927 19:-1.0963512137368947 20:-1.0748512708944093 21:-1.222146109998458 22:-1.1877624450158637 23:-1.2109301149943477 24:-1.0837861273739413 25:-1.2407122914904496 26:-0.8569585752042226 27:-0.04909298157193877 
0.15872970488682694 0.0 0.0 0.0 0.0 1:-1.0930784594150216 2:-1.1086084776079632 3:-1.0496842306822054 4:-0.9189336485713236 5:-1.0774972585200575 6:-1.0797317744249775 7:-1.1655608760973977 8:-1.0847532029346507 9:1.1835175585718583 10:-1.0777503623744864 11:1.0628043153357856 12:-1.3201157050187808 13:-1.3201157050187828 14:0.8265716830019721 15:0.460670215775633 16:-1.0375473228697845 17:-1.3201157050187808 18:-1.1214157593704934 19:-1.0537128328038003 20:-1.0596943750205545 21:-1.1183368761584465 22:-1.10097999652469 23:-1.0849665107993738 24:-1.1486187970074773 25:-0.9420649899978576 26:-0.4327216567862906 27:-0.04909298157193877 
-1.0 1.0 1.0 1.0 1.0 1:-1.1841671809228198 2:-1.2633340153062136 3:-1.0918843588892038 4:-0.7759213221465975 5:-1.1109065722644034 6:-1.1832799913955976 7:-1.259921296038718 8:-1.0847532029346507 9:4.0329105855157215 10:-0.7380397947269023 11:1.961482644636527 12:-1.4193311133816604 13:-1.419331113381662 14:2.0412454159618694 15:2.0527730646801507 16:-1.5847235991331288 17:-1.4193311133816604 18:-1.1744336002810285 19:-1.1816279756030836 20:-1.2415771255068115 21:-1.2429079567664605 22:-1.1299074793550812 23:-1.0429786427343826 24:-0.9541207881068696 25:-1.1779610144617862 26:-0.8569585752042226 27:-0.6266574706535716 
-1.0 0.45098745894678854 0.666975336304105 0.7051298467859185 0.7228725860307665 1:-1.0930784594150216 2:-0.48970632681496207 3:-1.0971593749150788 4:-1.0619459749960498 5:-1.1126649571983163 6:-1.0590221310308536 7:-1.149834139440511 8:-1.0423593308121437 9:1.8742795044976437 10:-0.898202523448093 11:1.2760500205935887 12:-1.2446646650711153 13:-1.244664665071117 14:1.1478268186320413 15:0.911048966724362 16:-1.1800323624514562 17:-1.2446646650711153 18:-1.0851462009629338 19:-1.08213842009253 20:-1.0748512708944093 21:-1.035289489086437 22:-0.9852700652031252 23:-0.9170150385394088 24:-1.0837861273739413 25:-1.1858153638255318 26:-0.22060319757732463 27:-0.6266574706535716 
-0.006886113410922098 0.0 0.0 0.0 0.0 1:-0.9854281521785324 2:-0.953882939909713 3:-0.9652839742682083 4:-0.7282505466716888 5:-0.9456183884765871 6:-0.9658287357572957 7:-1.0397469828423038 8:-0.978768522628383 9:0.6654460991275198 10:-0.9415938049385255 11:0.6363129048201802 12:-1.1208482898787635 13:-1.1208482898787653 14:0.35221806432574027 15:-0.019113665234634994 16:-0.7240802357901056 17:-1.1208482898787635 18:-1.0443245757201431 19:-0.9684360709376114 20:-0.9232823121558619 21:-0.8899565617104206 22:-1.0431250308639075 23:-0.9590029066044 24:-0.9541207881068696 25:-1.083637426971836 26:-0.8569585752042226 27:-0.6266574706535716 
-1.0 0.2270777890800888 0.26389399175050865 0.2789703333935977 0.289887414386389 1:-1.1013592522793667 2:-1.2633340153062136 3:-1.0971593749150788 4:-1.014275199521141 5:-1.0985978777270127 6:-1.0486673093337915 7:-1.1183806661267375 8:-1.1059501389959043 9:1.0199160450631197 10:-1.1440529799030004 11:1.8989519491098024 12:-1.0592410363412024 13:-1.0592410363412041 14:2.027172136005008 15:2.1174312915833755 16:-1.5508066192969507 17:-1.0592410363412024 18:-0.9800192275850969 19:-1.0963512137368947 20:-1.0142236873989905 21:-0.9522421020144276 22:-0.956342582372734 23:-0.9590029066044 24:-1.0837861273739413 25:-0.968206365178533 26:-0.6448401159952566 27:-0.6266574706535716 
-0.0 0.9013596043823153 0.06684022216772714 0.06984235842478781 0.07129478803502279 1:-0.9026202235350793 2:-0.7991574022114627 3:-0.9441839101647092 4:-0.8712628730964149 5:-0.919242614467893 6:-0.9347642706661097 7:-0.8982063529303235 8:-0.8091930341383545 9:1.3172134190736229 10:-0.5421655935799382 11:0.8117246946290175 12:-0.8023207650734951 13:-0.8023207650734965 14:0.7111356621971133 15:0.5492588199249963 16:-0.8579311740721661 17:-0.8023207650734951 18:-0.7993691960963288 19:-0.911584896360152 20:-0.9384392080297167 21:-0.9107184084784229 22:-0.9274150995423427 23:-0.7070756982144526 24:-0.9541207881068696 25:-1.1025679720952088 26:-0.4327216567862906 27:-0.6266574706535716 
-0.16270694321876616 0.4956114902722542 0.16950884076904682 0.216253850223525 0.22255480624318363 1:-0.8694970520776981 2:-0.953882939909713 3:-0.9125338140094602 4:-1.014275199521141 5:-0.919242614467893 6:-0.8208612319984278 7:-0.9139330895872102 8:-0.8727838423221151 9:0.25726858562592003 10:-0.8237000850725321 11:0.2873653871255934 12:-0.9505645461575793 13:-0.950564546157581 14:-0.01530623362613473 15:-0.3615784864987678 16:-0.43472600156271024 17:-0.9505645461575793 18:-0.6084253183360258 19:-0.7410313726277743 20:-0.7565564575434597 21:-0.8276710214064135 22:-0.840632651051169 23:-0.5811120940194788 24:-0.694790109572726 25:-0.5235163944801497 26:-0.22060319757732463 27:-0.04909298157193877 
-1.0 0.5011276851771466 0.6072610623803305 0.6420851089453606 0.6575846184499101 1:-1.1510440094654386 2:-0.7991574022114627 3:-1.1604595672255764 4:-1.1096167504709584 5:-1.1724500449513562 6:-1.1315058829102875 7:-1.2441945593818313 8:-1.1907378832409186 9:0.6654460991275198 10:-1.3772790936377601 11:1.2560582357256698 12:-1.485565279318409 13:-1.4855652793184106 14:1.016879712545753 15:0.6135725511856419 16:-1.1670422733727857 17:-1.485565279318409 18:-1.0377645951585346 19:-1.0963512137368947 20:-1.0900081667682642 21:-1.222146109998458 22:-1.1588349621854726 23:-1.1689422469293562 24:-1.1486187970074773 25:-1.0714398994198677 26:-0.4327216567862906 27:-0.04909298157193877 
-0.45083842091293 0.5605327799779924 0.70139713327476 0.7443218325415999 0.7649947073947461 1:-0.7949699162985904 2:-0.7991574022114627 3:-0.7753833973367151 4:-0.5852382202469627 5:-0.775055049887032 6:-0.8208612319984278 7:-0.8982063529303235 8:-0.9151777144446223 9:-0.861137801368465 10:-1.0856327461228215 11:-0.3275576829450896 12:-1.0685315688238575 13:-1.0685315688238588 14:-0.8790106346945913 15:-1.4056776303160368 16:0.1656348245553551 17:-1.0685315688238575 18:-0.8772313273901635 19:-0.769456959916504 20:-0.8626547286604429 21:-0.8484328681744159 22:-0.7827776853903866 23:-0.8330393024094264 24:-0.8892881184733337 25:-0.9264634684506414 26:-0.22060319757732463 27:-0.04909298157193877 
-0.6968017246308424 0.2494040656959134 0.4049404579819516 0.4272308322393279 0.4383411502006381 1:-1.0185513236359136 2:-0.953882939909713 3:-0.9705589902940832 4:-0.8235920976215062 5:-0.9895780118244105 6:-0.9347642706661097 7:-1.086927192812964 8:-1.1059501389959043 9:-0.45704206300188044 10:-1.3445803219819652 11:0.6496407613987929 12:-1.2181549951489714 13:-1.2181549951489732 14:0.3202690715783149 15:-0.11288019827309517 16:-0.7345074154019036 17:-1.2181549951489714 18:-0.9494311351648972 19:-0.911584896360152 20:-0.8929685204081524 21:-0.9730039487824299 22:-1.0141975480335164 23:-1.2109301149943477 24:-1.0189534577404054 25:-1.066387004586612 26:-0.8569585752042226 27:-0.04909298157193877 
-0.2788800935853912 1.0 0.2541421148290724 0.3359151385638477 0.3465404958326239 1:-0.786689123434245 2:-0.953882939909713 3:-0.6698830768192189 4:-0.3945551183473278 5:-0.6836190333235592 6:-0.6966033716336838 7:-0.8038459329890031 8:-0.8091930341383545 9:-0.04349379274368043 10:-0.7764768469192963 11:0.25752119153329334 12:-0.7618329402058023 13:-0.7618329402058033 14:0.035713212824966485 15:-0.21398255972748026 16:-0.4084210711784015 17:-0.7618329402058023 18:-0.6440735048140199 19:-0.769456959916504 20:-0.8171840410388787 21:-0.8276710214064135 22:-0.5513578227472568 23:-0.8750271704744176 24:-0.5651247703056543 25:-0.84901470985387 26:-0.8569585752042226 27:-0.6266574706535716 
-0.11798249289740438 1.0 0.22365031664236212 0.21227017334809034 0.21879069266851298 1:-0.7949699162985904 2:-0.6444318645132123 3:-0.8439586056730877 4:-0.9189336485713236 5:-0.8313233677722461 6:-0.7690871235131178 7:-0.7881191963321164 8:-0.7244052898933403 9:0.7552451520978725 10:-0.5030007004397474 11:0.44865668419331356 12:-0.6876719381781117 13:-0.6876719381781133 14:0.30390808403034203 15:0.12013376602230501 16:-0.5725137321471847 17:-0.6876719381781117 18:-0.7347569671858019 19:-0.7268185789834095 20:-0.741399561669605 21:-0.6615762472623947 22:-0.7538502025599954 23:-0.5391242259544876 24:-0.8892881184733337 25:-0.5793309328481274 26:-0.4327216567862906 27:-0.6266574706535716 
-0.5329728172179282 1.0 1.0 0.7521828343200838 0.7733590939495402 1:-0.6045116804186482 2:-0.48970632681496207 3:-0.6487830127157196 4:-0.6805797711967801 5:-0.6519681045131264 6:-0.57234551126894 7:-0.5364914098219289 8:-0.597223673525819 9:-0.0217915511557866 10:-0.4711513350869852 11:0.3490839956974252 12:-0.3075261962573446 13:-0.30752619625734584 14:0.3200385128172999 15:0.26486404260229574 16:-0.48831011901222776 17:-0.3075261962573446 18:-0.3042230660278193 19:-0.5704778488953965 20:-0.48373233181407427 21:-0.6615762472623947 22:-0.580285305577648 23:-0.28719701756454014 24:-0.5651247703056543 25:-0.17585225546513739 26:-0.008484738368358646 27:-0.6266574706535716 
-0.387271009724872 1.0 0.9216851518231378 0.6299564861583716 0.704748847610494 1:-0.5217037517751951 2:-0.7991574022114627 3:-0.4799824998877257 4:-0.3945551183473278 5:-0.488438305659223 6:-0.45844247260125803 7:-0.5522181464788156 8:-0.6820114177708332 9:-1.0806465975182147 10:-0.8051062056087485 11:-0.29367530977634937 12:-0.5153782957431311 13:-0.515378295743133 14:-0.5345546122434724 15:-0.7330863610064696 16:0.1290392904765815 17:-0.5153782957431311 18:-0.28672742575155036 19:-0.47098829338484277 20:-0.620144394678767 21:-0.4954814731183759 22:-0.6381402712384304 23:-0.62309996208447 24:-0.5002921006721184 25:-0.5270016068212828 26:-0.6448401159952566 27:-0.6266574706535716 
-0.17872904434328332 0.06685966448126825 0.26685497643808387 0.2851426808506048 0.29454545987187736 1:-0.9771473593141872 2:-0.6444318645132123 3:-0.9811090223458327 4:-0.9666044240462324 5:-0.9526519282122389 6:-0.9140546272719857 7:-1.0554737194991906 8:-1.063556266873397 9:-0.47822108492885024 10:-1.268792689464666 11:0.3586911375977567 12:-1.2103464061799818 13:-1.2103464061799838 14:-0.06299360013325718 15:-0.5687445204935913 16:-0.4965538293890766 17:-1.2103464061799818 18:-0.8701212372282245 19:-0.8689465154270577 20:-0.8929685204081524 21:-0.9107184084784229 22:-0.8695601338815603 23:-0.8330393024094264 24:-0.759622779206262 25:-0.7925468617500404 26:-0.8569585752042226 27:-0.6266574706535716 
-0.09720997513015489 1.0 0.4645169545938655 0.06827739081456426 0.06868811774627956 1:-0.679038816197756 2:-0.7991574022114627 3:-0.6224079325863455 4:-0.5852382202469627 5:-0.5710823975531312 6:-0.6862485499366219 7:-0.5993983564494758 8:-0.6820114177708332 9:-0.015614134074588495 10:-0.5859025285075283 11:0.5931845599365791 12:-0.33820677043231734 13:-0.3382067704323193 14:0.5986330002066754 15:0.5648156453920892 16:-0.6900385611751181 17:-0.33820677043231734 18:-0.4562634002089875 19:-0.6983929916946798 20:-0.5746737070572028 21:-0.7030999407983994 22:-0.6670677540688217 23:-0.5811120940194788 24:-0.5002921006721184 25:-0.5047116619703298 26:-0.8569585752042226 27:-0.6266574706535716 
-0.1579097402212562 1.0 0.1557167202336064 0.2682718574306836 0.26212320840046993 1:-0.5962308875543029 2:-0.7991574022114627 3:-0.611857900534596 4:-0.6805797711967801 5:-0.6097668660992158 6:-0.52057140278363 7:-0.6308518297632492 8:-0.7456022259545938 9:-1.0352935404624808 10:-0.878192021381751 11:-0.21666991621103224 12:-0.6090175436557613 13:-0.6090175436557628 14:-0.4830215193445074 15:-0.7184069959725963 16:0.04753105548294904 17:-0.6090175436557613 18:-0.6175763781800938 19:-0.47098829338484277 20:-0.5443599153094932 21:-0.41243408604636655 22:-0.6092127884080393 23:-0.41316062175951385 24:-0.24096142213797492 25:-0.6262068878758238 26:-0.4327216567862906 27:-0.6266574706535716 
-0.3823310474550968 0.4680869433513236 0.6880890186613638 0.7228262222716778 0.7408705877218411 1:-0.9109010163994247 2:-0.7991574022114627 3:-0.8861587338800861 4:-0.7282505466716888 5:-0.9210009994018059 6:-0.8622805187866757 7:-0.9611132995578703 8:-0.9151777144446223 9:0.3342200840729423 10:-0.8813149981095424 11:0.37412556229009464 12:-1.0197034169250028 13:-1.019703416925005 14:0.061491178484460556 15:-0.3090132954098115 16:-0.5097437659920347 17:-1.0197034169250028 18:-1.0265186887469768 19:-0.8547337217826928 20:-0.8171840410388787 21:-0.9730039487824299 22:-1.0431250308639075 23:-0.7490635662794438 24:-1.0189534577404054 25:-1.004893347900408 26:-0.8569585752042226 27:0.5284715075096941 
-0.4665844717640998 0.5560368765513818 0.7007245409843142 0.7348365223860431 0.7551721262615789 1:-0.9109010163994247 2:-1.1086084776079632 3:-0.9072587979835854 4:-0.8235920976215062 5:-0.9473767734105001 6:-0.8208612319984278 7:-1.0082935095285304 8:-1.02116239475089 9:-0.7698666327756482 10:-1.2402266658667964 11:-0.03488669205683935 12:-1.2006931213529413 13:-1.200693121352943 14:-0.5804167587199859 15:-1.1649701894705666 16:-0.13618591862968327 17:-1.2006931213529413 18:-0.40294747574172457 19:-0.7410313726277743 20:-0.8323409369127335 21:-0.8691947149424182 22:-0.6670677540688217 23:-0.5811120940194788 24:-1.0189534577404054 25:-0.3710777518872395 26:-0.4327216567862906 27:-0.6266574706535716 
-0.24261978783242522 1.0 0.33755274977428534 0.3541861713018629 0.3628709279358213 1:-0.9274626021281153 2:-0.6444318645132123 3:-0.8123085095178388 4:-0.48989666929714526 5:-0.8840749157896343 6:-0.9140546272719857 7:-0.9296598262440968 8:-0.830389970199608 9:1.464505468778957 10:-0.5543708250149657 11:0.8640159460276643 12:-0.8513847238575488 13:-0.851384723857551 14:0.758940183745794 15:0.5880381743098613 16:-0.8964614817128098 17:-0.8513847238575488 18:-0.9358419293807884 19:-0.9826488645819762 20:-0.9839098956512808 21:-0.9314802552464253 22:-0.8984876167119515 23:-0.8330393024094264 24:-0.8244554488397978 25:-0.8927291546333884 26:-0.22060319757732463 27:-0.04909298157193877 
-0.10289754500266567 0.4432299375636078 0.33958414312077534 0.356194121156286 0.36856836312858626 1:-0.9109010163994247 2:-0.953882939909713 3:-0.9336338781129595 4:-0.9189336485713236 5:-0.919242614467893 6:-0.8208612319984278 7:-0.976840036214757 8:-0.8939807783833688 9:0.5550374274426607 10:-0.8095326645580915 11:0.23778814417445 12:-1.0800333184009823 13:-1.080033318400984 14:-0.14759570588758839 15:-0.5861061764838517 16:-0.39088445092219537 17:-1.0800333184009823 18:-0.6707932268835938 19:-0.7978825472052335 20:-0.8323409369127335 21:-0.8899565617104206 22:-0.8695601338815603 23:-0.9590029066044 24:-0.5651247703056543 25:-0.9547984167313762 26:-0.8569585752042226 27:-0.6266574706535716 
-0.3160147098894854 0.36005411723221936 0.3665586905747002 0.3916587253613005 0.40031480956714943 1:-0.9771473593141872 2:-1.2633340153062136 3:-0.9336338781129595 4:-0.8235920976215062 5:-0.9719941624852811 6:-0.9451190923631716 7:-1.0082935095285304 8:-0.978768522628383 9:0.5383719675657009 10:-0.9607545109852205 11:0.8294410907140396 12:-1.0161769771673594 13:-1.016176977167361 14:0.6509191969488578 15:0.3921054043966855 16:-0.8710538150802117 17:-1.0161769771673594 18:-0.6155871177594803 19:-0.9684360709376114 20:-0.9081254162820072 21:-0.9937657955504323 22:-0.8117051682207778 23:-0.7490635662794438 24:-0.759622779206262 25:-0.7316191741789227 26:-0.8569585752042226 27:-0.6266574706535716 
-1.0 0.6344365077783026 0.7689458994772279 0.8159171182342477 0.8375261101144811 1:-1.109640045143712 2:-1.1086084776079632 3:-0.9969340704234573 4:-0.6805797711967801 5:-1.0370544050400599 6:-1.1004414178191015 7:-1.2127410860680579 8:-1.0847532029346507 9:1.5755716359891956 10:-1.0274681445055778 11:0.7573442510475815 12:-1.4881097804335401 13:-1.4881097804335421 14:0.31137891920563165 15:-0.31013185291586093 16:-0.8172057364609914 17:-1.4881097804335401 18:-0.6848624576746473 19:-1.1389895946699893 20:-1.0900081667682642 21:-1.159860569694451 22:-1.1299074793550812 23:-1.0429786427343826 24:-0.8892881184733337 25:-0.8210200250692434 26:-0.8569585752042226 27:-0.6266574706535716 
-0.30579687880627177 0.7114289593015302 0.5772765868984611 0.5748855627074434 0.5873654028136217 1:-0.7370043662481731 2:-0.33498078911671175 3:-0.7015331729744677 4:-0.7759213221465975 5:-0.7240618868035569 6:-0.7069581933307458 7:-0.5993983564494758 8:-0.6608144817095796 9:0.6654460991275198 10:-0.4246064029197309 11:1.1356199220091816 12:-0.19620932513630243 13:-0.19620932513630382 14:1.266991295268496 15:1.352543523963113 16:-1.0871914316833085 17:-0.19620932513630243 18:-0.6364324542591312 19:-0.6983929916946798 20:-0.741399561669605 21:-0.8484328681744159 22:-0.8117051682207778 23:-0.791051434344435 24:-0.694790109572726 25:-0.8063565157156355 26:-0.8569585752042226 27:-0.6266574706535716 
-1.0 0.022653437893644813 0.0963380787791931 0.11897347006863598 0.1288734076962991 1:-1.0599552879576402 2:-1.1086084776079632 3:-1.060234262733955 4:-1.0619459749960498 5:-1.0440879447757117 6:-1.0279576659396676 7:-1.149834139440511 8:-1.127147075057158 9:-0.11768517677671296 10:-1.3385694476275685 11:0.6214352974766125 12:-1.3632995196652182 13:-1.36329951966522 14:0.2002200217762354 15:-0.35523029557096947 16:-0.7123891556193022 17:-1.3632995196652182 18:-0.8750651503523382 19:-1.0110744518707058 20:-0.9535961039035714 21:-0.9314802552464253 22:-0.9274150995423427 23:-0.9170150385394088 24:-1.0189534577404054 25:-0.8878211851419842 26:-0.8569585752042226 27:-0.6266574706535716 
-0.02977361185534127 0.3858723952090286 0.0 0.0 0.0 1:-0.91918180926377 2:-0.48970632681496207 3:-0.8175835255437136 4:-0.44222589382223654 5:-0.8436320623096366 6:-0.9554739140602336 7:-0.9611132995578703 8:-0.9151777144446223 9:0.44094846670163984 10:-0.8640392855184833 11:0.47637862587682767 12:-0.9971731918854537 13:-0.9971731918854554 14:0.2044737234374264 15:-0.13021042431726693 16:-0.5954783539112637 17:-0.9971731918854537 18:-0.9972824293135838 19:-0.9542232772932465 20:-0.8626547286604429 21:-1.035289489086437 22:-0.7827776853903866 23:-0.791051434344435 24:-0.6299574399391902 25:-0.965298346700339 26:-0.4327216567862906 27:-0.04909298157193877 
-0.156864816148454 1.0 0.26372318614825957 0.26961514156019073 0.2758505630240563 1:-0.8280930877559716 2:-0.6444318645132123 3:-0.7595583492590907 4:-0.6329089957218714 5:-0.7732966649531191 6:-0.8312160536954898 7:-0.8195726696458898 8:-0.7879960980771009 9:0.5705879445813735 10:-0.6342607562680095 11:0.5642298495217675 12:-0.7148606640938704 13:-0.714860664093872 14:0.43609359691613675 15:0.26103474885101347 16:-0.6669238438439533 17:-0.7148606640938704 18:-0.6558109244610274 19:-0.9684360709376114 20:-0.7868702492911692 21:-0.8069091746384112 22:-0.7538502025599954 23:-0.32918488562953135 24:-1.0189534577404054 25:-0.8636521086098949 26:-0.22060319757732463 27:-0.04909298157193877 
-1.0 0.7027881619606575 0.8494634150240985 0.9010800554568703 0.9252954342775737 1:-1.1841671809228198 2:-0.6444318645132123 3:-1.1077094069668283 4:-0.8712628730964149 5:-1.1038730325287516 6:-1.1522155263044116 7:-1.259921296038718 8:-1.1483440111184113 9:2.5897115199207787 10:-1.0558916342090041 11:1.961482644636527 12:-1.4193311133816604 13:-1.419331113381662 14:2.0412454159618694 15:2.0527730646801507 16:-1.5847235991331288 17:-1.4193311133816604 18:-0.8469076953740683 19:-1.224266356536178 20:-1.1961064378852473 21:-1.097575029390444 22:-1.1588349621854726 23:-1.2529179830593389 24:-1.1486187970074773 25:-1.0733422611849965 26:-0.4327216567862906 27:-0.6266574706535716 
-1.0 0.2983914066135963 0.4125895658451546 0.4518662058343409 0.4713260526943994 1:-1.1179208380080574 2:-0.7991574022114627 3:-1.1235344550444528 4:-1.014275199521141 5:-1.1161817270661423 6:-1.1107962395161635 7:-1.1970143494111711 8:-1.2119348193021722 9:-0.45704206300188044 10:-1.5614078027115108 11:1.1694271679646877 12:-1.3785910160928336 13:-1.3785910160928352 14:0.9459192034109105 15:0.5824059893548408 16:-1.1098858814266335 17:-1.3785910160928336 18:-1.0994846317428315 19:-1.1247768010256243 20:-1.1354788543898284 21:-1.097575029390444 22:-1.0431250308639075 23:-0.9170150385394088 24:-1.1486187970074773 25:-1.0911554935784817 26:-0.8569585752042226 27:-0.6266574706535716 
-0.32586032961442873 0.670243228029386 0.620224462234692 0.6557762479610402 0.6727187385236479 1:-0.9440241878568059 2:-0.953882939909713 3:-0.9389088941388343 4:-0.7759213221465975 5:-0.9421016186087612 6:-0.8312160536954898 7:-0.9611132995578703 8:-1.1059501389959043 9:-1.3432169278408814 10:-1.4778364673584035 11:0.8046647773921297 12:-0.9260606797855642 13:-0.9260606797855657 14:0.6556164974333455 15:0.4359397097803609 16:-0.8526821176689485 17:-0.9260606797855642 18:-0.839289428292916 19:-0.8263081344939632 20:-0.8474978327865882 21:-0.8899565617104206 22:-0.8117051682207778 23:-1.0009907746693913 24:-0.8244554488397978 25:-0.9690392971999304 26:-0.8569585752042226 27:-0.6266574706535716 
-0.0 0.3882384300794628 0.0 0.0 0.0 1:-0.6459156447403748 2:-0.48970632681496207 3:-0.6751580928450936 4:-0.7759213221465975 5:-0.6730687237200816 6:-0.52057140278363 7:-0.6937587763907961 8:-0.7032083538320867 9:-0.42083276744931913 10:-0.6957202395015804 11:-0.21666991621103224 12:-0.7052108708440943 13:-0.7052108708440957 14:-0.5295729919388802 15:-0.8132046127308178 16:0.04753105548294904 17:-0.7052108708440943 18:-0.446734570320544 19:-0.6131162298284909 20:-0.48373233181407427 21:-0.7030999407983994 22:-0.46457537425608314 23:-0.5811120940194788 24:-0.9541207881068696 25:-0.6096275517248726 26:-0.6448401159952566 27:-0.6266574706535716 
-0.7269691483575323 0.7251615284925316 0.7783272256480888 0.8198784989838931 0.8396349357105335 1:-0.9523049807211512 2:-0.7991574022114627 3:-0.9230838460612099 4:-0.7759213221465975 5:-0.919242614467893 6:-0.8933449838778617 7:-0.8982063529303235 8:-0.978768522628383 9:0.18437974392920556 10:-1.0151243481447092 11:1.515951439008617 12:-0.6492333474609899 13:-0.6492333474609918 14:1.623098114434772 15:1.6863665727681807 16:-1.330346250361792 17:-0.6492333474609899 18:-0.8107350939434581 19:-0.8263081344939632 20:-0.8778116245342977 21:-0.9522421020144276 22:-1.1299074793550812 23:-0.9590029066044 24:-1.0837861273739413 25:-1.023451421419614 26:-0.008484738368358646 27:-0.6266574706535716 
-1.0 0.7932103559849041 0.9364836350354184 0.9896837297122532 1.0 1:-1.0765168736863309 2:-0.953882939909713 3:-1.0444092146563306 4:-0.9189336485713236 5:-1.0739804886522317 6:-1.0590221310308536 7:-1.0554737194991906 8:-1.0423593308121437 9:1.4867789006856187 10:-0.9491931132913303 11:2.149837300674342 12:-0.8646261982870085 13:-0.8646261982870106 14:2.3767901227773893 15:2.605278658931389 16:-1.683648123655315 17:-0.8646261982870085 18:-1.0545564603120763 19:-1.0110744518707058 20:-1.029380583272845 21:-1.0768131826224416 22:-0.9852700652031252 23:-1.0429786427343826 24:-0.8892881184733337 25:-0.9804329245806551 26:-0.8569585752042226 27:-0.6266574706535716 
-1.0 0.7963563317714017 1.0 1.0 1.0 1:-1.0765168736863309 2:-0.7991574022114627 3:-1.0813343268374542 4:-1.014275199521141 5:-1.0845307982557093 6:-1.0900865961220396 7:-1.1970143494111711 8:-1.1059501389959043 9:0.5011795388159002 10:-1.2118639251796284 11:0.32424601907705347 12:-1.526916071761717 13:-1.5269160717617187 14:-0.32539750596852185 15:-1.141594752126382 16:-0.4668764720324208 17:-1.526916071761717 18:-1.0079629183025833 19:-1.1105640073812595 20:-1.0900081667682642 21:-1.097575029390444 22:-0.9852700652031252 23:-1.0429786427343826 24:-0.8892881184733337 25:-0.8044047185549477 26:-0.6448401159952566 27:-0.6266574706535716 
-0.7707517665008944 1.0 1.0 1.0 1.0 1:-0.4471766159960873 2:-0.48970632681496207 3:-0.5696577723275975 4:-0.9666044240462324 5:-0.5587737030157406 6:-0.3445394339335761 7:-0.34777056993928823 8:-0.6396175456483261 9:-1.2341492521683888 10:-0.7861008152336728 11:0.209821494304574 12:-0.07536801249263872 13:-0.07536801249263993 14:0.23056664861055115 15:0.23190206649979025 16:-0.36583213627047345 17:-0.07536801249263872 18:-0.5669293217618179 19:-0.3146475632968298 20:-0.24122199783239837 21:-0.4331959328143689 22:-0.4356478914256919 23:-0.7070756982144526 24:0.018369256396168605 25:-0.5124157395121641 26:-0.4327216567862906 27:-0.6266574706535716 
-1.0 0.7300778875918245 0.8894298366261311 0.9452655736382769 0.9708888487695365 1:-1.1344824237367481 2:-1.2633340153062136 3:-1.1077094069668283 4:-1.014275199521141 5:-1.1056314174626645 6:-1.0693769527279156 7:-1.1970143494111711 8:-1.2119348193021722 9:-0.12689848590499833 10:-1.5207734498701926 11:1.5771027809575457 12:-1.3102882351112208 13:-1.3102882351112224 14:1.534326792918665 15:1.3919068204299374 16:-1.3670896451843184 17:-1.3102882351112208 18:-0.9399655868975657 19:-1.0252872455150706 20:-1.029380583272845 21:-1.1390987229264486 22:-1.0720525136942989 23:-0.9590029066044 24:-1.213451466641013 25:-1.0097819376608523 26:-0.8569585752042226 27:-0.04909298157193877 
-1.0 0.5941976537672897 0.6970387112061265 0.7365185050588209 0.7563610742976465 1:-1.0930784594150216 2:-0.953882939909713 3:-1.060234262733955 4:-0.9189336485713236 5:-1.063430179048754 6:-1.0176028442426055 7:-1.1026539294698507 8:-1.127147075057158 9:0.4927556126460735 10:-1.2572982013008798 11:1.915787136366998 12:-1.0183115452281186 13:-1.0183115452281208 14:2.056222820904201 15:2.163429731075224 16:-1.5599924680025823 17:-1.0183115452281186 18:-0.9960101352231834 19:-0.996861658226341 20:-0.9687529997774261 21:-1.097575029390444 22:-0.9852700652031252 23:-0.9590029066044 24:-0.9541207881068696 25:-1.0026400643594433 26:-0.8569585752042226 27:-0.6266574706535716 
-0.18768089220068443 1.0 0.3810661811366807 0.32555513303939315 0.33595724508271474 1:-0.6707580233334107 2:-0.7991574022114627 3:-0.6857081248968433 4:-0.7282505466716888 5:-0.720545116935731 6:-0.5827003329660019 7:-0.6151250931063624 8:-0.6608144817095796 9:0.06678574599183947 10:-0.5400491007338368 11:0.4301753897376372 12:-0.40679599917741704 13:-0.406795999177419 14:0.3834312398269174 15:0.30525735927270675 16:-0.557089732454892 17:-0.40679599917741704 18:-0.32758112962073227 19:-0.5420522616066669 20:-0.48373233181407427 21:-0.557767013422383 22:-0.37779292576490947 23:-0.24520914949954886 24:-0.43545943103858253 25:-0.27236176849304405 26:-0.6448401159952566 27:-0.6266574706535716 
-1.0 0.5274980117549396 0.34808123141855396 0.36728429916813676 0.37648987515384 1:-1.0599552879576402 2:-0.953882939909713 3:-1.0707842947857047 4:-1.014275199521141 5:-1.0845307982557093 6:-1.0279576659396676 7:-1.086927192812964 8:-0.9999654586896365 9:1.7618298853934464 10:-0.8255905349515537 11:1.3950708793421298 12:-1.0758753422495988 13:-1.0758753422496008 14:1.3636534937219744 15:1.2526523341572215 16:-1.2558663959918062 17:-1.0758753422495988 18:-0.9892047920692002 19:-0.996861658226341 20:-1.0445374791467 21:-1.035289489086437 22:-0.9852700652031252 23:-0.9590029066044 24:-1.0837861273739413 25:-0.9409359778027636 26:-0.6448401159952566 27:-0.6266574706535716 
-0.030327357309980738 0.49818129365722214 0.0 0.0 0.0 1:-0.9440241878568059 2:-0.48970632681496207 3:-0.9336338781129595 4:-0.7759213221465975 5:-0.9561686980800648 6:-0.9451190923631716 7:-1.0082935095285304 8:-0.9363746505058759 9:0.5472894504823195 10:-0.8837699858611183 11:0.36694990870506006 12:-1.1132932333561316 13:-1.1132932333561334 14:0.0029404892776322272 15:-0.43021021407072785 16:-0.5036198668549471 17:-1.1132932333561316 18:-0.9871155112024043 19:-0.8831593090714225 20:-0.8929685204081524 21:-0.9937657955504323 22:-0.956342582372734 23:-1.0429786427343826 24:-0.9541207881068696 25:-0.9132269976601892 26:-0.6448401159952566 27:-0.6266574706535716 
-0.0 0.5731672376213528 0.0 0.0 0.0 1:-0.8612162592133528 2:-0.7991574022114627 3:-0.8861587338800861 4:-0.8712628730964149 5:-0.8559407568470272 6:-0.8208612319984278 7:-0.8982063529303235 8:-0.9363746505058759 9:-0.44028850834323313 10:-1.0452035287222956 11:0.32121850451387407 12:-0.9138534406423086 13:-0.9138534406423103 14:0.04586173093440622 15:-0.27281407657977497 16:-0.464251943830812 17:-0.9138534406423086 18:-0.6457667862791768 19:-0.8831593090714225 20:-0.8626547286604429 21:-0.8691947149424182 22:-0.8984876167119515 23:-0.6650878301494614 24:-0.9541207881068696 25:-0.825336756526285 26:-0.8569585752042226 27:-0.6266574706535716 
-1.0 0.8502216310193823 0.9932877459589143 1.0 1.0 1:-1.1841671809228198 2:-1.1086084776079632 3:-1.171009599277326 4:-1.1096167504709584 5:-1.1882755093565727 6:-1.1315058829102875 7:-1.307101506009378 8:-1.2967225635471864 9:-0.7777529664674238 10:-1.7975459263339089 11:1.0704202333807071 12:-1.6864716368388626 13:-1.6864716368388641 14:0.6340003832450526 15:-0.05540099105766868 16:-1.042789247402889 17:-1.6864716368388626 18:-0.844479735167556 19:-1.0963512137368947 20:-1.150635750263683 21:-1.222146109998458 22:-1.1588349621854726 23:-1.126954378864365 24:-1.0837861273739413 25:-1.1001321870774974 26:-0.8569585752042226 27:-0.6266574706535716 
-1.0 0.5437464121689499 0.6674410887892098 0.704763577580148 0.7227018730351638 1:-1.1841671809228198 2:-1.1086084776079632 3:-1.1604595672255764 4:-1.0619459749960498 5:-1.177725199753095 6:-1.1625703480014735 7:-1.259921296038718 8:-1.169540947179665 9:2.108645164722463 10:-1.1618422473697048 11:1.961482644636527 12:-1.4193311133816604 13:-1.419331113381662 14:2.0412454159618694 15:2.0527730646801507 16:-1.5847235991331288 17:-1.4193311133816604 18:-1.1498892228473319 19:-1.1958407692474484 20:-1.1203219585159736 21:-1.1806224164624535 22:-1.2166899278462548 23:-1.1689422469293562 24:-0.9541207881068696 25:-1.2413594776587697 26:-0.6448401159952566 27:-0.6266574706535716 
-0.26752703299868635 0.6324954004007227 0.4306830068134076 0.45637134790103223 0.46799284839126754 1:-0.8943394306707341 2:-0.7991574022114627 3:-0.9441839101647092 4:-0.8235920976215062 5:-0.9561686980800648 6:-0.8829901621807997 7:-0.9139330895872102 8:-0.830389970199608 9:0.9861570025930633 10:-0.6320891815662018 11:0.5753855604608072 12:-0.8850500664672566 13:-0.8850500664672579 14:0.3815022600285612 15:0.12940167082941909 16:-0.6758545300855399 17:-0.8850500664672566 18:-0.8393005149760732 19:-0.8689465154270577 20:-0.8626547286604429 21:-0.9314802552464253 22:-0.9274150995423427 23:-0.9590029066044 24:-0.694790109572726 25:-0.8869119861567284 26:-0.8569585752042226 27:0.5284715075096941 
-0.384334287128932 0.17341837642752564 0.5665097411485263 0.6094893165657029 0.6226431925423832 1:-0.7452851591125185 2:-0.7991574022114627 3:-0.7595583492590907 4:-0.7759213221465975 5:-0.7645047402835544 6:-0.7897967669072418 7:-0.8195726696458898 8:-0.7667991620158474 9:-0.08287934229208083 10:-0.7204508816774476 11:-0.21666991621103224 12:-0.9073994226425849 13:-0.9073994226425862 14:-0.6371343624785204 15:-1.037216432734825 16:0.04753105548294904 17:-0.9073994226425849 18:-0.7757146902584551 19:-0.7836697535608688 20:-0.7262426657957503 21:-0.7446236343344041 22:-0.8117051682207778 23:-0.8750271704744176 24:-0.3057940917715108 25:-0.8443582198070236 26:-0.8569585752042226 27:-0.6266574706535716 
-0.8137271677409543 1.0 0.8117578698856722 0.8607457373534907 0.8835058338152131 1:-0.8363738806203169 2:-0.953882939909713 3:-0.8175835255437136 4:-0.8235920976215062 5:-0.7662631252174673 6:-0.8933449838778617 7:-0.756665723018343 8:-0.6608144817095796 9:1.820005351603475 10:-0.21563156305196599 11:1.1298243941310957 12:-0.46809528012041035 13:-0.4680952801204118 14:1.1989087320212242 15:1.2184986547182688 16:-1.083278595520666 17:-0.46809528012041035 18:-0.9001533518377701 19:-0.8120953408495983 20:-0.8626547286604429 21:-0.7653854811024065 22:-0.840632651051169 23:-0.791051434344435 24:-1.0189534577404054 25:-0.9115808624015327 26:-0.008484738368358646 27:-0.04909298157193877 
-0.03628739065842127 0.8345692002652098 0.07845449138322816 0.08420173527259019 0.08394144597501843 1:-0.7038811947907919 2:-0.7991574022114627 3:-0.7015331729744677 4:-0.48989666929714526 5:-0.7029612675966016 6:-0.7173130150278079 7:-0.7409389863614563 8:-0.7032083538320867 9:0.038941078404133155 10:-0.6052520306686883 11:-0.05549583665571576 12:-0.7367651056627188 13:-0.7367651056627204 14:-0.3436297414320575 15:-0.6252128749904733 16:-0.11594591300710538 17:-0.7367651056627188 18:-0.7234394680024778 19:-0.7410313726277743 20:-0.6656150823003313 21:-0.8691947149424182 22:-0.6092127884080393 23:-0.8330393024094264 24:-0.694790109572726 25:-0.8927827540164928 26:-0.8569585752042226 27:-0.6266574706535716 
-0.0 0.6289965470717901 0.0 0.0 0.0 1:-0.8446546734846622 2:-0.953882939909713 3:-0.8808837178542114 4:-0.8235920976215062 5:-0.8700078363183308 6:-0.8208612319984278 7:-0.7881191963321164 8:-0.8091930341383545 9:0.5678384328553984 10:-0.6682448339014188 11:0.9886318961156809 12:-0.557960074460414 13:-0.5579600744604154 14:1.006145311832062 15:0.9712626483795332 16:-0.9858769239006063 17:-0.557960074460414 18:-0.7989430773477899 19:-0.8263081344939632 20:-0.8323409369127335 21:-0.8069091746384112 22:-0.8984876167119515 23:-1.0009907746693913 24:-0.6299574399391902 25:-0.8981140287120729 26:-0.8569585752042226 27:-0.6266574706535716 
-0.166892634214826 0.1251092146162124 0.2437511313615571 0.26082080980445765 0.2675911577982975 1:-0.9274626021281153 2:-0.953882939909713 3:-0.8756087018283366 4:-0.7759213221465975 5:-0.8787997609878955 6:-0.9140546272719857 7:-0.9139330895872102 8:-0.9363746505058759 9:0.32299208356261816 10:-0.9193150441190037 11:1.00497497153706 12:-0.7900408034429419 13:-0.7900408034429438 14:0.9564220169819942 15:0.8447201845770697 16:-0.9973592347826458 17:-0.7900408034429419 18:-0.8416092288969825 19:-0.8831593090714225 20:-0.8626547286604429 21:-0.8484328681744159 22:-0.956342582372734 23:-0.8750271704744176 24:-1.0189534577404054 25:-0.7850374017314733 26:-0.8569585752042226 27:-0.6266574706535716 
-1.0 0.0 0.0 0.0 0.0 1:-1.0433937022289497 2:-1.1086084776079632 3:-1.0338591826045809 4:-0.9189336485713236 5:-1.0229873255687565 6:-0.9968932008484817 7:-1.1026539294698507 8:-1.127147075057158 9:-0.38220951885992066 10:-1.3750782270998085 11:0.8922077511295439 12:-1.2058695432291953 13:-1.205869543229197 14:0.6498298143598847 15:0.29940307494678 16:-0.9169830586083696 17:-1.2058695432291953 18:-1.0972212777568902 19:-0.9400104836488817 20:-0.9687529997774261 21:-1.0145276423184346 22:-1.1588349621854726 23:-1.126954378864365 24:-1.0189534577404054 25:-1.0584173218783197 26:-0.8569585752042226 27:-0.6266574706535716 
-0.41680021698356445 0.48705783108413253 0.588357465055413 0.676339371507102 0.6820833370400671 1:-0.7038811947907919 2:-0.7991574022114627 3:-0.7068081890003426 4:-0.48989666929714526 5:-0.7328538114731216 6:-0.6551840848454359 7:-0.756665723018343 8:-0.8727838423221151 9:-1.2140689630426396 10:-1.0888931876805708 11:-0.15220028438890565 12:-0.7875750018946066 13:-0.7875750018946082 14:-0.49041191377850163 15:-0.8112573090285489 16:-0.01898715928196919 17:-0.7875750018946066 18:-0.33912007154385565 19:-0.7126057853390446 20:-0.6353012905526217 21:-0.5785288601903853 22:-0.37779292576490947 23:-0.41316062175951385 24:-1.1486187970074773 25:-0.6868137040986538 26:-0.8569585752042226 27:-0.6266574706535716 
-0.24552960854578335 0.9563147463898733 0.2567699361750594 0.2908165070267428 0.2982922049375261 1:-0.8612162592133528 2:-0.7991574022114627 3:-0.8439586056730877 4:-0.7759213221465975 5:-0.8401152924418108 6:-0.8726353404837377 7:-0.7881191963321164 8:-0.8515869062608616 9:0.36388211527185993 10:-0.7712322226681069 11:1.1901151841464142 12:-0.510896934542056 13:-0.5108969345420572 14:1.2605135425368088 15:1.2811216338737141 16:-1.1236646544850808 17:-0.510896934542056 18:-0.7696747633704086 19:-0.925797690004517 20:-0.8778116245342977 21:-0.8691947149424182 22:-0.8117051682207778 23:-0.791051434344435 24:-0.694790109572726 25:-0.6515811444948353 26:-0.8569585752042226 27:-0.6266574706535716 
-1.0 0.22392056303812502 0.2457315814282071 0.2536192188787097 0.2584968719690626 1:-1.0847976665506762 2:-1.2633340153062136 3:-1.0655092787598297 4:-0.9666044240462324 5:-1.065188563982667 6:-1.0279576659396676 7:-1.1655608760973977 8:-1.127147075057158 9:0.3286996504886994 10:-1.2787544575532819 11:0.8922077511295439 12:-1.3504871439410968 13:-1.3504871439410986 14:0.5782433482004307 15:0.12655469962793253 16:-0.9169830586083696 17:-1.3504871439410968 18:-0.9889203936434477 19:-1.0679256264481651 20:-1.1203219585159736 21:-0.9730039487824299 22:-0.8984876167119515 23:-0.8330393024094264 24:-1.213451466641013 25:-0.8892875967344986 26:-0.8569585752042226 27:-0.6266574706535716 
-0.0 0.5344725433757577 0.17605566045385262 0.18022002187498964 0.18230958475648365 1:-0.8860586378063887 2:-0.7991574022114627 3:-0.9494589261905839 4:-0.8712628730964149 5:-0.9385848487409354 6:-0.8312160536954898 7:-0.9296598262440968 8:-0.978768522628383 9:-0.5973530832680558 10:-1.1409293421944793 11:0.346432024235354 12:-0.966298371823866 13:-0.9662983718238678 14:0.052558119002558405 15:-0.2914110744302816 16:-0.4860299438016103 17:-0.966298371823866 18:-0.9927345888935784 19:-0.7978825472052335 20:-0.8778116245342977 21:-0.8484328681744159 22:-0.956342582372734 23:-1.0849665107993738 24:-1.0189534577404054 25:-0.9107989748206433 26:-0.6448401159952566 27:-0.6266574706535716 
-0.0019864259363245305 0.9563344848841288 0.0 0.02222390030585393 0.0030797148516679973 1:-0.6956004019264466 2:-0.6444318645132123 3:-0.6540580287415945 4:-0.48989666929714526 5:-0.6502097195792134 6:-0.7276678367248698 7:-0.7252122497045695 8:-0.7667991620158474 9:-0.4957485513511704 10:-0.799161575983496 11:-0.025484111497139236 12:-0.7035265014548422 13:-0.7035265014548439 14:-0.29032310909581954 15:-0.5511774279969168 16:-0.14537176733531484 17:-0.7035265014548422 18:-0.7202422244826813 19:-0.7126057853390446 20:-0.7565564575434597 21:-0.682338094030397 22:-0.5513578227472568 23:-0.4551484898245051 24:-0.8892881184733337 25:-0.2841499500687323 26:-0.8569585752042226 27:-0.6266574706535716 
-0.06757063680630378 1.0 0.1742378909098055 0.12897672655933037 0.1710686237455947 1:-0.5879500946899576 2:-0.48970632681496207 3:-0.6751580928450936 4:-0.9666044240462324 5:-0.6414177949096487 6:-0.48950693769244397 7:-0.6151250931063624 8:-0.6608144817095796 9:-0.5468411159722331 10:-0.6643870869418437 11:-0.18894797452751722 12:-0.5775653072274107 13:-0.5775653072274127 14:-0.4342329678363609 15:-0.6521115495766312 16:0.018739589390671215 17:-0.5775653072274107 18:-0.6488484960923402 19:-0.3999243251630187 20:-0.3927909565709458 21:-0.47471962635037357 22:-0.5513578227472568 23:-0.5811120940194788 24:-0.759622779206262 25:-0.444297785147292 26:-0.8569585752042226 27:-0.6266574706535716 
-0.34855021608699266 1.0 0.4381913439411339 0.38932717738955586 0.3993084103041952 1:-0.7535659519768638 2:-0.33498078911671175 3:-0.7384582851555914 4:-0.7759213221465975 5:-0.7557128156139897 6:-0.7276678367248698 7:-0.6937587763907961 8:-0.7456022259545938 9:0.16032642616928994 10:-0.6437972331516079 11:0.6842931885031858 12:-0.46833803986235484 13:-0.46833803986235656 14:0.667100368210969 15:0.6056799555174821 16:-0.7614162660129957 17:-0.46833803986235484 18:-1.027351161813587 19:-0.6415418171172206 20:-0.7110857699218954 21:-0.8276710214064135 22:-0.840632651051169 23:-0.9170150385394088 24:-1.0189534577404054 25:-0.6946256915486639 26:-0.4327216567862906 27:-0.04909298157193877 
-0.7218618765911284 0.9299323648372376 1.0 1.0 1.0 1:-0.6045116804186482 2:-0.18025525141846147 3:-0.6329579646380952 4:-0.8235920976215062 5:-0.664276799050517 6:-0.448087650904196 7:-0.7252122497045695 8:-0.7879960980771009 9:-1.2588193216657382 10:-0.980848199271796 11:-0.6692730457377972 12:-0.8786966607718 13:-0.8786966607718018 14:-1.200874716010128 15:-1.627848383463333 16:0.5619385829983188 17:-0.8786966607718 18:-0.6385746970063525 19:-0.25779638871937055 20:-0.5746737070572028 21:-0.7653854811024065 22:-0.6381402712384304 23:-0.62309996208447 24:-0.3706267614050467 25:0.1102136005703654 26:0.20363372084060732 27:-0.6266574706535716 
-0.3710828804068471 1.0 0.5228410109457715 0.6028615177399184 0.6260337066666375 1:-0.6293540590116842 2:-0.33498078911671175 3:-0.7384582851555914 4:-1.0619459749960498 5:-0.7627463553496415 6:-0.551635867874816 7:-0.6623053030770226 8:-0.7456022259545938 9:-0.823327673802001 10:-0.8347538009260209 11:-0.1583079337194228 12:-0.6405817861315071 13:-0.640581786131509 14:-0.4256395679549404 15:-0.6704925050773536 16:-0.012751076647758375 17:-0.6405817861315071 18:-0.47308979766409265 19:-0.3146475632968298 20:-0.4534185400663648 21:-0.6615762472623947 22:-0.580285305577648 23:-0.8330393024094264 24:-1.0837861273739413 25:-0.32368215076147727 26:-0.6448401159952566 27:-0.6266574706535716 
-0.31306099239615914 1.0 0.36001745287772763 0.36627527288836126 0.37163869628250557 1:-0.7038811947907919 2:-0.18025525141846147 3:-0.7964834614402144 4:-1.014275199521141 5:-0.8225314431026814 6:-0.6344744414513119 7:-0.7094855130476828 8:-0.7667991620158474 9:-0.43093768713840597 10:-0.7866174645481441 11:0.137913058810664 12:-0.6351453131989441 13:-0.6351453131989455 14:-0.05738496909692229 15:-0.2646344907007415 16:-0.3003264938614609 17:-0.6351453131989441 18:-0.6347123387298123 19:-0.456775499740478 20:-0.5292030194356385 21:-0.6408144004943924 22:-0.7538502025599954 23:-0.5811120940194788 24:-0.3706267614050467 25:-0.6115013669630877 26:-0.4327216567862906 27:-0.04909298157193877 
-0.5461566101921568 0.45344847255674203 0.47649884303071427 0.5048862496704994 0.5177411288308619 1:-0.9274626021281153 2:-0.7991574022114627 3:-0.9811090223458327 4:-1.014275199521141 5:-0.9895780118244105 6:-0.8933449838778617 7:-0.9611132995578703 8:-0.830389970199608 9:1.464505468778957 10:-0.5543708250149657 11:0.5820978950088738 12:-0.974072564686763 13:-0.9740725646867648 14:0.35104806785869713 15:0.053396914951160106 16:-0.6812129418304916 17:-0.974072564686763 18:-1.0040248194058579 19:-0.8120953408495983 20:-0.8929685204081524 21:-1.1183368761584465 22:-0.9852700652031252 23:-1.1689422469293562 24:-0.5651247703056543 25:-0.9236728978244746 26:-0.6448401159952566 27:-0.04909298157193877 
-0.9133464478674614 0.0026690292339269545 0.13288514310630747 0.1405469864381401 0.1444390674543897 1:-1.0102705307715685 2:-0.953882939909713 3:-0.9969340704234573 4:-0.8712628730964149 5:-0.9860612419565847 6:-1.0279576659396676 7:-1.0554737194991906 8:-0.9999654586896365 9:0.8028936291841813 10:-0.9607242876871799 11:0.858262516415036 12:-1.109338676978406 13:-1.1093386769784075 14:0.6486188788320014 15:0.34643902888796996 16:-0.892251927477823 17:-1.109338676978406 18:-0.552206927693252 19:-1.0395000391594356 20:-1.0748512708944093 21:-0.9937657955504323 22:-1.0141975480335164 23:-0.8750271704744176 24:-1.213451466641013 25:-0.8178159247862538 26:-0.8569585752042226 27:-0.04909298157193877 
-0.8442112245636696 0.28464507695401603 0.538107574758283 0.5690174249541406 0.5836878436199582 1:-1.026832116500259 2:-1.1086084776079632 3:-0.9600089582423336 4:-0.8235920976215062 5:-0.975510932353107 6:-1.0900865961220396 7:-1.0554737194991906 8:-0.9363746505058759 9:1.9551133492336392 10:-0.673234087216004 11:1.1399357406417994 12:-1.0540650302165806 13:-1.0540650302165826 14:1.0383163828421456 15:0.8512314241797755 16:-1.0901009765221963 17:-1.0540650302165806 18:-0.8190714381384618 19:-1.0252872455150706 20:-1.029380583272845 21:-0.8484328681744159 22:-0.7538502025599954 23:-0.8330393024094264 24:-0.694790109572726 25:-0.9920469535566381 26:-0.4327216567862906 27:-0.6266574706535716 
-0.09885179613622704 1.0 0.3115852955686764 0.1284715891363847 0.13462476677086416 1:-0.7204427805194825 2:-0.6444318645132123 3:-0.6224079325863455 4:-0.3468843428724191 5:-0.659001644248778 6:-0.6966033716336838 7:-0.7252122497045695 8:-0.7456022259545938 9:-0.13633115953633781 10:-0.6996899150235679 11:0.179357822124888 12:-0.6498759207546156 13:-0.6498759207546171 14:-0.012612040217570637 15:-0.22094365819669431 16:-0.33827459015357875 17:-0.6498759207546156 18:-0.23551698096621207 19:-0.7836697535608688 20:-0.7717133534173145 21:-0.62005255372639 22:-0.5513578227472568 23:-0.41316062175951385 24:-0.5651247703056543 25:-0.5454354670880823 26:-0.6448401159952566 27:-0.6266574706535716 
-1.0 0.0 0.0 0.0 0.0 1:-1.1179208380080574 2:-0.953882939909713 3:-1.0918843588892038 4:-0.9189336485713236 5:-1.121456881867881 6:-1.0590221310308536 7:-1.1970143494111711 8:-1.2119348193021722 9:-0.45704206300188044 10:-1.5614078027115108 11:1.1694271679646877 12:-1.3785910160928336 13:-1.3785910160928352 14:0.9459192034109105 15:0.5824059893548408 16:-1.1098858814266335 17:-1.3785910160928336 18:-0.9008510874810379 19:-1.0537128328038003 20:-1.0748512708944093 21:-1.097575029390444 22:-1.10097999652469 23:-1.0429786427343826 24:-1.213451466641013 25:-0.9074838297283976 26:-0.6448401159952566 27:-0.6266574706535716 
-1.0 0.15482167645239542 0.0 0.0 0.0 1:-1.0433937022289497 2:-0.953882939909713 3:-1.086609342863329 4:-1.1096167504709584 5:-1.0704637187844057 6:-0.9968932008484817 7:-1.086927192812964 8:-1.0847532029346507 9:0.21645083427575976 10:-1.2079282856259341 11:1.0770206956863058 12:-1.1356284476704488 13:-1.1356284476704503 14:0.9251211906451304 15:0.6763518489872697 16:-1.047322803755845 17:-1.1356284476704488 18:-1.0642283160060764 19:-0.9542232772932465 20:-1.029380583272845 21:-1.0560513358544394 22:-1.0141975480335164 23:-1.0009907746693913 24:-1.0189534577404054 25:-1.0083459979368676 26:-0.4327216567862906 27:-0.6266574706535716 
-0.7926386206073361 0.9124260140174987 0.6057964541696457 0.6382278696121608 0.6539487972672428 1:-0.9523049807211512 2:-0.953882939909713 3:-0.9072587979835854 4:-0.8235920976215062 5:-0.9122090747322412 6:-0.9658287357572957 7:-0.9139330895872102 8:-0.8939807783833688 9:1.1465124543258343 10:-0.715450759997493 11:1.3674410371326469 12:-0.7121989726830936 13:-0.7121989726830954 14:1.4271809465688425 15:1.4340141288688542 16:-1.2384877633054754 17:-0.7121989726830936 18:-0.898609921687634 19:-0.8973721027157873 20:-1.0142236873989905 21:-1.035289489086437 22:-1.0141975480335164 23:-1.0009907746693913 24:-0.8892881184733337 25:-0.9700353391346559 26:0.4157521800495733 27:-0.6266574706535716 
