svm_type c_svc
kernel_type rbf
gamma 1.0
nr_class 5
total_sv 36
rho 0.75 0.8333333333333334 0.9285714285714286 0.9090909090909091 0.3333333333333333 0.7142857142857143 0.6363636363636364 0.5714285714285714 0.45454545454545453 -0.21428571428571427
label 1 2 3 4 5
nr_sv 1 4 6 14 11
SV
1.0 1.0 1.0 1.0 1:39.0 2:5.0 3:51.0 4:3.0 5:150.0 6:36.0 7:29.0 8:11.0 9:88.28723 10:-1.06 11:2.8 12:3.0205126 13:7.5541744 14:-3.8 15:48.717948717948715 16:0.9230769 17:0.2820513 18:1.7614096 19:0.74358976 20:4.6437163 21:3.2836034 22:0.02207367 23:0.91913176 24:0.93505585 25:45.302845 26:1.3448275 27:4.6437163 28:0.9598243 29:0.02461088 30:0.9230769 31:0.5897436 32:0.33333334 33:0.20512821 34:0.20512821 35:0.15384616 36:1.8002039 37:0.046159074 38:7.8 39:5.0 40:0.025641026 41:0.0 
-0.25 1.0 1.0 1.0 1:80.0 2:7.0 3:119.0 4:8.0 5:350.0 6:64.0 7:62.0 8:37.0 9:69.3925 10:0.5 11:4.4 12:7.335 13:9.029199 14:2.91 15:52.5 16:0.8 17:0.4625 18:4.136726 19:0.775 20:6.931811 21:4.9015303 22:0.013274146 23:0.94183236 24:0.9594399 25:75.33441 26:1.2903225 27:6.931811 28:1.0968705 29:0.013710882 30:0.65 31:0.5625 32:0.325 33:0.225 34:0.125 35:0.0625 36:3.1902196 37:0.039877746 38:11.428572 39:1.75 40:0.025 41:0.0125 
-0.25 1.0 1.0 1.0 1:98.0 2:8.0 3:139.0 4:7.0 5:402.0 6:91.0 7:60.0 8:35.0 9:74.40737 10:0.89 11:4.8 12:5.9036727 13:7.908726 14:3.41 15:56.12244897959183 16:0.9285714 17:0.35714287 18:3.535534 19:0.6122449 20:6.0609155 21:4.285714 22:0.023338627 23:0.89299315 24:0.92567796 25:42.84742 26:1.6333333 27:6.0609155 28:3.2635453 29:0.033301484 30:0.8061224 31:0.5510204 32:0.29591838 33:0.25510204 34:0.1734694 35:0.15306123 36:7.300067 37:0.07449048 38:12.25 39:2.6666667 40:0.05102041 41:0.0 
-0.25 1.0 1.0 1.0 1:95.0 2:7.0 3:119.0 4:2.0 5:346.0 6:81.0 7:64.0 8:37.0 9:87.08737 10:1.28 11:5.2000003 12:3.4345274 13:6.0791497 14:-0.8 15:40.0 16:0.85263157 17:0.38947368 18:3.79612 19:0.67368424 20:6.5662613 21:4.643048 22:0.01904705 23:0.91326207 24:0.9401493 25:52.501568 26:1.484375 27:6.5662613 28:4.185803 29:0.044061083 30:0.7894737 31:0.6526316 32:0.35789475 33:0.28421053 34:0.12631579 35:0.042105265 36:5.084413 37:0.053520136 38:13.571428 39:1.1666666 40:0.010526316 41:0.0 
-0.25 1.0 1.0 1.0 1:86.0 2:8.0 3:108.0 4:3.0 5:312.0 6:73.0 7:61.0 8:36.0 9:89.68189 10:0.11 11:4.0 12:2.7786055 13:6.2581 14:-2.3 15:39.53488372093023 16:0.8488372 17:0.41860464 18:3.88198 19:0.7093023 20:6.5777993 21:4.6512065 22:0.017311113 23:0.9228903 24:0.94628423 25:57.76636 26:1.409836 27:6.5777993 28:3.285071 29:0.038198497 30:0.75581396 31:0.6627907 32:0.40697673 33:0.24418604 34:0.20930232 35:0.1744186 36:3.614687 37:0.042031243 38:10.75 39:1.3333334 40:0.023255814 41:0.011627907 
-0.166015625 -0.6669921875 1.0 1.0 1:184.0 2:15.0 3:219.0 4:7.0 5:659.0 6:161.0 7:89.0 8:52.0 9:93.69194 10:0.89 11:4.8 12:2.8463035 13:7.0316486 14:-1.3 15:41.30434782608695 16:0.875 17:0.2826087 18:3.8334908 19:0.48369566 20:6.5611672 21:4.639446 22:0.026706548 23:0.8607271 24:0.9091884 25:37.444 26:2.0674157 27:6.5611672 28:9.240586 29:0.05022058 30:0.8097826 31:0.6195652 32:0.45108697 33:0.3206522 34:0.17934783 35:0.14130434 36:10.599352 37:0.057605173 38:12.266666 39:2.142857 40:0.05978261 41:0.0054347827 
-0.166015625 -0.6669921875 1.0 1.0 1:150.0 2:12.0 3:193.0 4:10.0 5:553.0 6:121.0 7:73.0 8:42.0 9:85.2955 10:0.89 11:4.8 12:3.509601 13:7.7935376 14:-1.3 15:44.0 16:0.8066667 17:0.28 18:3.4292855 19:0.48666668 20:5.960425 21:4.214657 22:0.028684875 23:0.85627055 24:0.90371525 25:34.861576 26:2.0547945 27:5.960425 28:6.2028317 29:0.041352212 30:0.76 31:0.56666666 32:0.44666666 33:0.18666667 34:0.23333333 35:0.17333333 36:8.1412735 37:0.054275155 38:12.5 39:1.7142857 40:0.026666667 41:0.006666667 
-0.1669921875 -0.6669921875 1.0 1.0 1:92.0 2:4.0 3:121.0 4:8.0 5:354.0 6:77.0 7:68.0 8:39.0 9:72.22261 10:5.18 11:9.2 12:5.53826 13:10.934197 14:4.2 15:47.82608695652174 16:0.8369565 17:0.42391303 18:4.066031 19:0.73913044 20:7.08949 21:5.0130267 22:0.014783939 23:0.9331502 24:0.9541462 25:67.64097 26:1.3529412 27:7.08949 28:3.2660222 29:0.03550024 30:0.7282609 31:0.57608694 32:0.3478261 33:0.1521739 34:0.14130434 35:0.13043478 36:3.3041623 37:0.03591481 38:23.0 39:0.6666667 40:0.010869565 41:0.0 
-0.1669921875 -0.6669921875 1.0 1.0 1:111.0 2:9.0 3:134.0 4:7.0 5:403.0 6:92.0 7:79.0 8:43.0 9:92.186935 10:0.89 11:4.8 12:3.1481092 13:7.908726 14:-1.3 15:42.34234234234234 16:0.8288288 17:0.3873874 18:4.0813794 19:0.7117117 20:7.498348 21:5.3021326 22:0.015333063 23:0.9277885 24:0.95163137 25:65.218544 26:1.4050633 27:7.498348 28:2.3703256 29:0.021354284 30:0.7387387 31:0.4954955 32:0.34234235 33:0.21621622 34:0.12612613 35:0.09009009 36:4.4716578 37:0.040285204 38:12.333333 39:1.5 40:0.018018018 41:0.009009009 
-0.1669921875 -0.666015625 1.0 1.0 1:55.0 2:5.0 3:70.0 4:5.0 5:209.0 6:39.0 7:45.0 8:27.0 9:87.99728 10:0.5 11:4.4 12:3.853091 13:8.841846 14:-1.8 15:40.0 16:0.7090909 17:0.4909091 18:3.6406794 19:0.8181818 20:6.0677986 21:4.2905817 22:0.012496059 23:0.9499241 24:0.962991 25:80.02523 26:1.2222222 27:6.0677986 28:0.75678736 29:0.01375977 30:0.7090909 31:0.4181818 32:0.18181819 33:0.14545454 34:0.036363635 35:0.10909091 36:2.7918375 37:0.050760683 38:11.0 39:1.25 40:0.10909091 41:0.0 
-0.1669921875 -0.666015625 1.0 1.0 1:111.0 2:12.0 3:132.0 4:4.0 5:387.0 6:101.0 7:78.0 8:41.0 9:96.84084 10:-0.28 11:3.6000001 12:1.5005406 13:6.0791497 14:-2.8 15:48.64864864864865 16:0.9099099 17:0.36936936 18:3.8915477 19:0.7027027 20:7.4034324 21:5.2350173 22:0.015907418 23:0.9250835 24:0.94974715 25:62.86375 26:1.4230769 27:7.4034324 28:3.1927152 29:0.0287632 30:0.8378378 31:0.5495495 32:0.3243243 33:0.24324325 34:0.054054055 35:0.13513513 36:5.175724 37:0.046628144 38:9.25 39:2.0 40:0.14414415 41:0.0 
-0.0712890625 -0.28515625 -0.4287109375 0.78515625 1:507.0 2:21.0 3:675.0 4:48.0 5:2028.0 6:457.0 7:212.0 8:131.0 9:69.69687 10:5.57 11:9.6 12:6.4939647 13:10.355216 14:9.41 15:46.15384615384615 16:0.90138066 17:0.25838265 18:5.8179145 19:0.41814595 20:9.415251 21:6.6575875 22:0.02247556 23:0.86001074 24:0.91755104 25:44.492775 26:2.3915095 27:9.415251 28:21.27453 29:0.0419616 30:0.7554241 31:0.62721896 32:0.3806706 33:0.24260356 34:0.14201184 35:0.102564104 36:23.444817 37:0.04624224 38:24.142857 39:2.3333333 40:0.019723866 41:0.0019723866 
-0.0712890625 -0.28515625 -0.4287109375 0.78515625 1:172.0 2:14.0 3:246.0 4:16.0 5:751.0 6:155.0 7:99.0 8:68.0 9:73.367325 10:0.89 11:4.8 12:7.464418 13:9.029199 14:3.41 15:48.837209302325576 16:0.9011628 17:0.39534885 18:5.1849513 19:0.5755814 20:7.5486794 21:5.3377223 22:0.020846922 23:0.8926906 24:0.93072045 25:47.96871 26:1.7373737 27:7.5486794 28:7.3454022 29:0.042705826 30:0.76744187 31:0.5872093 32:0.4127907 33:0.25581396 34:0.19186047 35:0.09883721 36:8.056845 37:0.04684212 38:12.285714 39:1.4 40:0.075581394 41:0.0 
-0.0712890625 -0.28515625 -0.4287109375 0.78515625 1:137.0 2:9.0 3:215.0 4:22.0 5:650.0 6:112.0 7:90.0 8:66.0 9:58.61802 10:2.06 11:6.0 12:10.153284 13:11.602472 14:4.91 15:62.77372262773723 16:0.81751823 17:0.48175183 18:5.6387606 19:0.6569343 20:7.689219 21:5.437099 22:0.017357992 23:0.914599 24:0.94397205 25:57.610348 26:1.5222223 27:7.689219 28:4.277569 29:0.03122313 30:0.620438 31:0.6569343 32:0.40875912 33:0.270073 34:0.15328467 35:0.124087594 36:5.378356 37:0.039258074 38:15.222222 39:2.25 40:0.11678832 41:0.0 
-0.0712890625 -0.28515625 -0.4287109375 0.7861328125 1:433.0 2:16.0 3:592.0 4:44.0 5:1721.0 6:409.0 7:204.0 8:123.0 9:63.700977 10:6.74 11:10.8 12:6.476858 13:10.04758 14:6.2 15:52.42494226327945 16:0.94457275 17:0.28406465 18:5.9110026 19:0.47113165 20:9.803615 21:6.9322023 22:0.020421682 23:0.8760253 24:0.9266084 25:48.967564 26:2.122549 27:9.803615 28:18.41771 29:0.042535126 30:0.76674366 31:0.60277134 32:0.40415704 33:0.2147806 34:0.12009238 35:0.108545035 36:19.611868 37:0.045292996 38:27.0625 39:2.0 40:0.011547344 41:0.0 
-0.0712890625 -0.2861328125 -0.4287109375 0.7861328125 1:119.0 2:8.0 3:176.0 4:11.0 5:526.0 6:91.0 7:87.0 8:58.0 9:66.61418 10:1.67 11:5.6 12:8.200671 13:9.120679 14:4.41 15:40.33613445378151 16:0.7647059 17:0.48739496 18:5.316851 19:0.73109245 20:7.975277 21:5.6393723 22:0.013713445 23:0.9344618 24:0.9566666 25:72.921135 26:1.3678161 27:7.975277 28:4.9798913 29:0.041847825 30:0.56302524 31:0.5462185 32:0.4117647 33:0.30252102 34:0.16806723 35:0.12605043 36:6.088612 37:0.051164806 38:14.875 39:1.0 40:0.025210084 41:0.0 
-0.0712890625 -0.2861328125 -0.4287109375 0.78515625 1:167.0 2:11.0 3:262.0 4:25.0 5:812.0 6:130.0 7:124.0 8:78.0 9:58.699703 10:2.06 11:6.0 12:10.840481 13:10.504224 14:4.91 15:52.69461077844312 16:0.7784431 17:0.46706587 18:6.0358214 19:0.74251497 20:9.595408 21:6.784978 22:0.011365727 23:0.9418303 24:0.9632952 25:87.98382 26:1.3467742 27:9.595408 28:4.824207 29:0.028887466 30:0.56287426 31:0.5329341 32:0.43712574 33:0.26946107 34:0.17964073 35:0.1497006 36:6.5967736 37:0.039501637 38:15.181818 39:1.8333334 40:0.005988024 41:0.0 
-0.072265625 -0.2861328125 -0.4287109375 0.78515625 1:162.0 2:9.0 3:248.0 4:26.0 5:741.0 6:124.0 7:105.0 8:78.0 9:59.053886 10:3.23 11:7.2000003 12:9.451113 13:12.340627 14:6.41 15:47.53086419753087 16:0.7654321 17:0.4814815 18:6.1282587 19:0.6481481 20:8.249579 21:5.8333335 22:0.016753286 23:0.914766 24:0.9452381 25:59.68978 26:1.5428572 27:8.249579 28:7.9378257 29:0.048998922 30:0.5925926 31:0.56790125 32:0.48765433 33:0.35185185 34:0.21604939 35:0.12962963 36:7.9917684 37:0.049331903 38:18.0 39:2.25 40:0.0 41:0.0 
-0.0712890625 -0.2861328125 -0.4287109375 0.78515625 1:157.0 2:11.0 3:263.0 4:27.0 5:771.0 6:139.0 7:92.0 8:55.0 9:50.62971 10:1.67 11:5.6 12:11.001784 13:10.793553 14:4.41 15:57.961783439490446 16:0.88535035 17:0.35031846 18:4.3894777 19:0.58598727 20:7.342399 21:5.19186 22:0.020905308 23:0.8942976 24:0.9310657 25:47.83474 26:1.7065217 27:7.342399 28:5.444479 29:0.03467821 30:0.6369427 31:0.52866244 32:0.55414015 33:0.31847134 34:0.22929937 35:0.14012739 36:7.073897 37:0.045056667 38:14.272727 39:2.2 40:0.0 41:0.0 
-0.0712890625 -0.2861328125 -0.4287109375 0.7861328125 1:102.0 2:8.0 3:168.0 4:24.0 5:487.0 6:83.0 7:73.0 8:46.0 9:54.55257 10:0.89 11:4.8 12:9.952549 13:11.979248 14:3.41 15:48.03921568627451 16:0.8137255 17:0.4509804 18:4.554679 19:0.71568626 20:7.228077 21:5.1110225 22:0.0156385 23:0.9276724 24:0.9509774 25:63.944748 26:1.3972603 27:7.228077 28:3.6719966 29:0.035999965 30:0.51960784 31:0.51960784 32:0.44117647 33:0.2647059 34:0.2254902 35:0.09803922 36:4.855459 37:0.04760254 38:12.75 39:1.1428572 40:0.04901961 41:0.0 
-0.0712890625 -0.2861328125 -0.4287109375 0.7861328125 1:179.0 2:14.0 3:287.0 4:25.0 5:877.0 6:129.0 7:129.0 8:92.0 9:58.213924 10:0.89 11:4.8 12:10.69363 13:10.504224 14:3.41 15:53.63128491620112 16:0.7206704 17:0.5139665 18:6.876403 19:0.7206704 20:9.641912 21:6.817862 22:0.01217339 23:0.9368519 24:0.9603761 25:82.146385 26:1.3875968 27:9.641912 28:4.723247 29:0.026386855 30:0.575419 31:0.48044693 32:0.37430167 33:0.25698325 34:0.15083799 35:0.15083799 36:4.482349 37:0.025041055 38:12.785714 39:2.3333333 40:0.005586592 41:0.0 
-0.0712890625 -0.28515625 -0.427734375 0.7861328125 1:133.0 2:8.0 3:215.0 4:22.0 5:631.0 6:104.0 7:96.0 8:60.0 9:53.201225 10:2.45 11:6.4 12:10.316391 13:11.602472 14:5.41 15:43.609022556390975 16:0.7819549 17:0.45112783 18:5.2026596 19:0.7218045 20:8.324256 21:5.8861375 22:0.013631358 23:0.9333379 24:0.95653653 25:73.36026 26:1.3854166 27:8.324256 28:7.2968616 29:0.05486362 30:0.59398496 31:0.5263158 32:0.41353384 33:0.24060151 34:0.16541353 35:0.15037593 36:5.0959 37:0.03831504 38:16.625 39:1.1428572 40:0.037593983 41:0.0 
-0.0712890625 -0.28515625 -0.427734375 0.7861328125 1:154.0 2:10.0 3:256.0 4:33.0 5:747.0 6:132.0 7:96.0 8:65.0 9:50.570232 10:2.06 11:6.0 12:10.799741 13:13.506819 14:4.91 15:57.7922077922078 16:0.85714287 17:0.42207792 18:5.237849 19:0.6233766 20:7.7359004 21:5.4701076 22:0.01862782 23:0.9061726 24:0.93906146 25:53.683147 26:1.6041666 27:7.7359004 28:6.9202724 29:0.044936832 30:0.5064935 31:0.59090906 32:0.46753246 33:0.37012988 34:0.25324675 35:0.16883117 36:6.5305333 37:0.04240606 38:15.4 39:2.5 40:0.012987013 41:0.0 
-0.0712890625 -0.2861328125 -0.4287109375 0.7861328125 1:162.0 2:9.0 3:240.0 4:22.0 5:713.0 6:104.0 7:97.0 8:66.0 9:63.23167 10:3.23 11:7.2000003 12:8.434815 13:11.602472 14:6.41 15:49.382716049382715 16:0.6419753 17:0.4074074 18:5.1854496 19:0.59876543 20:7.62104 21:5.388889 22:0.019815043 23:0.89918905 24:0.9346806 25:50.46671 26:1.6701031 27:7.62104 28:6.525837 29:0.040282942 30:0.5123457 31:0.40123457 32:0.30246913 33:0.17283951 34:0.09876543 35:0.11111111 36:6.586124 37:0.040655088 38:18.0 39:0.6 40:0.0 41:0.0 
-0.072265625 -0.2861328125 -0.4287109375 0.7861328125 1:179.0 2:10.0 3:258.0 4:26.0 5:757.0 6:139.0 7:106.0 8:69.0 9:66.729065 10:2.84 11:6.8 12:7.4131846 13:12.340627 14:5.91 15:53.072625698324025 16:0.7765363 17:0.38547486 18:5.157302 19:0.59217876 20:7.922812 21:5.602274 22:0.01947108 23:0.898996 24:0.93532085 25:51.358223 26:1.6886792 27:7.922812 28:6.8724866 29:0.03839378 30:0.60335195 31:0.5810056 32:0.41340783 33:0.2122905 34:0.11731844 35:0.12849163 36:6.3553915 37:0.035504982 38:17.9 39:0.5555556 40:0.005586592 41:0.0 
-0.0908203125 -0.36328125 -0.544921875 -1.0 1:435.0 2:26.0 3:655.0 4:53.0 5:1943.0 6:357.0 7:243.0 8:164.0 9:62.467064 10:2.45 11:6.4 12:8.694804 13:10.722255 14:5.41 15:50.57471264367817 16:0.8206897 17:0.3770115 18:7.8631983 19:0.5586207 20:11.650958 21:8.238472 22:0.015775869 23:0.90415615 24:0.9441575 25:63.387955 26:1.7901235 27:11.650958 28:13.44521 29:0.03090853 30:0.6298851 31:0.5356322 32:0.4229885 33:0.28735632 34:0.13563219 35:0.10804598 36:17.615158 37:0.040494617 38:16.73077 39:3.25 40:0.03908046 41:0.009195402 
-0.0908203125 -0.36328125 -0.544921875 -1.0 1:532.0 2:26.0 3:743.0 4:47.0 5:2244.0 6:455.0 7:255.0 8:183.0 9:67.91277 10:4.01 11:8.0 12:7.55549 13:10.279548 14:7.41 15:50.93984962406015 16:0.8552632 17:0.34398496 18:7.9340563 19:0.4793233 20:11.055652 21:7.8175263 22:0.018666241 23:0.88283867 24:0.93215895 25:53.57265 26:2.0862746 27:11.055652 28:20.746319 29:0.038996838 30:0.6879699 31:0.55451125 32:0.42857143 33:0.33834586 34:0.13721804 35:0.118421055 36:19.552402 37:0.036752637 38:20.461538 39:3.25 40:0.02631579 41:0.0018796993 
-0.0908203125 -0.36328125 -0.5458984375 -1.0 1:283.0 2:20.0 3:470.0 4:49.0 5:1444.0 6:255.0 7:148.0 8:98.0 9:51.97099 10:1.67 11:5.6 12:12.110673 13:10.4301 14:9.12 15:64.66431095406361 16:0.90106004 17:0.34628975 18:5.8254952 19:0.5229682 20:8.797687 21:6.220904 22:0.02033928 23:0.8851757 24:0.9295322 25:49.16595 26:1.9121622 27:8.797687 28:11.232146 29:0.039689563 30:0.6572438 31:0.5017668 32:0.3886926 33:0.22968198 34:0.123674914 35:0.13427562 36:11.211688 37:0.039617274 38:14.15 39:5.0 40:0.1024735 41:0.003533569 
-0.0908203125 -0.36328125 -0.5458984375 -1.0 1:228.0 2:11.0 3:275.0 4:6.0 5:840.0 6:197.0 7:122.0 8:71.0 9:83.75734 10:4.01 11:8.0 12:4.4350877 13:6.742158 14:2.7 15:44.29824561403509 16:0.86403507 17:0.3114035 18:4.70209 19:0.5350877 20:8.079647 21:5.7131734 22:0.021213412 23:0.88482505 24:0.9276723 25:47.139988 26:1.8688525 27:8.079647 28:6.994769 29:0.030678812 30:0.69298244 31:0.6666667 32:0.35526314 33:0.22807017 34:0.13596492 35:0.12280702 36:10.228059 37:0.04485991 38:20.727272 39:5.5 40:0.10526316 41:0.0 
-0.0908203125 -0.3642578125 -0.5458984375 -1.0 1:231.0 2:15.0 3:289.0 4:10.0 5:930.0 6:193.0 7:133.0 8:80.0 9:85.362434 10:2.06 11:6.0 12:5.9506483 13:7.7935376 14:4.91 15:51.082251082251084 16:0.83549786 17:0.34632036 18:5.2636137 19:0.57575756 20:8.750757 21:6.18772 22:0.018638428 23:0.8985619 24:0.936868 25:53.65259 26:1.7368422 27:8.750757 28:12.187483 29:0.052759666 30:0.6753247 31:0.74025977 32:0.43290043 33:0.33333334 34:0.21645021 35:0.121212125 36:12.41606 37:0.053749178 38:15.4 39:15.0 40:0.12554112 41:0.0043290043 
-0.0908203125 -0.3642578125 -0.544921875 -1.0 1:226.0 2:14.0 3:347.0 4:30.0 5:1039.0 6:197.0 7:137.0 8:91.0 9:60.55531 10:2.45 11:6.4 12:9.398762 13:11.208143 14:5.41 15:49.557522123893804 16:0.8716814 17:0.40265486 18:6.05323 19:0.6061947 20:9.113105 21:6.443938 22:0.017035963 23:0.90765595 24:0.9426753 25:58.699352 26:1.6496351 27:9.113105 28:9.792767 29:0.043330826 30:0.6946903 31:0.54867256 32:0.3761062 33:0.2300885 34:0.10619469 35:0.123893805 36:10.650116 37:0.04712441 38:16.142857 39:3.5 40:0.11061947 41:0.0 
-0.0908203125 -0.3642578125 -0.544921875 -1.0 1:263.0 2:12.0 3:413.0 4:41.0 5:1249.0 6:237.0 7:155.0 8:107.0 9:51.738636 10:4.4 11:8.400001 12:10.773842 13:12.573867 14:7.91 15:60.07604562737643 16:0.9011407 17:0.4068441 18:6.597903 19:0.5893536 20:9.55771 21:6.7583213 22:0.01702891 23:0.90511227 24:0.9419622 25:58.723667 26:1.6967742 27:9.55771 28:9.668061 29:0.036760688 30:0.69201523 31:0.59695816 32:0.39543727 33:0.28136882 34:0.121673 35:0.06844106 36:10.796876 37:0.04105276 38:21.916666 39:12.0 40:0.091254756 41:0.0 
-0.0908203125 -0.36328125 -0.544921875 -1.0 1:253.0 2:18.0 3:334.0 4:19.0 5:1078.0 6:227.0 7:157.0 8:103.0 9:80.88323 10:1.67 11:5.6 12:7.1479836 13:7.6754317 14:4.41 15:55.33596837944664 16:0.8972332 17:0.40711462 18:6.4755545 19:0.6205534 20:9.870505 21:6.9795012 22:0.015583561 23:0.9137701 24:0.94729 25:64.17019 26:1.611465 27:9.870505 28:7.747614 29:0.03062298 30:0.69960475 31:0.6086956 32:0.36758894 33:0.24110672 34:0.13043478 35:0.13043478 36:8.201139 37:0.032415573 38:14.055555 39:4.5 40:0.12648222 41:0.0 
-0.0908203125 -0.36328125 -0.5458984375 -1.0 1:201.0 2:11.0 3:328.0 4:35.0 5:983.0 6:164.0 7:120.0 8:85.0 9:50.234447 10:3.23 11:7.2000003 12:11.336516 13:11.855464 14:6.41 15:47.76119402985074 16:0.8159204 17:0.42288557 18:5.9954376 19:0.5970149 20:8.464148 21:5.985056 22:0.018339995 23:0.90273744 24:0.93866706 25:54.52564 26:1.675 27:8.464148 28:6.8126316 29:0.03389369 30:0.6268657 31:0.56218904 32:0.39303482 33:0.2835821 34:0.2039801 35:0.10945274 36:8.43854 37:0.04198279 38:18.272728 39:1.375 40:0.0 41:0.0099502485 
-0.0908203125 -0.36328125 -0.5458984375 -1.0 1:227.0 2:13.0 3:320.0 4:19.0 5:999.0 6:170.0 7:143.0 8:100.0 9:69.85163 10:2.84 11:6.8 12:8.382028 13:9.558584 14:5.91 15:46.25550660792951 16:0.7488987 17:0.44052863 18:6.6372333 19:0.62995595 20:9.491243 21:6.7113223 22:0.015701804 23:0.9148185 24:0.9473512 25:63.68695 26:1.5874126 27:9.491243 28:10.27779 29:0.04527661 30:0.6035242 31:0.5638766 32:0.4185022 33:0.29955947 34:0.26431718 35:0.14977974 36:14.086814 37:0.06205645 38:17.461538 39:2.1666667 40:0.02202643 41:0.0 
-0.091796875 -0.3642578125 -0.5458984375 -1.0 1:192.0 2:9.0 3:284.0 4:27.0 5:903.0 6:139.0 7:126.0 8:94.0 9:60.04417 10:4.4 11:8.400001 12:10.466875 13:12.5161 14:7.91 15:44.27083333333333 16:0.7239583 17:0.48958334 18:6.7838655 19:0.65625 20:9.0932665 21:6.4299107 22:0.015238578 23:0.91988325 24:0.9496832 25:65.62292 26:1.5238096 27:9.0932665 28:5.294686 29:0.02757649 30:0.5260417 31:0.48958334 32:0.40104166 33:0.27083334 34:0.18229167 35:0.109375 36:5.150486 37:0.026825448 38:21.333334 39:2.25 40:0.010416667 41:0.0 
