svm_type c_svc
kernel_type rbf
gamma 1.0
nr_class 6
total_sv 572
rho 0.150592490883779 0.28863304735073586 0.45072462502006017 0.5216449915420915 0.5517813877278397 0.09111087624803334 0.303775855360518 0.378139345185226 0.41262907715398456 0.2535704248112652 0.3091950296284365 0.34156838185664035 0.11575953854467294 0.15271411517995817 0.04709088762719215
label 1 2 3 4 5 6
nr_sv 80 97 97 100 99 99
SV
1.0 0.3040054206122589 0.38581592614939947 0.40307284312935815 0.41063016599165136 1:-1.133536627 2:-1.262280798 3:-1.085703457 4:-0.918167551 5:-1.099438917 6:-1.10987019 7:-1.227443673 8:-1.168565923 9:0.664891329 10:-1.327368695 11:1.086985091 12:-1.470678519 13:-1.470678519 14:0.785363852 15:0.315880768 16:-1.053891447 17:-1.470678519 18:-0.694292396 19:-1.095437207 20:-1.089099448 21:-1.034426388 22:-0.955545298 23:-1.000156268 24:-1.082882596 25:-0.870546387 26:-0.856244145 27:-0.626135038 
0.1000144742883086 0.29029582531581694 0.30285987402938375 0.31575655499708144 0.32173718903127635 1:-1.141810517 2:-1.262280798 3:-1.096244694 4:-1.013429618 5:-1.097681998 6:-1.120216379 7:-1.227443673 8:-1.168565923 9:0.868809941 10:-1.302808463 11:1.294356014 12:-1.436680265 13:-1.436680265 14:1.093681492 15:0.744643131 16:-1.191564307 17:-1.436680265 18:-1.084078168 19:-1.109638151 20:-1.104243708 21:-1.179638154 22:-1.215675597 23:-1.126014859 24:-1.147661216 25:-1.099359559 26:0.415405575 27:-0.049052054 
0.8877203945777298 0.5186237123275992 0.5844596779645965 0.6113470039258018 0.622804297997797 1:-1.133536627 2:-0.489298068 3:-1.148950878 4:-1.061060651 5:-1.138091135 6:-1.078831623 7:-1.16458917 8:-1.189745188 9:0.269049318 10:-1.423437153 11:2.064590871 12:-1.147713227 13:-1.147713227 14:2.232459141 15:2.376658678 16:-1.6390011 17:-1.147713227 18:-1.048544818 19:-1.067035317 20:-1.089099448 21:-1.075915464 22:-1.157868864 23:-1.126014859 24:-1.212439835 25:-1.131331272 26:-0.644302525 27:-0.626135038 
1.0 0.266820003972367 0.28097625382458985 0.29621376066779914 0.3039641677413554 1:-1.108714959 2:-1.107684252 3:-1.069891602 4:-0.822905485 5:-1.078355889 6:-1.047793055 7:-1.196016421 8:-1.189745188 9:-0.244475453 10:-1.487068923 11:0.981297979 12:-1.409470331 13:-1.409470331 14:0.669911058 15:0.205842773 16:-0.980465922 17:-1.409470331 18:-0.909518803 19:-1.010231538 20:-1.104243708 21:-1.075915464 22:-0.955545298 23:-1.042109131 24:-1.082882596 25:-0.99310228 26:-0.856244145 27:-0.049052054 
1.0 1.0 1.0 1.0 1.0 1:-0.877046058 2:-0.643894614 3:-0.832713777 4:-0.584750318 5:-0.79373501 6:-0.892600219 7:-0.787462156 8:-0.723801367 9:1.803698346 10:-0.320269444 11:1.402826958 12:-0.461293134 13:-0.461293134 14:1.525067893 15:1.604504539 16:-1.260400736 17:-0.461293134 18:-0.862097571 19:-0.92502587 20:-0.87707981 21:-1.01368185 22:-0.782125099 23:-0.79039195 24:-1.147661216 25:-0.849308073 26:-0.432360905 27:-0.626135038 
1.0 0.778649048632687 0.7814973031176121 0.8224812145793781 0.8401041331297242 1:-1.034249956 2:-0.953087706 3:-1.080432839 4:-1.013429618 5:-1.057272861 6:-1.016754488 7:-1.086021042 8:-0.999131807 9:1.250049085 10:-0.895716415 11:0.927592844 12:-1.163062372 13:-1.163062372 14:0.716248488 15:0.403520288 16:-0.942264804 17:-1.163062372 18:-1.093105969 19:-0.95342776 20:-1.028522408 21:-1.096660002 22:-1.013352031 23:-1.209920586 24:-1.018103976 25:-1.161680676 26:-0.432360905 27:0.528030931 
0.26291502026049535 0.3638209418015677 0.4112990884148998 0.4384942123449543 0.4499279846846632 1:-1.166632185 2:-1.107684252 3:-1.148950878 4:-1.061060651 5:-1.145118811 6:-1.151254946 7:-1.211730047 8:-1.232103717 9:0.216270383 10:-1.528714912 11:2.276405456 12:-1.2387202 13:-1.2387202 14:2.508540132 15:2.745274801 16:-1.747003085 17:-1.2387202 18:-0.995541927 19:-1.16644193 20:-1.104243708 21:-1.179638154 22:-1.128965497 23:-1.042109131 24:-1.212439835 25:-1.199589837 26:-0.644302525 27:-0.626135038 
0.5522113057557344 0.46727867423286906 0.6043108114726184 0.6332673991115049 0.6455689353441958 1:-1.141810517 2:-1.107684252 3:-1.164762733 4:-1.156322718 5:-1.159174163 6:-1.151254946 7:-1.243157298 8:-1.210924452 9:0.053135494 10:-1.497834817 11:1.042548464 12:-1.518635811 13:-1.518635811 14:0.696196111 15:0.165156699 16:-1.023297478 17:-1.518635811 18:-0.993641249 19:-1.138040041 20:-1.119387968 21:-1.11740454 22:-1.157868864 23:-1.084061995 24:-0.888546736 25:-1.230296993 26:0.203463955 27:-0.626135038 
0.9392357087337445 0.4382152447051182 0.5213390042762627 0.5588847902486103 0.574784426037173 1:-1.174906074 2:-1.107684252 3:-1.106785931 4:-0.822905485 5:-1.117008107 6:-1.213332081 7:-1.243157298 8:-1.126207394 9:2.753299182 10:-0.984132323 11:1.98031451 12:-1.370956867 13:-1.370956867 14:2.078464486 15:2.118398625 16:-1.594384896 17:-1.370956867 18:-1.099978806 19:-1.180642875 20:-1.195109267 21:-1.22112723 22:-1.100062131 23:-1.251873449 24:-1.212439835 25:-1.054978771 26:-0.856244145 27:-0.626135038 
1.0 0.7945999434689709 0.7824527398509122 0.828429552929078 0.8487385369390809 1:-1.042523845 2:-0.79849116 3:-1.054079747 4:-0.965798584 5:-1.062543618 6:-0.944331165 7:-1.054593791 8:-1.126207394 9:-0.381890878 10:-1.373931851 11:1.445440543 12:-0.994316622 13:-0.994316622 14:1.452847233 15:1.391491022 16:-1.286876286 17:-0.994316622 18:-0.926935931 19:-0.868222091 20:-0.967945369 21:-0.972192774 22:-0.839931832 23:-1.042109131 24:-0.823768116 25:-1.056456291 26:-0.644302525 27:-0.626135038 
0.9442118853079826 1.0 1.0 1.0 1.0 1:-1.092167181 2:-0.643894614 3:-1.096244694 4:-1.013429618 5:-1.106466593 6:-1.016754488 7:-1.211730047 8:-1.295641511 9:-2.268399472 10:-1.973842629 11:0.422714497 12:-1.545179563 13:-1.545179563 14:-0.200971853 15:-1.006611061 16:-0.550673408 17:-1.545179563 18:-1.051065019 19:-0.868222091 20:-1.043666668 21:-1.096660002 22:-1.128965497 23:-1.000156268 24:-0.953325356 25:-0.966029082 26:-0.644302525 27:-0.626135038 
1.0 0.6452472524423761 0.7114851578742811 0.7443941244336781 0.7589005137546455 1:-1.092167181 2:-1.107684252 3:-1.133139023 4:-1.061060651 5:-1.117008107 6:-1.089177812 7:-1.180302796 8:-1.041490336 9:1.872716954 10:-0.897453709 11:0.848850349 12:-1.394403288 13:-1.394403288 14:0.494703516 15:-0.00821263 16:-0.885131167 17:-1.394403288 18:-0.933495169 19:-1.067035317 20:-1.058810928 21:-1.11740454 22:-1.071158764 23:-1.084061995 24:-1.082882596 25:-1.013741751 26:-0.008477665 27:-0.626135038 
1.0 0.895277256213957 1.0 1.0 1.0 1:-1.158358295 2:-1.107684252 3:-1.148950878 4:-1.013429618 5:-1.14687573 6:-1.120216379 7:-1.306011801 8:-1.210924452 9:0.447816678 10:-1.451388449 11:0.408968179 12:-1.78660259 13:-1.78660259 14:-0.432363444 15:-1.585904551 16:-0.539114668 17:-1.78660259 18:-0.698690416 19:-1.109638151 20:-1.164820747 21:-1.075915464 22:-1.128965497 23:-1.042109131 24:-0.953325356 25:-1.067261569 26:-0.856244145 27:-0.626135038 
0.8097674827592952 0.3172115225868656 0.37520737023835293 0.39130582513800394 0.39811537353176873 1:-1.191453853 2:-1.262280798 3:-1.196386443 4:-1.108691684 5:-1.187284867 6:-1.140908757 7:-1.321725426 8:-1.274462246 9:-0.082810247 10:-1.666873991 11:1.014569848 12:-1.73811972 13:-1.73811972 14:0.514842147 15:-0.269240329 16:-1.003828589 17:-1.73811972 18:-1.024400046 19:-1.16644193 20:-1.089099448 21:-1.11740454 22:-1.071158764 23:-1.042109131 24:-1.082882596 25:-1.095126866 26:-0.856244145 27:-0.626135038 
0.2607932190170178 0.21248771176551648 0.24041340901233843 0.25319992391879087 0.2584657702917332 1:-1.141810517 2:-1.107684252 3:-1.122597786 4:-0.965798584 5:-1.150389568 6:-1.10987019 7:-1.196016421 8:-1.168565923 9:0.868809941 10:-1.302808463 11:1.797971112 12:-1.272769172 13:-1.272769172 14:1.847748971 15:1.826809016 16:-1.494444598 17:-1.272769172 18:-1.093081195 19:-1.095437207 20:-1.058810928 21:-1.096660002 22:-0.868835198 23:-0.916250541 24:-0.823768116 25:-1.236047265 26:-0.220419285 27:-0.049052054 
1.0 0.05464725432493537 0.08192140902428989 0.08432349340467953 0.08601157670601425 1:-1.108714959 2:-1.262280798 3:-1.138409641 4:-1.108691684 5:-1.11173735 6:-1.078831623 7:-1.180302796 8:-1.210924452 9:-0.608222166 10:-1.579160395 11:1.205883091 12:-1.33207149 13:-1.33207149 14:1.01693698 15:0.699779832 16:-1.133830527 17:-1.33207149 18:-1.005077107 19:-1.024432483 20:-1.073955188 21:-1.055170926 22:-1.100062131 23:-1.084061995 24:-1.082882596 25:-1.20825592 26:-0.432360905 27:-0.626135038 
0.48475709372088327 0.07579141154066632 0.1025675290584991 0.1274634132771208 0.1410419209061238 1:-1.174906074 2:-0.953087706 3:-1.133139023 4:-1.013429618 5:-1.134577297 6:-1.171947324 7:-1.243157298 8:-1.147386659 9:2.289208548 10:-1.088153383 11:1.98031451 12:-1.370956867 13:-1.370956867 14:2.078464486 15:2.118398625 16:-1.594384896 17:-1.370956867 18:-1.002042967 19:-1.138040041 20:-1.210253527 21:-1.262616306 22:-1.27348233 23:-1.251873449 24:-1.147661216 25:-1.135254023 26:-0.008477665 27:-0.049052054 
1.0 1.0 1.0 1.0 1.0 1:-1.208001631 2:-1.262280798 3:-1.191115824 4:-1.061060651 5:-1.174986434 6:-1.213332081 7:-1.431720805 8:-1.274462246 9:0.395718762 10:-1.616123142 11:-0.770465891 12:-2.319039251 13:-2.319039251 14:-3.175239039 15:-6.484534626 16:0.689964775 17:-2.319039251 18:-1.11478216 19:-1.180642875 20:-1.195109267 21:-1.11740454 22:-1.100062131 23:-1.000156268 24:-1.341997075 25:-1.08305221 26:-0.432360905 27:-0.049052054 
0.7152048748991561 0.8547076324906046 0.9792130894049389 1.0 1.0 1:-1.158358295 2:-1.107684252 3:-1.164762733 4:-1.013429618 5:-1.162688001 6:-1.161601135 7:-1.211730047 8:-1.083848865 9:3.052712494 10:-0.847730839 11:2.017287365 12:-1.279254858 13:-1.279254858 14:2.147271466 15:2.235430194 16:-1.614077565 17:-1.279254858 18:-1.189196966 19:-1.138040041 20:-1.149676487 21:-1.200382692 22:-1.244578963 23:-1.126014859 24:-1.212439835 25:-1.241951744 26:0.203463955 27:0.528030931 
0.03553497000064081 0.419367414832029 0.43233657578858503 0.4540303180816092 0.46398755943533593 1:-1.183179963 2:-1.262280798 3:-1.185845206 4:-1.108691684 5:-1.1995833 6:-1.202985892 7:-1.274584549 8:-1.168565923 9:2.106887228 10:-1.160873642 11:1.663074211 12:-1.507120449 13:-1.507120449 14:1.589738646 15:1.385963313 16:-1.417347796 17:-1.507120449 18:-1.018154388 19:-1.180642875 20:-1.179965007 21:-1.158893616 22:-1.100062131 23:-1.251873449 24:-1.147661216 25:-1.061588667 26:-0.856244145 27:-0.626135038 
1.0 0.8611282459807684 0.8782841340086834 0.9275096969711512 0.9483258217375192 1:-1.017702177 2:-1.262280798 3:-1.048809129 4:-1.013429618 5:-1.00632221 6:-1.089177812 7:-1.007452915 8:-0.935594013 9:1.786443695 10:-0.696630131 11:1.514687619 12:-0.877369697 13:-0.877369697 14:1.571264924 15:1.572003207 16:-1.329237166 17:-0.877369697 18:-1.116681399 19:-1.038633428 20:-1.089099448 21:-0.992937312 22:-1.100062131 23:-1.084061995 24:-1.212439835 25:-0.992539831 26:-0.644302525 27:-0.049052054 
1.0 0.6871120006597411 0.7891583831755226 0.8276389107626659 0.8439315814656603 1:-1.183179963 2:-0.334701522 3:-1.154221496 4:-1.013429618 5:-1.153903406 6:-1.161601135 7:-1.290298175 8:-1.189745188 9:1.626221928 10:-1.266735926 11:1.366301028 12:-1.596093053 13:-1.596093053 14:1.121569235 15:0.685047773 16:-1.23745526 17:-1.596093053 18:-1.15992169 19:-1.152240986 20:-1.119387968 21:-1.158893616 22:-1.157868864 23:-0.916250541 24:-1.147661216 25:-1.115483856 26:-0.644302525 27:-0.626135038 
1.0 1.0 1.0 1.0 1.0 1:-0.769485497 2:-0.643894614 3:-0.832713777 4:-0.918167551 5:-0.818331876 6:-0.789138328 7:-0.74032128 8:-0.82969769 9:-0.370387777 10:-0.867447235 11:0.52924846 12:-0.586295215 13:-0.586295215 14:0.440658019 15:0.311858452 16:-0.63853943 17:-0.586295215 18:-0.846563437 19:-0.768815478 20:-0.755925731 21:-0.764747394 22:-0.637608266 23:-0.706486223 24:-0.564653637 25:-1.000396262 26:-0.008477665 27:-0.626135038 
0.6685559540133711 0.05367632240736199 0.17019386613895454 0.17898364701004044 0.1819544668455216 1:-1.141810517 2:-1.262280798 3:-1.075162221 4:-0.870536518 5:-1.101195836 6:-1.130562568 7:-1.211730047 8:-1.10502813 9:2.092321613 10:-1.010268932 11:1.546163563 12:-1.354724718 13:-1.354724718 14:1.477217102 15:1.297827904 16:-1.348226526 17:-1.354724718 18:-0.858296488 19:-1.16644193 20:-1.104243708 21:-1.11740454 22:-1.071158764 23:-1.126014859 24:-1.082882596 25:-1.012142267 26:-0.856244145 27:-0.626135038 
1.0 0.27387409627787107 0.33681418721074663 0.35588553485915375 0.3631068834441683 1:-1.116988849 2:-1.107684252 3:-1.064620984 4:-0.822905485 5:-1.071328213 6:-1.078831623 7:-1.196016421 8:-1.210924452 9:-0.456661036 10:-1.560106087 11:1.168452239 12:-1.377441711 13:-1.377441711 14:0.945130609 15:0.581920449 16:-1.108960591 17:-1.377441711 18:-0.992371578 19:-1.067035317 20:-1.104243708 21:-1.096660002 22:-1.100062131 23:-1.251873449 24:-1.147661216 25:-0.931102426 26:-0.856244145 27:-0.626135038 
1.0 0.28072967615250793 0.30417644873666994 0.3171631689635743 0.3217797364544359 1:-1.10044107 2:-1.262280798 3:-1.054079747 4:-0.822905485 5:-1.067814375 6:-1.068485434 7:-1.16458917 8:-1.168565923 9:-0.043457533 10:-1.415714195 11:1.241343898 12:-1.287478904 13:-1.287478904 14:1.084038943 15:0.80894162 16:-1.157146092 17:-1.287478904 18:-1.062021835 19:-1.067035317 20:-1.073955188 21:-0.992937312 22:-0.926641931 23:-1.126014859 24:-0.953325356 25:-1.057605604 26:-0.856244145 27:-0.049052054 
0.784768197239445 0.37663212124251605 0.43287964005672086 0.455461402330544 0.46376460753273563 1:-1.125262738 2:-0.79849116 3:-1.080432839 4:-0.870536518 5:-1.07659897 6:-1.099524001 7:-1.243157298 8:-1.210924452 9:-0.296439269 10:-1.540240891 11:0.654045388 12:-1.58278861 13:-1.58278861 14:0.100031862 15:-0.663423032 16:-0.737753769 17:-1.58278861 18:-1.17199644 19:-1.081236262 20:-1.179965007 21:-1.200382692 22:-1.128965497 23:-1.126014859 24:-1.277218455 25:-1.166338874 26:-0.856244145 27:-0.626135038 
0.4035900532237029 0.04052484254109398 0.06152139381746686 0.06428750948868601 0.06513690047991993 1:-1.125262738 2:-1.107684252 3:-1.122597786 4:-1.013429618 5:-1.108223512 6:-1.140908757 7:-1.16458917 8:-1.147386659 9:0.857157449 10:-1.256182574 11:1.841138121 12:-1.184891026 13:-1.184891026 14:1.926235718 15:1.955916995 16:-1.518537348 17:-1.184891026 18:-1.181897144 19:-1.123839096 20:-1.149676487 21:-1.096660002 22:-1.18677223 23:-1.126014859 24:-1.082882596 25:-1.189187026 26:-0.856244145 27:-0.049052054 
0.18038462524109608 0.1451068838174768 0.19777386649339954 0.20855843002251123 0.2126598144081168 1:-1.174906074 2:-0.489298068 3:-1.185845206 4:-1.108691684 5:-1.178500272 6:-1.140908757 7:-1.258870924 8:-1.189745188 9:1.36102728 10:-1.296195504 11:1.693774885 12:-1.458382004 13:-1.458382004 14:1.650147931 15:1.491377688 16:-1.435139366 17:-1.458382004 18:-1.133114782 19:-1.138040041 20:-1.089099448 21:-1.158893616 22:-1.18677223 23:-1.126014859 24:-0.953325356 25:-1.120454095 26:-0.432360905 27:-0.626135038 
0.23174201002051387 0.4157285046126032 0.5116102014070798 0.5345753827515372 0.5444610296613891 1:-1.166632185 2:-0.953087706 3:-1.122597786 4:-0.965798584 5:-1.124035783 6:-1.10987019 7:-1.243157298 8:-1.189745188 9:1.113512276 10:-1.324169547 11:1.722428848 12:-1.410631604 13:-1.410631604 14:1.705632952 15:1.587031314 16:-1.451613041 17:-1.410631604 18:-1.142378136 19:-1.109638151 20:-1.104243708 21:-1.11740454 22:-0.984448664 23:-1.042109131 24:-1.147661216 25:-1.197683856 26:0.415405575 27:-0.626135038 
1.0 1.0 1.0 1.0 1.0 1:-1.150084406 2:-1.107684252 3:-1.138409641 4:-1.013429618 5:-1.132820378 6:-1.10987019 7:-1.306011801 8:-1.232103717 9:-0.176272944 10:-1.574181081 11:0.216304943 12:-1.817231795 13:-1.817231795 14:-0.752016052 15:-2.03925279 16:-0.371512926 17:-1.817231795 18:-0.672473949 19:-1.123839096 20:-1.089099448 21:-1.096660002 22:-1.042255398 23:-1.042109131 24:-1.018103976 25:-0.986785445 26:0.203463955 27:-0.626135038 
0.3793298570821491 0.0 0.0 0.0 0.0 1:-1.158358295 2:-1.107684252 3:-1.112056549 4:-0.918167551 5:-1.118765026 6:-1.151254946 7:-1.211730047 8:-1.168565923 9:1.316115283 10:-1.250169246 11:2.017287365 12:-1.279254858 13:-1.279254858 14:2.147271466 15:2.235430194 16:-1.614077565 17:-1.279254858 18:-1.045759007 19:-1.180642875 20:-1.149676487 21:-1.179638154 22:-1.18677223 23:-1.167967722 24:-1.018103976 25:-1.012087347 26:-0.856244145 27:-0.626135038 
0.5717730749697794 0.5994497625400298 0.6619676677908846 0.6936179965347095 0.7070912567305139 1:-1.191453853 2:-1.262280798 3:-1.148950878 4:-0.965798584 5:-1.155660325 6:-1.161601135 7:-1.274584549 8:-1.253282982 9:0.415657471 10:-1.559069118 11:1.937864195 12:-1.466303923 13:-1.466303923 14:1.997083749 15:1.976682713 16:-1.571541399 17:-1.466303923 18:-1.132940863 19:-1.152240986 20:-1.179965007 21:-1.158893616 22:-1.100062131 23:-1.084061995 24:-1.212439835 25:-1.000256574 26:-0.644302525 27:-0.049052054 
0.8327186878741836 1.0 1.0 1.0 1.0 1:-1.199727742 2:-1.107684252 3:-1.138409641 4:-0.918167551 5:-1.155660325 6:-1.22367827 7:-1.290298175 8:-1.189745188 9:2.217809989 10:-1.202796727 11:1.914189981 12:-1.515485916 13:-1.515485916 14:1.950600759 15:1.894173559 16:-1.558691932 17:-1.515485916 18:-1.125644011 19:-1.209044764 20:-1.210253527 21:-1.158893616 22:-1.18677223 23:-1.167967722 24:-1.212439835 25:-1.151290013 26:-0.432360905 27:1.105113916 
0.6035433561626797 0.43873428654862306 0.4928673177767122 0.5260492983840288 0.5413444547453841 1:-1.116988849 2:-0.953087706 3:-1.122597786 4:-1.061060651 5:-1.115251188 6:-1.058139245 7:-1.117448294 8:-1.147386659 9:0.664891329 10:-1.28002081 11:2.322570174 12:-0.985109403 13:-0.985109403 14:2.589033665 15:2.877468445 16:-1.769790317 17:-0.985109403 18:-1.047392504 19:-1.095437207 20:-1.073955188 21:-1.158893616 22:-1.100062131 23:-1.167967722 24:-0.953325356 25:-1.143337145 26:-0.220419285 27:-0.626135038 
0.767973884340015 0.9016656698010611 1.0 1.0 1.0 1:-1.199727742 2:-1.107684252 3:-1.148950878 4:-0.965798584 5:-1.16444492 6:-1.182293514 7:-1.258870924 8:-1.189745188 9:2.217809989 10:-1.202796727 11:2.553393761 12:-1.330823446 13:-1.330823446 14:2.889455244 15:3.286198705 16:-1.879928605 17:-1.330823446 18:-1.065748902 19:-1.209044764 20:-1.210253527 21:-1.22112723 22:-1.215675597 23:-1.167967722 24:-1.277218455 25:-1.018165375 26:-0.644302525 27:-0.049052054 
0.1117683008530796 0.0 0.0 0.0 0.0 1:-1.125262738 2:-0.953087706 3:-1.138409641 4:-1.061060651 5:-1.131063459 6:-1.10987019 7:-1.16458917 8:-1.083848865 9:2.010754168 10:-0.972124258 11:1.841138121 12:-1.184891026 13:-1.184891026 14:1.926235718 15:1.955916995 16:-1.518537348 17:-1.184891026 18:-1.003084864 19:-1.081236262 20:-1.119387968 21:-1.138149078 22:-1.100062131 23:-1.126014859 24:-0.758989496 25:-1.107036216 26:-0.432360905 27:-0.049052054 
1.0 0.6336805210927794 0.7366290190942946 0.7830065330761576 0.8051054842989134 1:-1.116988849 2:-0.953087706 3:-1.112056549 4:-1.061060651 5:-1.120521945 6:-1.130562568 7:-1.180302796 8:-1.041490336 9:2.534145272 10:-0.813212015 11:1.399275826 12:-1.298975249 13:-1.298975249 14:1.294809832 15:1.078805139 16:-1.258180206 17:-1.298975249 18:-1.135525595 19:-1.052834373 20:-1.134532227 21:-1.055170926 22:-1.042255398 23:-0.916250541 24:-1.018103976 25:-1.118845285 26:0.415405575 27:-0.626135038 
1.0 0.6110903160315351 0.4802884441140011 0.5074517249925874 0.5188108132620451 1:-1.083893292 2:-0.334701522 3:-1.090974076 4:-1.061060651 5:-1.097681998 6:-1.099524001 7:-1.148875545 8:-1.126207394 9:0.32842562 10:-1.277688384 11:1.099205163 12:-1.274921447 13:-1.274921447 14:0.896545564 15:0.574078235 16:-1.062235257 17:-1.274921447 18:-1.078585481 19:-1.095437207 20:-1.089099448 21:-1.075915464 22:-1.071158764 23:-1.126014859 24:-0.888546736 25:-1.129998122 26:-0.220419285 27:-0.626135038 
0.0 0.11702502733957734 0.14242603432238118 0.14983795658501195 0.15259228010131257 1:-1.208001631 2:-0.953087706 3:-1.164762733 4:-1.013429618 5:-1.178500272 6:-1.202985892 7:-1.321725426 8:-1.253282982 9:0.934063897 10:-1.504089032 11:1.556235865 12:-1.659920973 13:-1.659920973 14:1.371774295 15:0.9948821 16:-1.354268595 17:-1.659920973 18:-1.090812036 19:-1.138040041 20:-1.179965007 21:-1.158893616 22:-1.18677223 23:-1.167967722 24:-1.212439835 25:-1.173436731 26:-0.432360905 27:-0.626135038 
0.4047353834471388 0.46667991205722503 0.5408728703864596 0.5846637322173278 0.6039720934797483 1:-1.166632185 2:-1.107684252 3:-1.127868404 4:-0.965798584 5:-1.148632649 6:-1.140908757 7:-1.306011801 8:-1.253282982 9:-0.232350563 10:-1.630987595 11:0.61447563 12:-1.754454412 13:-1.754454412 14:-0.095964187 15:-1.10601089 16:-0.70671641 17:-1.754454412 18:-1.092793151 19:-1.123839096 20:-1.073955188 21:-1.055170926 22:-0.839931832 23:-1.000156268 24:-0.629432256 25:-1.138033487 26:-0.644302525 27:-0.626135038 
0.3811874833826464 0.33965268299069795 0.42098238528623383 0.44552786149424695 0.45467685996855556 1:-1.158358295 2:-0.953087706 3:-1.148950878 4:-1.013429618 5:-1.127549621 6:-1.182293514 7:-1.243157298 8:-1.168565923 9:1.316115283 10:-1.250169246 11:1.48118097 12:-1.448370769 13:-1.448370769 14:1.352030937 15:1.086194215 16:-1.308841187 17:-1.448370769 18:-1.173353502 19:-1.123839096 20:-1.210253527 21:-1.200382692 22:-1.18677223 23:-1.167967722 24:-1.018103976 25:-1.214724532 26:-0.220419285 27:0.528030931 
0.1660547547716719 0.0 0.0 0.0 0.0 1:-1.158358295 2:-0.953087706 3:-1.170033351 4:-1.108691684 5:-1.167958758 6:-1.151254946 7:-1.258870924 8:-1.189745188 9:0.881965981 10:-1.350778847 11:1.213127772 12:-1.532928724 13:-1.532928724 14:0.932032707 15:0.469140806 16:-1.138613207 17:-1.532928724 18:-0.939037177 19:-1.180642875 20:-1.149676487 21:-1.096660002 22:-1.071158764 23:-1.167967722 24:-1.147661216 25:-1.143460652 26:0.203463955 27:-0.049052054 
1.0 0.38015230786283455 0.12572947485750358 0.13007346070628623 0.13169620518867886 1:-1.067345513 2:-1.107684252 3:-1.043538511 4:-0.965798584 5:-1.062543618 6:-1.016754488 7:-1.101734668 8:-1.041490336 9:1.305778395 10:-0.972500032 11:1.366301028 12:-1.116185776 13:-1.116185776 14:1.31335079 15:1.174694493 16:-1.23745526 17:-1.116185776 18:-1.098541817 19:-1.010231538 20:-0.998233889 21:-1.01368185 22:-1.042255398 23:-1.167967722 24:-0.888546736 25:-0.961590084 26:-0.432360905 27:-0.626135038 
0.33495880425094726 0.0869457706912239 0.10388509292594172 0.11110637571399443 0.11468426646583633 1:-1.158358295 2:-1.107684252 3:-1.148950878 4:-1.013429618 5:-1.136334216 6:-1.151254946 7:-1.227443673 8:-1.210924452 9:0.447816678 10:-1.451388449 11:1.749234167 12:-1.363812813 13:-1.363812813 14:1.756753073 15:1.674155359 16:-1.466910026 17:-1.363812813 18:-1.147098366 19:-1.152240986 20:-1.104243708 21:-1.075915464 22:-1.128965497 23:-0.958203404 24:-1.212439835 25:-1.248867168 26:-0.856244145 27:-0.626135038 
0.09228935260669223 0.0 0.0 0.0 0.0 1:-1.166632185 2:-0.953087706 3:-1.096244694 4:-0.822905485 5:-1.113494269 6:-1.182293514 7:-1.243157298 8:-1.147386659 9:2.010754168 10:-1.119624181 11:1.722428848 12:-1.410631604 13:-1.410631604 14:1.705632952 15:1.587031314 16:-1.451613041 17:-1.410631604 18:-1.092007162 19:-1.209044764 20:-1.195109267 21:-1.055170926 22:-1.18677223 23:-1.126014859 24:-1.212439835 25:-1.189067577 26:-0.644302525 27:-0.626135038 
1.0 0.27877458140332473 0.12097365812610306 0.1274565950632522 0.1301175223469806 1:-1.067345513 2:-1.107684252 3:-1.090974076 4:-1.013429618 5:-1.078355889 6:-1.058139245 7:-1.133161919 8:-1.10502813 9:0.344447797 10:-1.231808611 11:0.97060345 12:-1.261477431 13:-1.261477431 14:0.728937988 15:0.368590271 16:-0.972907412 17:-1.261477431 18:-0.709926978 19:-1.038633428 20:-0.967945369 21:-1.055170926 22:-0.984448664 23:-0.916250541 24:-0.694210876 25:-1.121508226 26:-0.432360905 27:-0.626135038 
0.9084782015509028 0.9222613050485128 1.0 1.0 1.0 1:-1.133536627 2:0.129088116 3:-1.117327168 4:-1.061060651 5:-1.102952755 6:-1.151254946 7:-1.196016421 8:-1.232103717 9:-0.522634704 10:-1.615574068 11:1.575787981 12:-1.309195873 13:-1.309195873 14:1.533047654 15:1.390746414 16:-1.365949929 17:-1.309195873 18:-1.019503298 19:-1.109638151 20:-1.195109267 21:-1.075915464 22:-1.100062131 23:-1.042109131 24:-1.082882596 25:-1.017432559 26:-0.432360905 27:-0.626135038 
0.6511833148201908 0.3851384808754848 0.43374895965359167 0.4554313877457104 0.4656892509746363 1:-1.116988849 2:-1.107684252 3:-1.148950878 4:-1.061060651 5:-1.153903406 6:-1.171947324 7:-1.227443673 8:-1.147386659 9:0.664891329 10:-1.28002081 11:0.706805065 12:-1.534374635 13:-1.534374635 14:0.209372632 15:-0.47940443 16:-0.778545728 17:-1.534374635 18:-0.9752688 19:-1.123839096 20:-1.210253527 21:-1.200382692 22:-1.18677223 23:-1.209920586 24:-1.147661216 25:-1.190711775 26:-0.644302525 27:-0.626135038 
0.521559934884391 0.4402533291745233 0.49669863959815297 0.5289736742364163 0.5425664816410989 1:-1.208001631 2:-1.262280798 3:-1.133139023 4:-0.775274451 5:-1.145118811 6:-1.192639703 7:-1.290298175 8:-1.210924452 9:2.010754168 10:-1.28002081 11:2.221007795 12:-1.471601465 13:-1.471601465 14:2.404802742 15:2.564536921 16:-1.719310268 17:-1.471601465 18:-1.04224725 19:-1.209044764 20:-1.195109267 21:-1.200382692 22:-1.100062131 23:-1.209920586 24:-1.082882596 25:-0.942629482 26:-0.644302525 27:-0.626135038 
1.0 0.11888650118928398 0.04166352427187628 0.040487449143930564 0.039749494779677715 1:-1.083893292 2:-1.107684252 3:-1.096244694 4:-0.918167551 5:-1.078355889 6:-1.099524001 7:-1.180302796 8:-1.147386659 9:-0.00804009 10:-1.366259126 11:0.683722706 12:-1.42380109 13:-1.42380109 14:0.248855182 15:-0.33957778 16:-0.760781488 17:-1.42380109 18:-0.930638763 19:-1.067035317 20:-1.119387968 21:-1.11740454 22:-1.042255398 23:-0.832344813 24:-0.953325356 25:-0.961176238 26:-0.432360905 27:-0.626135038 
0.5198864862298143 0.30484108480616195 0.3559146196684603 0.373536454139672 0.38173330971947983 1:-1.183179963 2:-1.262280798 3:-1.191115824 4:-1.108691684 5:-1.187284867 6:-1.161601135 7:-1.274584549 8:-1.274462246 9:-0.296439269 10:-1.690185063 11:1.663074211 12:-1.507120449 13:-1.507120449 14:1.589738646 15:1.385963313 16:-1.417347796 17:-1.507120449 18:-1.059374905 19:-1.152240986 20:-1.164820747 21:-1.158893616 22:-1.100062131 23:-1.126014859 24:-1.018103976 25:-1.181331032 26:-0.644302525 27:-0.626135038 
0.24540803616243206 0.37176592122734736 0.4533893903379674 0.47842996537866905 0.48973310867355435 1:-1.158358295 2:-1.107684252 3:-1.090974076 4:-0.822905485 5:-1.080112808 6:-1.161601135 7:-1.258870924 8:-1.147386659 9:1.750264586 10:-1.149559644 11:1.213127772 12:-1.532928724 13:-1.532928724 14:0.932032707 15:0.469140806 16:-1.138613207 17:-1.532928724 18:-1.184305572 19:-1.19484382 20:-1.134532227 21:-1.138149078 22:-1.157868864 23:-0.958203404 24:-1.147661216 25:-1.228344075 26:-0.432360905 27:0.528030931 
0.025710841414639998 0.0 0.024628252627902473 0.024878204416819066 0.025444426412819483 1:-1.158358295 2:-0.953087706 3:-1.090974076 4:-0.870536518 5:-1.106466593 6:-1.130562568 7:-1.243157298 8:-1.189745188 9:0.881965981 10:-1.350778847 11:1.48118097 12:-1.448370769 13:-1.448370769 14:1.352030937 15:1.086194215 16:-1.308841187 17:-1.448370769 18:-1.140278826 19:-1.152240986 20:-1.134532227 21:-1.055170926 22:-1.157868864 23:-1.126014859 24:-1.212439835 25:-1.234415848 26:-0.856244145 27:-0.049052054 
0.531714312121763 0.0 0.0 0.0 0.0 1:-1.10044107 2:-1.262280798 3:-1.080432839 4:-0.965798584 5:-1.090654322 6:-1.047793055 7:-1.16458917 8:-1.147386659 9:0.310716898 10:-1.324842532 11:1.241343898 12:-1.287478904 13:-1.287478904 14:1.084038943 15:0.80894162 16:-1.157146092 17:-1.287478904 18:-1.098386134 19:-0.95342776 20:-0.998233889 21:-1.055170926 22:-1.18677223 23:-1.251873449 24:-0.953325356 25:-1.096847734 26:-0.856244145 27:-0.626135038 
1.0 0.4568178580303096 0.5084273188309486 0.5343089803323804 0.5456591991746698 1:-1.10044107 2:-1.107684252 3:-1.117327168 4:-1.013429618 5:-1.101195836 6:-1.047793055 7:-1.101734668 8:-1.083848865 9:1.373240192 10:-1.052227541 11:2.116043806 12:-0.981984322 13:-0.981984322 14:2.321438388 15:2.519656367 16:-1.665770823 17:-0.981984322 18:-1.033123521 19:-1.024432483 20:-1.028522408 21:-1.075915464 22:-1.071158764 23:-1.126014859 24:-0.953325356 25:-1.181191947 26:-0.856244145 27:-0.626135038 
0.6122736993840117 0.6030252317055391 0.5898243796866404 0.6187736224559763 0.631180769428866 1:-1.108714959 2:-1.107684252 3:-1.164762733 4:-1.156322718 5:-1.131063459 6:-1.120216379 7:-1.16458917 8:-1.10502813 9:1.210511399 10:-1.118703036 11:1.430468202 12:-1.254672649 13:-1.254672649 14:1.352944325 15:1.173559899 16:-1.277609844 17:-1.254672649 18:-1.031964754 19:-1.067035317 20:-1.089099448 21:-1.200382692 22:-1.157868864 23:-1.167967722 24:-1.147661216 25:-1.193770662 26:0.627347196 27:-0.626135038 
1.0 1.0 1.0 1.0 1.0 1:-1.191453853 2:-0.953087706 3:-1.170033351 4:-1.061060651 5:-1.16444492 6:-1.182293514 7:-1.258870924 8:-1.10502813 9:3.904931496 10:-0.804435004 11:2.245628978 12:-1.375698657 13:-1.375698657 14:2.451852109 15:2.647900854 16:-1.731665525 17:-1.375698657 18:-1.19213479 19:-1.16644193 20:-1.225397787 21:-1.179638154 22:-1.128965497 23:-1.126014859 24:-1.082882596 25:-1.176114744 26:-0.856244145 27:-0.626135038 
0.08708150952613673 0.10631817810154134 0.07578257267332429 0.07789082403284961 0.078977722482517 1:-1.183179963 2:-0.953087706 3:-1.138409641 4:-1.013429618 5:-1.145118811 6:-1.213332081 7:-1.290298175 8:-1.210924452 9:1.145556629 10:-1.37259821 11:1.366301028 12:-1.596093053 13:-1.596093053 14:1.121569235 15:0.685047773 16:-1.23745526 17:-1.596093053 18:-1.166612059 19:-1.223245709 20:-1.195109267 21:-1.158893616 22:-1.157868864 23:-1.042109131 24:-1.147661216 25:-1.204041886 26:-0.856244145 27:-0.049052054 
0.42806112177806377 0.46607729048156277 0.5302346961432406 0.5601592137638653 0.5723625138074732 1:-1.150084406 2:-1.262280798 3:-1.159492114 4:-1.156322718 5:-1.148632649 6:-1.130562568 7:-1.227443673 8:-1.253282982 9:-0.596855081 10:-1.673206181 11:1.514687619 12:-1.401100541 13:-1.401100541 14:1.417046542 15:1.196668747 16:-1.329237166 17:-1.401100541 18:-1.088947524 19:-1.152240986 20:-1.104243708 21:-1.158893616 22:-1.100062131 23:-1.084061995 24:-1.147661216 25:-1.165501585 26:-0.220419285 27:-0.626135038 
0.6158523940428715 0.2516463764769828 0.2676008042587158 0.2800139075570463 0.28496146820006774 1:-1.158358295 2:-0.953087706 3:-1.112056549 4:-1.013429618 5:-1.134577297 6:-1.140908757 7:-1.227443673 8:-1.10502813 9:2.618563192 10:-0.948340441 11:1.749234167 12:-1.363812813 13:-1.363812813 14:1.756753073 15:1.674155359 16:-1.466910026 17:-1.363812813 18:-1.038878662 19:-1.095437207 20:-1.210253527 21:-1.200382692 22:-1.18677223 23:-1.209920586 24:-1.147661216 25:-1.148000791 26:-0.856244145 27:-0.626135038 
0.28676486768223236 0.03715083542198701 0.03407042713658939 0.0255361830624858 0.02191582717893743 1:-1.166632185 2:-1.262280798 3:-1.133139023 4:-0.918167551 5:-1.132820378 6:-1.099524001 7:-1.227443673 8:-1.126207394 9:2.459375114 10:-1.017351498 11:1.999417152 12:-1.324675902 13:-1.324675902 14:2.114256881 15:2.179600794 16:-1.604582885 17:-1.324675902 18:-1.070568101 19:-1.052834373 20:-1.089099448 21:-1.075915464 22:-1.013352031 23:-1.042109131 24:-1.082882596 25:-1.033724762 26:-0.856244145 27:-0.626135038 
0.770385370274951 0.8794984780827299 0.9909802702792199 1.0 1.0 1:-1.150084406 2:-1.262280798 3:-1.133139023 4:-1.013429618 5:-1.127549621 6:-1.089177812 7:-1.16458917 8:-1.189745188 9:0.664891329 10:-1.376130882 11:2.553393761 12:-1.068195538 13:-1.068195538 14:2.889455244 15:3.286198705 16:-1.879928605 17:-1.068195538 18:-1.047749658 19:-1.067035317 20:-1.073955188 21:-1.01368185 22:-1.013352031 23:-1.167967722 24:-0.953325356 25:-1.186944513 26:-0.856244145 27:-0.049052054 
0.6588827402179712 0.7503762967657317 0.8568720213410229 0.9019033652952672 0.9203838058085908 1:-1.158358295 2:-0.79849116 3:-1.117327168 4:-0.870536518 5:-1.131063459 6:-1.120216379 7:-1.274584549 8:-1.126207394 9:2.184413889 10:-1.048950043 11:0.945074574 12:-1.617486679 13:-1.617486679 14:0.495559815 15:-0.17973721 16:-0.954766988 17:-1.617486679 18:-1.107204467 19:-1.152240986 20:-1.089099448 21:-1.241871768 22:-1.071158764 23:-1.084061995 24:-0.953325356 25:-1.155511232 26:0.203463955 27:-0.049052054 
0.0 0.0 0.08004039814333246 0.08523726975142852 0.08780425472365681 1:-1.141810517 2:-1.262280798 3:-1.112056549 4:-0.965798584 5:-1.109980431 6:-1.089177812 7:-1.227443673 8:-1.168565923 9:0.868809941 10:-1.302808463 11:1.294356014 12:-1.436680265 13:-1.436680265 14:1.093681492 15:0.744643131 16:-1.191564307 17:-1.436680265 18:-1.114089676 19:-1.109638151 20:-1.164820747 21:-1.01368185 22:-0.984448664 23:-1.126014859 24:-0.953325356 25:-1.09237594 26:-0.856244145 27:-0.626135038 
0.2591207688472985 0.0 0.0 0.0 0.0 1:-1.116988849 2:-1.262280798 3:-1.106785931 4:-1.013429618 5:-1.080112808 6:-1.068485434 7:-1.16458917 8:-1.126207394 9:1.038742118 10:-1.186659051 11:1.630099413 12:-1.220508788 13:-1.220508788 14:1.633386231 15:1.555412547 16:-1.398073596 17:-1.220508788 18:-0.892561191 19:-1.067035317 20:-1.043666668 21:-1.075915464 22:-0.955545298 23:-1.126014859 24:-1.147661216 25:-0.95423092 26:-0.008477665 27:-0.626135038 
0.08836841973954049 0.0 0.0 0.0 0.0 1:-1.083893292 2:-1.107684252 3:-1.085703457 4:-1.061060651 5:-1.108223512 6:-1.037446866 7:-1.133161919 8:-1.083848865 9:1.001357039 10:-1.100546902 11:1.306946391 12:-1.200481625 13:-1.200481625 14:1.205812466 15:1.004594216 16:-1.19966271 17:-1.200481625 18:-1.147144585 19:-1.010231538 20:-0.998233889 21:-1.034426388 22:-1.042255398 23:-1.084061995 24:-1.018103976 25:-1.152746105 26:-0.644302525 27:-0.049052054 
1.0 1.0 1.0 1.0 1.0 1:-1.133536627 2:-1.107684252 3:-1.096244694 4:-1.013429618 5:-1.12930654 6:-1.058139245 7:-1.243157298 8:-1.316820775 9:-2.106002749 10:-1.999847898 11:0.842583646 12:-1.551419842 13:-1.551419842 14:0.391243447 15:-0.259696477 16:-0.880525624 17:-1.551419842 18:-0.931256993 19:-1.052834373 20:-1.043666668 21:-0.972192774 22:-0.984448664 23:-0.958203404 24:-1.018103976 25:-1.012576934 26:-0.644302525 27:-0.626135038 
0.6382976355809608 0.13979766626990675 0.14279086938318175 0.15092926696819894 0.1536712012082322 1:-1.150084406 2:-1.107684252 3:-1.159492114 4:-1.061060651 5:-1.141604973 6:-1.130562568 7:-1.243157298 8:-1.210924452 9:0.244309192 10:-1.475155982 11:1.255011084 12:-1.484326792 13:-1.484326792 14:1.016031959 15:0.613061028 16:-1.166069333 17:-1.484326792 18:-1.063014745 19:-1.123839096 20:-1.104243708 21:-1.158893616 22:-1.071158764 23:-1.084061995 24:-1.082882596 25:-1.04559811 26:0.203463955 27:-0.049052054 
0.23594657485706538 0.25782436429195404 0.3092258805231867 0.3356537079363751 0.34619724573256844 1:-1.141810517 2:-1.107684252 3:-1.117327168 4:-0.918167551 5:-1.113494269 6:-1.130562568 7:-1.258870924 8:-1.168565923 9:0.868809941 10:-1.302808463 11:0.790740915 12:-1.600591357 13:-1.600591357 14:0.283707787 15:-0.44300267 16:-0.842087048 17:-1.600591357 18:-0.983749386 19:-1.109638151 20:-1.134532227 21:-1.138149078 22:-1.042255398 23:-0.916250541 24:-1.212439835 25:-1.053990793 26:-0.432360905 27:-0.049052054 
0.4383899850541926 0.07512923397883871 0.06977714481169567 0.06659209448344314 0.0647108023172596 1:-1.174906074 2:-0.79849116 3:-1.154221496 4:-1.108691684 5:-1.14687573 6:-1.171947324 7:-1.243157298 8:-1.189745188 9:1.36102728 10:-1.296195504 11:1.98031451 12:-1.370956867 13:-1.370956867 14:2.078464486 15:2.118398625 16:-1.594384896 17:-1.370956867 18:-1.104620289 19:-1.16644193 20:-1.119387968 21:-1.158893616 22:-1.100062131 23:-0.874297677 24:-0.953325356 25:-1.152827558 26:-0.644302525 27:-0.626135038 
0.5977564713455742 0.5654602049018566 0.6498810339878525 0.680624080993967 0.6937711284950859 1:-1.150084406 2:-0.953087706 3:-1.090974076 4:-0.775274451 5:-1.088897403 6:-1.161601135 7:-1.274584549 8:-1.253282982 9:-0.596855081 10:-1.673206181 11:0.735658013 12:-1.650779293 13:-1.650779293 14:0.167406745 15:-0.643497096 16:-0.800573385 17:-1.650779293 18:-0.931641622 19:-1.180642875 20:-1.134532227 21:-1.11740454 22:-1.013352031 23:-1.084061995 24:-0.888546736 25:-1.208870137 26:-0.644302525 27:-0.049052054 
0.4828792349838109 0.49949906846623554 0.5705893336439133 0.6123126135979008 0.6300093929183163 1:-1.174906074 2:-0.489298068 3:-1.122597786 4:-0.965798584 5:-1.131063459 6:-1.151254946 7:-1.227443673 8:-1.168565923 9:1.825117914 10:-1.192174444 11:2.266854135 12:-1.283531731 13:-1.283531731 14:2.491202394 15:2.715857357 16:-1.742255745 17:-1.283531731 18:-1.092695491 19:-1.067035317 20:-1.119387968 21:-1.11740454 22:-1.042255398 23:-1.126014859 24:-1.082882596 25:-1.119018762 26:-0.856244145 27:-0.049052054 
0.6749263945355639 0.8784478387955638 0.983197773955312 1.0 1.0 1:-1.116988849 2:-1.262280798 3:-1.106785931 4:-1.013429618 5:-1.080112808 6:-1.130562568 7:-1.16458917 8:-1.020311071 9:2.90799606 10:-0.719850256 11:1.630099413 12:-1.220508788 13:-1.220508788 14:1.633386231 15:1.555412547 16:-1.398073596 17:-1.220508788 18:-1.125371023 19:-1.138040041 20:-1.119387968 21:-1.096660002 22:-1.128965497 23:-1.126014859 24:-1.018103976 25:-1.215611359 26:0.839288816 27:-0.049052054 
1.0 1.0 1.0 1.0 1.0 1:-1.183179963 2:-1.107684252 3:-1.191115824 4:-1.108691684 5:-1.187284867 6:-1.171947324 7:-1.290298175 8:-1.10502813 9:3.548883126 10:-0.843286789 11:1.366301028 12:-1.596093053 13:-1.596093053 14:1.121569235 15:0.685047773 16:-1.23745526 17:-1.596093053 18:-1.185689422 19:-1.180642875 20:-1.134532227 21:-1.138149078 22:-1.071158764 23:-1.084061995 24:-1.082882596 25:-1.08812611 26:-0.856244145 27:-0.626135038 
0.9110575273031971 1.0 1.0 1.0 1.0 1:-1.141810517 2:-1.262280798 3:-1.096244694 4:-0.965798584 5:-1.099438917 6:-1.130562568 7:-1.258870924 8:-1.147386659 9:1.276647165 10:-1.205295286 11:0.790740915 12:-1.600591357 13:-1.600591357 14:0.283707787 15:-0.44300267 16:-0.842087048 17:-1.600591357 18:-1.055221762 19:-1.095437207 20:-1.134532227 21:-1.200382692 22:-1.128965497 23:-1.000156268 24:-1.147661216 25:-1.052955126 26:-0.008477665 27:1.105113916 
0.17403937646270198 0.0 0.0 0.0 0.0 1:-1.108714959 2:-1.262280798 3:-1.122597786 4:-1.061060651 5:-1.088897403 6:-1.058139245 7:-1.196016421 8:-1.126207394 9:0.846764686 10:-1.210794508 11:0.981297979 12:-1.409470331 13:-1.409470331 14:0.669911058 15:0.205842773 16:-0.980465922 17:-1.409470331 18:-0.897775661 19:-1.010231538 20:-1.058810928 21:-0.992937312 22:-0.926641931 23:-0.916250541 24:-0.823768116 25:-1.056559848 26:-0.220419285 27:-0.626135038 
0.35122442093603656 0.0 0.0 0.0 0.0 1:-1.083893292 2:-0.953087706 3:-1.059350366 4:-0.870536518 5:-1.078355889 6:-1.037446866 7:-1.133161919 8:-1.126207394 9:0.32842562 10:-1.277688384 11:1.306946391 12:-1.200481625 13:-1.200481625 14:1.205812466 15:1.004594216 16:-1.19966271 17:-1.200481625 18:-0.948934946 19:-0.967628704 20:-0.998233889 21:-1.096660002 22:-0.984448664 23:-1.126014859 24:-1.018103976 25:-0.940805197 26:-0.644302525 27:-0.626135038 
0.9723114043293908 0.005292579767566473 0.03889009595687749 0.03771970345590334 0.037028044128517075 1:-1.108714959 2:-0.79849116 3:-1.101515313 4:-0.918167551 5:-1.102952755 6:-1.089177812 7:-1.196016421 8:-1.126207394 9:0.846764686 10:-1.210794508 11:0.981297979 12:-1.409470331 13:-1.409470331 14:0.669911058 15:0.205842773 16:-0.980465922 17:-1.409470331 18:-1.133466652 19:-1.095437207 20:-1.073955188 21:-1.22112723 22:-1.18677223 23:-1.209920586 24:-1.082882596 25:-1.239677933 26:-0.856244145 27:-0.049052054 
0.15952791559694116 0.0 0.0 0.0 0.0 1:-1.092167181 2:-1.107684252 3:-1.048809129 4:-0.918167551 5:-1.07659897 6:-1.078831623 7:-1.16458917 8:-1.083848865 9:1.182530883 10:-1.076851863 11:1.061918276 12:-1.31901515 13:-1.31901515 14:0.825882586 15:0.460286164 16:-1.03668234 17:-1.31901515 18:-1.120480857 19:-1.052834373 20:-1.058810928 21:-1.11740454 22:-1.100062131 23:-1.084061995 24:-1.147661216 25:-0.941279608 26:-0.432360905 27:-0.049052054 
-1.0 1.0 1.0 1.0 1.0 1:-1.183179963 2:-1.262280798 3:-1.090974076 4:-0.775274451 5:-1.109980431 6:-1.182293514 7:-1.258870924 8:-1.083848865 9:4.029548425 10:-0.737424505 11:1.959847394 12:-1.418147844 13:-1.418147844 14:2.039543669 15:2.051061707 16:-1.583402445 17:-1.418147844 18:-1.173454497 19:-1.180642875 20:-1.240542046 21:-1.241871768 22:-1.128965497 23:-1.042109131 24:-0.953325356 25:-1.176978971 26:-0.856244145 27:-0.626135038 
-1.0 0.4498409582053445 0.666230362692525 0.7043591870700657 0.7222360457366509 1:-1.092167181 2:-0.489298068 3:-1.096244694 4:-1.061060651 5:-1.11173735 6:-1.058139245 7:-1.148875545 8:-1.041490336 9:1.872716954 10:-0.897453709 11:1.274986202 12:-1.243627012 13:-1.243627012 14:1.146869897 15:0.910289443 16:-1.179048592 17:-1.243627012 18:-1.084241535 19:-1.081236262 20:-1.073955188 21:-1.034426388 22:-0.984448664 23:-0.916250541 24:-1.082882596 25:-1.184826772 26:-0.220419285 27:-0.626135038 
-0.005129933324859632 0.0 0.0 0.0 0.0 1:-0.98460662 2:-0.953087706 3:-0.964479236 4:-0.727643418 5:-0.944830045 6:-0.965023543 7:-1.038880166 8:-0.977952542 9:0.664891329 10:-0.940808816 11:0.635782423 12:-1.11991386 13:-1.11991386 14:0.351924427 15:-0.019097731 16:-0.723476584 17:-1.11991386 18:-1.043453942 19:-0.967628704 20:-0.922512589 21:-0.889214622 22:-1.042255398 23:-0.958203404 24:-0.953325356 25:-1.082734019 26:-0.856244145 27:-0.626135038 
-1.0 0.22562868962478388 0.26222340899741436 0.2770510251402626 0.2885714077833929 1:-1.10044107 2:-1.262280798 3:-1.096244694 4:-1.013429618 5:-1.097681998 6:-1.047793055 7:-1.117448294 8:-1.10502813 9:1.019065761 10:-1.143099205 11:1.897368829 12:-1.058357967 13:-1.058357967 14:2.025482121 15:2.11566603 16:-1.549513742 17:-1.058357967 18:-0.979202204 19:-1.095437207 20:-1.013378149 21:-0.951448236 22:-0.955545298 23:-0.958203404 24:-1.082882596 25:-0.96739919 26:-0.644302525 27:-0.626135038 
-0.0 0.9022494565890327 0.06474643441530817 0.06947719556153427 0.06958502220360982 1:-0.901867726 2:-0.79849116 3:-0.943396762 4:-0.870536518 5:-0.91847626 6:-0.933984976 7:-0.897457535 8:-0.808518425 9:1.316115283 10:-0.541713601 11:0.811047975 12:-0.801651886 13:-0.801651886 14:0.710542802 15:0.548800913 16:-0.857215933 17:-0.801651886 18:-0.798702777 19:-0.910824925 20:-0.937656849 21:-0.90995916 22:-0.926641931 23:-0.706486223 24:-0.953325356 25:-1.101648782 26:-0.432360905 27:-0.626135038 
-0.16184582456845134 0.4956508961840497 0.16791493594704462 0.21453479429296965 0.22076886535768162 1:-0.868772169 2:-0.953087706 3:-0.911773052 4:-1.013429618 5:-0.91847626 6:-0.820176896 7:-0.913171161 8:-0.872056219 9:0.257054106 10:-0.823013382 11:0.287125816 12:-0.949772079 13:-0.949772079 14:-0.015293473 15:-0.361277045 16:-0.434363579 17:-0.949772079 18:-0.607918086 19:-0.740413589 20:-0.755925731 21:-0.826981008 22:-0.839931832 23:-0.580627632 24:-0.694210876 25:-0.523079949 26:-0.220419285 27:-0.049052054 
-1.0 0.5006074175494323 0.6068946430104336 0.6416513013001716 0.6573062254426107 1:-1.150084406 2:-0.79849116 3:-1.159492114 4:-1.108691684 5:-1.171472596 6:-1.130562568 7:-1.243157298 8:-1.189745188 9:0.664891329 10:-1.376130882 11:1.255011084 12:-1.484326792 13:-1.484326792 14:1.016031959 15:0.613061028 16:-1.166069333 17:-1.484326792 18:-1.036899431 19:-1.095437207 20:-1.089099448 21:-1.22112723 22:-1.157868864 23:-1.167967722 24:-1.147661216 25:-1.07054666 26:-0.432360905 27:-0.049052054 
-0.45056345486692184 0.5588549136496003 0.700432058010009 0.7427759125315617 0.7634439034362845 1:-0.794307165 2:-0.79849116 3:-0.774736975 4:-0.584750318 5:-0.774408901 6:-0.820176896 7:-0.897457535 8:-0.914414748 9:-0.860419887 10:-1.084727675 11:-0.327284604 12:-1.067640755 13:-1.067640755 14:-0.87827782 15:-1.404505744 16:0.165496738 17:-1.067640755 18:-0.876499996 19:-0.768815478 20:-0.86193555 21:-0.847725546 22:-0.782125099 23:-0.832344813 24:-0.888546736 25:-0.925691094 26:-0.220419285 27:-0.049052054 
-0.6978481264138384 0.2485524825336943 0.4048213810137216 0.42632272808937777 0.43695560703140535 1:-1.017702177 2:-0.953087706 3:-0.969749854 4:-0.822905485 5:-0.98875302 6:-0.933984976 7:-1.086021042 8:-1.10502813 9:-0.456661036 10:-1.343459371 11:0.649099168 12:-1.217139443 13:-1.217139443 14:0.320002069 15:-0.112786092 16:-0.733895071 17:-1.217139443 18:-0.948639613 19:-0.910824925 20:-0.89222407 21:-0.972192774 22:-1.013352031 23:-1.209920586 24:-1.018103976 25:-1.065497978 26:-0.856244145 27:-0.049052054 
-0.2794017446648839 1.0 0.2527088074329147 0.33542947851474664 0.3459094735790749 1:-0.786033276 2:-0.953087706 3:-0.669324608 4:-0.394226185 5:-0.683049113 6:-0.696022627 7:-0.803175782 8:-0.808518425 9:-0.043457533 10:-0.775829513 11:0.257306501 12:-0.761197815 13:-0.761197815 14:0.035683439 15:-0.213804167 16:-0.408080578 17:-0.761197815 18:-0.643536553 19:-0.768815478 20:-0.81650277 21:-0.826981008 22:-0.550898166 23:-0.874297677 24:-0.564653637 25:-0.848306903 26:-0.856244145 27:-0.626135038 
-0.11678413027890643 1.0 0.22281242583325175 0.21163580622520645 0.21707879243189276 1:-0.794307165 2:-0.643894614 3:-0.843255014 4:-0.918167551 5:-0.830630309 6:-0.76844595 7:-0.787462156 8:-0.723801367 9:0.754615519 10:-0.502581358 11:0.448282648 12:-0.687098639 13:-0.687098639 14:0.303654722 15:0.120033613 16:-0.572036438 17:-0.687098639 18:-0.734144414 19:-0.726212644 20:-0.740781471 21:-0.661024704 22:-0.753221732 23:-0.538674768 24:-0.888546736 25:-0.578847956 26:-0.432360905 27:-0.626135038 
-0.5322990137128482 1.0 1.0 0.7510272117872899 0.7723534469606423 1:-0.604007711 2:-0.489298068 3:-0.648242135 4:-0.680012385 5:-0.651424571 6:-0.571868358 7:-0.536044147 8:-0.59672578 9:-0.021773384 10:-0.470758545 11:0.348792971 12:-0.307269818 13:-0.307269818 14:0.319771703 15:0.264643231 16:-0.487903024 17:-0.307269818 18:-0.303969441 19:-0.570002252 20:-0.483329053 21:-0.661024704 22:-0.579801533 23:-0.286957587 24:-0.564653637 25:-0.175705651 26:-0.008477665 27:-0.626135038 
-0.38664818445573756 1.0 0.923088556885155 0.6294086046726385 0.7050427778049093 1:-0.521268817 2:-0.79849116 3:-0.479582348 4:-0.394226185 5:-0.488031104 6:-0.458060278 7:-0.551757773 8:-0.681442838 9:-1.079745683 10:-0.804435004 11:-0.293430478 12:-0.514948635 13:-0.514948635 14:-0.534108964 15:-0.732475201 16:0.128931713 17:-0.514948635 18:-0.286488387 19:-0.470595639 20:-0.619627392 21:-0.4950684 22:-0.637608266 23:-0.622580496 24:-0.499875017 25:-0.526562256 26:-0.644302525 27:-0.626135038 
-0.1772886163467953 0.06514437488952435 0.26633768213755393 0.28510326702652006 0.2932824100929794 1:-0.97633273 2:-0.643894614 3:-0.980291091 4:-0.965798584 5:-0.951857721 6:-0.913292597 7:-1.054593791 8:-1.0626696 9:-0.477822401 10:-1.267734921 11:0.358392104 12:-1.209337364 13:-1.209337364 14:-0.062941084 15:-0.568270369 16:-0.496139862 17:-1.209337364 18:-0.869395834 19:-0.868222091 20:-0.89222407 21:-0.90995916 22:-0.868835198 23:-0.832344813 24:-0.758989496 25:-0.791886131 26:-0.856244145 27:-0.626135038 
-0.09632533071805266 1.0 0.46366212230051135 0.06650808127962514 0.0672082339326694 1:-0.678472715 2:-0.79849116 3:-0.621889043 4:-0.584750318 5:-0.570606297 6:-0.685676438 7:-0.59889865 8:-0.681442838 9:-0.015601117 10:-0.585414073 11:0.592690033 12:-0.337924814 13:-0.337924814 14:0.598133931 15:0.564344769 16:-0.689463289 17:-0.337924814 18:-0.455883022 19:-0.697810755 20:-0.574194613 21:-0.70251378 22:-0.666511632 23:-0.580627632 24:-0.499875017 25:-0.504290894 26:-0.856244145 27:-0.626135038 
-0.1574763152106208 1.0 0.15360477496964894 0.26715024953171523 0.2608212630635435 1:-0.595733821 2:-0.79849116 3:-0.611347806 4:-0.680012385 5:-0.609258515 6:-0.520137412 7:-0.630325901 8:-0.744980632 9:-1.034430436 10:-0.87745989 11:-0.216489283 12:-0.608509817 13:-0.608509817 14:-0.482618834 15:-0.717808074 16:0.04749143 17:-0.608509817 18:-0.617061517 19:-0.470595639 20:-0.543906093 21:-0.412090248 22:-0.608704899 23:-0.412816178 24:-0.240760537 25:-0.625684831 26:-0.432360905 27:-0.626135038 
-0.38160081057999296 0.4672033774992472 0.6870671748203071 0.7226351922208791 0.7406024930785098 1:-0.910141616 2:-0.79849116 3:-0.88541996 4:-0.727643418 5:-0.920233179 6:-0.861561652 7:-0.960312038 8:-0.914414748 9:0.333941451 10:-0.880580263 11:0.373813661 12:-1.01885331 13:-1.01885331 14:0.061439914 15:-0.308755677 16:-0.509318802 17:-1.01885331 18:-1.0256629 19:-0.854021147 20:-0.81650277 21:-0.972192774 22:-1.042255398 23:-0.748439086 24:-1.018103976 25:-1.004055588 26:-0.856244145 27:0.528030931 
-0.4656650275987357 0.5549365107560515 0.6997423862403512 0.733848391195454 0.7548921237635956 1:-0.910141616 2:-1.107684252 3:-0.906502434 4:-0.822905485 5:-0.946586964 6:-0.820176896 7:-1.007452915 8:-1.020311071 9:-0.76922481 10:-1.239192713 11:-0.034857608 12:-1.199692126 13:-1.199692126 14:-0.579932876 15:-1.163998976 16:-0.136072383 17:-1.199692126 18:-0.402611546 19:-0.740413589 20:-0.83164703 21:-0.868470084 22:-0.666511632 23:-0.580627632 24:-1.018103976 25:-0.370768391 26:-0.432360905 27:-0.626135038 
-0.2410535016823269 1.0 0.33644113602040376 0.3526642453649482 0.3616572376310285 1:-0.926689394 2:-0.643894614 3:-0.811631303 4:-0.489488252 5:-0.883337879 6:-0.913292597 7:-0.928884787 8:-0.82969769 9:1.463284539 10:-0.553908657 11:0.863295632 12:-0.850674941 13:-0.850674941 14:0.75830747 15:0.587547938 16:-0.895714119 17:-0.850674941 18:-0.935061736 19:-0.981829649 20:-0.983089629 21:-0.930703698 22:-0.897738565 23:-0.832344813 24:-0.823768116 25:-0.891984903 26:-0.220419285 27:-0.049052054 
-0.10199310868988608 0.44274256553008723 0.3383250985708209 0.3551698102573587 0.36752452921418094 1:-0.910141616 2:-0.953087706 3:-0.932855525 4:-0.918167551 5:-0.91847626 6:-0.820176896 7:-0.976025663 8:-0.893235484 9:0.554574703 10:-0.808857773 11:0.237589905 12:-1.079132915 13:-1.079132915 14:-0.147472658 15:-0.585617551 16:-0.390558578 17:-1.079132915 18:-0.670233999 19:-0.797217368 20:-0.83164703 21:-0.889214622 22:-0.868835198 23:-0.958203404 24:-0.564653637 25:-0.95400242 26:-0.856244145 27:-0.626135038 
-0.3154087820370463 0.35998973515499855 0.36598663241127094 0.390839757461475 0.39948967100341237 1:-0.97633273 2:-1.262280798 3:-0.932855525 4:-0.822905485 5:-0.97118383 6:-0.944331165 7:-1.007452915 8:-0.977952542 9:0.537923137 10:-0.959953548 11:0.828749602 12:-1.01532981 13:-1.01532981 14:0.650376538 15:0.391778514 16:-0.870327634 17:-1.01532981 18:-0.615073915 19:-0.967628704 20:-0.90736833 21:-0.992937312 22:-0.811028465 23:-0.748439086 24:-0.758989496 25:-0.731009237 26:-0.856244145 27:-0.626135038 
-1.0 0.6336068057258593 0.7682847663036156 0.815312864352262 0.8363355642572913 1:-1.108714959 2:-1.107684252 3:-0.996102946 4:-0.680012385 5:-1.036189833 6:-1.099524001 7:-1.211730047 8:-1.083848865 9:1.574258112 10:-1.026611564 11:0.756712868 12:-1.486869172 13:-1.486869172 14:0.311119329 15:-0.309873302 16:-0.816524448 17:-1.486869172 18:-0.684291501 19:-1.138040041 20:-1.089099448 21:-1.158893616 22:-1.128965497 23:-1.042109131 24:-0.888546736 25:-0.820335556 26:-0.856244145 27:-0.626135038 
-0.30552771400144085 0.7120843645317586 0.5776674214996689 0.5733718995919842 0.5872208250218545 1:-0.73638994 2:-0.334701522 3:-0.700948318 4:-0.775274451 5:-0.72345825 6:-0.706368816 7:-0.59889865 8:-0.660263573 9:0.664891329 10:-0.424252417 11:1.134673177 12:-0.196045749 13:-0.196045749 14:1.265935029 15:1.351415934 16:-1.086285061 17:-0.196045749 18:-0.635901873 19:-0.697810755 20:-0.740781471 21:-0.847725546 22:-0.811028465 23:-0.79039195 24:-0.694210876 25:-0.805684272 26:-0.856244145 27:-0.626135038 
-1.0 0.021921140783897113 0.09519598458120206 0.11675867509572979 0.12739558227820733 1:-1.059071624 2:-1.107684252 3:-1.059350366 4:-1.061060651 5:-1.043217509 6:-1.027100677 7:-1.148875545 8:-1.126207394 9:-0.117587065 10:-1.337453508 11:0.620917219 12:-1.362162963 13:-1.362162963 14:0.200053102 15:-0.354934147 16:-0.71179525 17:-1.362162963 18:-0.874335625 19:-1.010231538 20:-0.952801109 21:-0.930703698 22:-0.926641931 23:-0.916250541 24:-1.018103976 25:-0.887081026 26:-0.856244145 27:-0.626135038 
-0.02972765973137445 0.3846366608560079 0.0 0.0 0.0 1:-0.918415505 2:-0.489298068 3:-0.816901922 4:-0.441857219 5:-0.842928742 6:-0.954677354 7:-0.960312038 8:-0.914414748 9:0.440580856 10:-0.863318953 11:0.475981478 12:-0.996341868 13:-0.996341868 14:0.204303258 15:-0.13010187 16:-0.594981915 17:-0.996341868 18:-0.996451014 19:-0.95342776 20:-0.86193555 21:-1.034426388 22:-0.782125099 23:-0.79039195 24:-0.629432256 25:-0.964493596 26:-0.432360905 27:-0.049052054 
-0.15596968041406445 1.0 0.2637774595883407 0.2681893998294871 0.2756443382057764 1:-0.827402722 2:-0.643894614 3:-0.75892512 4:-0.632381352 5:-0.772651982 6:-0.830523085 7:-0.818889408 8:-0.787339161 9:0.570112256 10:-0.633731985 11:0.563759462 12:-0.714264698 13:-0.714264698 14:0.435730034 15:0.260817129 16:-0.666367842 17:-0.714264698 18:-0.655264187 19:-0.967628704 20:-0.786214251 21:-0.80623647 22:-0.753221732 23:-0.32891045 24:-1.018103976 25:-0.862932098 26:-0.220419285 27:-0.049052054 
-1.0 0.7021534603933324 0.8489159969833469 0.9006483122464011 0.9250833037566251 1:-1.183179963 2:-0.643894614 3:-1.106785931 4:-0.870536518 5:-1.102952755 6:-1.151254946 7:-1.258870924 8:-1.147386659 9:2.587552527 10:-1.055011358 11:1.959847394 12:-1.418147844 13:-1.418147844 14:2.039543669 15:2.051061707 16:-1.583402445 17:-1.418147844 18:-0.846201645 19:-1.223245709 20:-1.195109267 21:-1.096660002 22:-1.157868864 23:-1.251873449 24:-1.147661216 25:-1.072447436 26:-0.432360905 27:-0.626135038 
-1.0 0.2980394858747609 0.41054604312832316 0.45033080827374894 0.4696338533018082 1:-1.116988849 2:-0.79849116 3:-1.122597786 4:-1.013429618 5:-1.115251188 6:-1.10987019 7:-1.196016421 8:-1.210924452 9:-0.456661036 10:-1.560106087 11:1.168452239 12:-1.377441711 13:-1.377441711 14:0.945130609 15:0.581920449 16:-1.108960591 17:-1.377441711 18:-1.098568012 19:-1.123839096 20:-1.134532227 21:-1.096660002 22:-1.042255398 23:-0.916250541 24:-1.147661216 25:-1.090245818 26:-0.856244145 27:-0.626135038 
-0.3250728401930169 0.669894644554205 0.6189166771194017 0.654698027392713 0.6719734510054269 1:-0.943237173 2:-0.953087706 3:-0.938126144 4:-0.775274451 5:-0.941316207 6:-0.830523085 7:-0.960312038 8:-1.10502813 9:-1.342097114 10:-1.476604423 11:0.803993944 12:-0.925288641 13:-0.925288641 14:0.655069923 15:0.435576275 16:-0.851971253 17:-0.925288641 18:-0.838589729 19:-0.825619257 20:-0.84679129 21:-0.889214622 22:-0.811028465 23:-1.000156268 24:-0.823768116 25:-0.968231428 26:-0.856244145 27:-0.626135038 
-0.0 0.38874946949927713 0.0 0.0 0.0 1:-0.645377157 2:-0.489298068 3:-0.674595226 4:-0.775274451 5:-0.672507599 6:-0.520137412 7:-0.693180403 8:-0.702622102 9:-0.420481927 10:-0.695140231 11:-0.216489283 12:-0.70462295 13:-0.70462295 14:-0.529131497 15:-0.81252666 16:0.04749143 17:-0.70462295 18:-0.446362136 19:-0.612605087 20:-0.483329053 21:-0.70251378 22:-0.464188067 23:-0.580627632 24:-0.953325356 25:-0.609119317 26:-0.644302525 27:-0.626135038 
-0.7267283608856718 0.724213796325612 0.7772609934824027 0.8188238314715157 0.839168434610521 1:-0.951511062 2:-0.79849116 3:-0.922314289 4:-0.775274451 5:-0.91847626 6:-0.892600219 7:-0.897457535 8:-0.977952542 9:0.18422603 10:-1.014278058 11:1.514687619 12:-0.648692094 13:-0.648692094 14:1.621744969 15:1.684960681 16:-1.329237166 17:-0.648692094 18:-0.8100592 19:-0.825619257 20:-0.87707981 21:-0.951448236 22:-1.128965497 23:-0.958203404 24:-1.082882596 25:-1.02259819 26:-0.008477665 27:-0.626135038 
-1.0 0.7930150321755264 0.9364863642286778 0.9894537414383138 1.0 1:-1.075619402 2:-0.953087706 3:-1.043538511 4:-0.918167551 5:-1.073085132 6:-1.058139245 7:-1.054593791 8:-1.041490336 9:1.485539402 10:-0.948401789 11:2.148045022 12:-0.863905376 13:-0.863905376 14:2.374808638 15:2.603106688 16:-1.682244498 17:-0.863905376 18:-1.053677297 19:-1.010231538 20:-1.028522408 21:-1.075915464 22:-0.984448664 23:-1.042109131 24:-0.888546736 25:-0.979615556 26:-0.856244145 27:-0.626135038 
-1.0 0.7961076377627002 1.0 1.0 1.0 1:-1.075619402 2:-0.79849116 3:-1.080432839 4:-1.013429618 5:-1.083626646 6:-1.089177812 7:-1.196016421 8:-1.10502813 9:0.500761715 10:-1.210853617 11:0.323975701 12:-1.525643111 13:-1.525643111 14:-0.325126228 15:-1.140643026 16:-0.466487246 17:-1.525643111 18:-1.007122599 19:-1.109638151 20:-1.089099448 21:-1.096660002 22:-0.984448664 23:-1.042109131 24:-0.888546736 25:-0.803734102 26:-0.644302525 27:-0.626135038 
-0.770239039805203 1.0 1.0 1.0 1.0 1:-0.446803813 2:-0.489298068 3:-0.56918286 4:-0.965798584 5:-0.558307864 6:-0.344252198 7:-0.34748064 8:-0.639084309 9:-1.233120366 10:-0.785445458 11:0.20964657 12:-0.07530518 13:-0.07530518 14:0.23037443 15:0.231708734 16:-0.365527149 17:-0.07530518 18:-0.566456684 19:-0.314385248 20:-0.241020896 21:-0.432834786 22:-0.4352847 23:-0.706486223 24:0.018353942 25:-0.511988548 26:-0.432360905 27:-0.626135038 
-1.0 0.7291480108726237 0.8888774549960053 0.9441797381905976 0.9700687633862741 1:-1.133536627 2:-1.262280798 3:-1.106785931 4:-1.013429618 5:-1.104709674 6:-1.068485434 7:-1.196016421 8:-1.210924452 9:-0.126792693 10:-1.51950561 11:1.575787981 12:-1.309195873 13:-1.309195873 14:1.533047654 15:1.390746414 16:-1.365949929 17:-1.309195873 18:-0.939181956 19:-1.024432483 20:-1.028522408 21:-1.138149078 22:-1.071158764 23:-0.958203404 24:-1.212439835 25:-1.008940102 26:-0.856244145 27:-0.049052054 
-1.0 0.5936198857520809 0.6969496854823519 0.736771512785663 0.7557881648492051 1:-1.092167181 2:-0.953087706 3:-1.059350366 4:-0.918167551 5:-1.062543618 6:-1.016754488 7:-1.101734668 8:-1.126207394 9:0.492344812 10:-1.256250016 11:1.914189981 12:-1.017462598 13:-1.017462598 14:2.054508587 15:2.161626121 16:-1.558691932 17:-1.017462598 18:-0.995179781 19:-0.996030594 20:-0.967945369 21:-1.096660002 22:-0.984448664 23:-0.958203404 24:-0.953325356 25:-1.001804183 26:-0.856244145 27:-0.626135038 
-0.1875964274532052 1.0 0.38038489717420737 0.3256287137183233 0.3358520856318197 1:-0.670198825 2:-0.79849116 3:-0.685136463 4:-0.727643418 5:-0.719944412 6:-0.582214547 7:-0.614612275 8:-0.660263573 9:0.066730068 10:-0.539598872 11:0.429816761 12:-0.406456861 13:-0.406456861 14:0.383111581 15:0.305002872 16:-0.556625297 17:-0.406456861 18:-0.327308032 19:-0.541600363 20:-0.483329053 21:-0.557302014 22:-0.377477967 23:-0.245004723 24:-0.435096397 25:-0.272134706 26:-0.644302525 27:-0.626135038 
-1.0 0.5274556821032428 0.3474347105664601 0.36667365918416217 0.3748210784279748 1:-1.059071624 2:-0.953087706 3:-1.069891602 4:-1.013429618 5:-1.083626646 6:-1.027100677 7:-1.086021042 8:-0.999131807 9:1.760361082 10:-0.824902256 11:1.393907835 12:-1.074978406 13:-1.074978406 14:1.362516642 15:1.251608022 16:-1.254819404 17:-1.074978406 18:-0.988380111 19:-0.996030594 20:-1.043666668 21:-1.034426388 22:-0.984448664 23:-0.958203404 24:-1.082882596 25:-0.940151538 26:-0.644302525 27:-0.626135038 
-0.030583788593714627 0.49769407718861236 0.0 0.0 0.0 1:-0.943237173 2:-0.489298068 3:-0.932855525 4:-0.775274451 5:-0.955371559 6:-0.944331165 7:-1.007452915 8:-0.935594013 9:0.546833186 10:-0.883033204 11:0.36664399 12:-1.112365102 13:-1.112365102 14:0.002938038 15:-0.429851556 16:-0.503200009 17:-1.112365102 18:-0.986292572 19:-0.882423036 20:-0.89222407 21:-0.992937312 22:-0.955545298 23:-1.042109131 24:-0.953325356 25:-0.912465658 26:-0.644302525 27:-0.626135038 
-0.0 0.5722799336781957 0.0 0.0 0.0 1:-0.86049828 2:-0.79849116 3:-0.88541996 4:-0.870536518 5:-0.855227175 6:-0.820176896 7:-0.897457535 8:-0.935594013 9:-0.439921448 10:-1.044332163 11:0.320950711 12:-0.913091579 13:-0.913091579 14:0.045823497 15:-0.272586637 16:-0.463864906 17:-0.913091579 18:-0.645228423 19:-0.882423036 20:-0.86193555 21:-0.868470084 22:-0.897738565 23:-0.664533359 24:-0.953325356 25:-0.824648689 26:-0.856244145 27:-0.626135038 
-1.0 0.8504787421139811 0.9935367304595484 1.0 1.0 1:-1.183179963 2:-1.107684252 3:-1.170033351 4:-1.108691684 5:-1.187284867 6:-1.130562568 7:-1.306011801 8:-1.295641511 9:-0.777104569 10:-1.796047347 11:1.069527845 12:-1.685065658 13:-1.685065658 14:0.633471829 15:-0.055354804 16:-1.041919894 17:-1.685065658 18:-0.843775709 19:-1.095437207 20:-1.149676487 21:-1.22112723 22:-1.157868864 23:-1.126014859 24:-1.082882596 25:-1.099215028 26:-0.856244145 27:-0.626135038 
-1.0 0.5425487527310007 0.6669692407501908 0.7041101312640571 0.722321378661303 1:-1.183179963 2:-1.107684252 3:-1.159492114 4:-1.061060651 5:-1.176743353 6:-1.161601135 7:-1.258870924 8:-1.168565923 9:2.106887228 10:-1.160873642 11:1.959847394 12:-1.418147844 13:-1.418147844 14:2.039543669 15:2.051061707 16:-1.583402445 17:-1.418147844 18:-1.148930582 19:-1.19484382 20:-1.119387968 21:-1.179638154 22:-1.215675597 23:-1.167967722 24:-0.953325356 25:-1.24032458 26:-0.644302525 27:-0.626135038 
-0.2673694152536064 0.6328380006213874 0.4296051394869577 0.45586296734763565 0.46747268074705295 1:-0.893593837 2:-0.79849116 3:-0.943396762 4:-0.822905485 5:-0.955371559 6:-0.88225403 7:-0.913171161 8:-0.82969769 9:0.985334862 10:-0.631562221 11:0.574905873 12:-0.884312217 13:-0.884312217 14:0.381184209 15:0.129293791 16:-0.675291083 17:-0.884312217 18:-0.838600806 19:-0.868222091 20:-0.86193555 21:-0.930703698 22:-0.926641931 23:-0.958203404 24:-0.694210876 25:-0.886172585 26:-0.856244145 27:0.528030931 
-0.3833733497237085 0.1717065569185478 0.564632977175086 0.6083556852954857 0.6212015975731782 1:-0.744663829 2:-0.79849116 3:-0.75892512 4:-0.775274451 5:-0.763867387 6:-0.789138328 7:-0.818889408 8:-0.766159896 9:-0.082810247 10:-0.719850256 11:-0.216489283 12:-0.906642941 13:-0.906642941 14:-0.636603196 15:-1.036351725 16:0.04749143 17:-0.906642941 18:-0.775067992 19:-0.783016423 20:-0.725637211 21:-0.744002856 22:-0.811028465 23:-0.874297677 24:-0.305539157 25:-0.843654295 26:-0.856244145 27:-0.626135038 
-0.8134141580633569 1.0 0.8105628385253935 0.8591642264700744 0.8823909167401804 1:-0.835676612 2:-0.953087706 3:-0.816901922 4:-0.822905485 5:-0.765624306 6:-0.892600219 7:-0.756034905 8:-0.660263573 9:1.818488048 10:-0.215451795 11:1.128882481 12:-0.467705038 13:-0.467705038 14:1.197909225 15:1.217482816 16:-1.082375487 17:-0.467705038 18:-0.899402911 19:-0.811418313 20:-0.86193555 21:-0.764747394 22:-0.839931832 23:-0.79039195 24:-1.018103976 25:-0.910820895 26:-0.008477665 27:-0.049052054 
-0.03564148257714887 0.836172678753484 0.07892275201670983 0.08394355441451692 0.08354998304254711 1:-0.703294383 2:-0.79849116 3:-0.700948318 4:-0.489488252 5:-0.702375222 6:-0.716715005 7:-0.74032128 8:-0.702622102 9:0.038908614 10:-0.604747444 11:-0.055449571 12:-0.736150879 13:-0.736150879 14:-0.343343264 15:-0.624691647 16:-0.115849251 17:-0.736150879 18:-0.72283635 19:-0.740413589 20:-0.665060172 21:-0.868470084 22:-0.608704899 23:-0.832344813 24:-0.694210876 25:-0.892038458 26:-0.856244145 27:-0.626135038 
-0.0 0.6301453739631313 0.0 0.0 0.0 1:-0.843950501 2:-0.953087706 3:-0.880149342 4:-0.822905485 5:-0.869282527 6:-0.820176896 7:-0.787462156 8:-0.808518425 9:0.567365037 10:-0.667687731 11:0.987807693 12:-0.557494914 13:-0.557494914 14:1.005306508 15:0.970452925 16:-0.985055017 17:-0.557494914 18:-0.798277014 19:-0.825619257 20:-0.83164703 21:-0.80623647 22:-0.897738565 23:-1.000156268 24:-0.629432256 25:-0.897365288 26:-0.856244145 27:-0.626135038 
-0.1665790746139458 0.12500535120456668 0.24304564636400197 0.25961276350969287 0.2666638130955642 1:-0.926689394 2:-0.953087706 3:-0.874878724 4:-0.775274451 5:-0.878067122 6:-0.913292597 7:-0.913171161 8:-0.935594013 9:0.322722811 10:-0.918548629 11:1.004137143 12:-0.789382162 13:-0.789382162 14:0.955624666 15:0.844015958 16:-0.996527755 17:-0.789382162 18:-0.840907595 19:-0.882423036 20:-0.86193555 21:-0.847725546 22:-0.955545298 23:-0.874297677 24:-1.018103976 25:-0.784382931 26:-0.856244145 27:-0.626135038 
-1.0 0.0 0.0 0.0 0.0 1:-1.042523845 2:-1.107684252 3:-1.032997274 4:-0.918167551 5:-1.022134481 6:-0.99606211 7:-1.101734668 8:-1.126207394 9:-0.381890878 10:-1.373931851 11:0.891463935 12:-1.204864233 13:-1.204864233 14:0.649288064 15:0.299153468 16:-0.916218587 17:-1.204864233 18:-1.096306545 19:-0.939226815 20:-0.967945369 21:-1.01368185 22:-1.157868864 23:-1.126014859 24:-1.018103976 25:-1.05753494 26:-0.856244145 27:-0.626135038 
-0.4161410290625502 0.4864204914436411 0.587515066006551 0.6754171264496799 0.6817222893734299 1:-0.703294383 2:-0.79849116 3:-0.706218937 4:-0.489488252 5:-0.732242845 6:-0.65463787 7:-0.756034905 8:-0.872056219 9:-1.213056817 10:-1.087985398 11:-0.152073398 12:-0.786918416 13:-0.786918416 14:-0.490003067 15:-0.810580979 16:-0.01897133 17:-0.786918416 18:-0.338837354 19:-0.7120117 20:-0.634771652 21:-0.578046552 22:-0.377477967 23:-0.412816178 24:-1.147661216 25:-0.686241121 26:-0.856244145 27:-0.626135038 
-0.24417756315491934 0.9557355942770992 0.25472574170302714 0.29069335443619787 0.29690067431919226 1:-0.86049828 2:-0.79849116 3:-0.843255014 4:-0.775274451 5:-0.839414904 6:-0.871907841 7:-0.787462156 8:-0.850876955 9:0.363578754 10:-0.770589261 11:1.189123008 12:-0.51047101 13:-0.51047101 14:1.259462677 15:1.280053587 16:-1.122727877 17:-0.51047101 18:-0.7690331 19:-0.92502587 20:-0.87707981 21:-0.868470084 22:-0.811028465 23:-0.79039195 24:-0.694210876 25:-0.651037934 26:-0.856244145 27:-0.626135038 
-1.0 0.22297504581485336 0.24456935134643298 0.25339611351498614 0.25888237844126605 1:-1.083893292 2:-1.262280798 3:-1.064620984 4:-0.965798584 5:-1.064300537 6:-1.027100677 7:-1.16458917 8:-1.126207394 9:0.32842562 10:-1.277688384 11:0.891463935 12:-1.349361269 13:-1.349361269 14:0.577761278 15:0.126449193 16:-0.916218587 17:-1.349361269 18:-0.98809595 19:-1.067035317 20:-1.119387968 21:-0.972192774 22:-0.897738565 23:-0.832344813 24:-1.212439835 25:-0.888546215 26:-0.856244145 27:-0.626135038 
-0.0 0.5349693317387284 0.17491691846179167 0.17927395400544668 0.18289183633543876 1:-0.885319948 2:-0.79849116 3:-0.94866738 4:-0.870536518 5:-0.937802369 6:-0.830523085 7:-0.928884787 8:-0.977952542 9:-0.596855081 10:-1.139978171 11:0.34614321 12:-0.965492787 13:-0.965492787 14:0.052514302 15:-0.291168131 16:-0.48562475 17:-0.965492787 18:-0.991906965 19:-0.797217368 20:-0.87707981 21:-0.847725546 22:-0.955545298 23:-1.084061995 24:-1.018103976 25:-0.910039659 26:-0.644302525 27:-0.626135038 
-0.0022375140289379787 0.9562521210225803 0.0 0.0216702262174311 0.0016210960178063918 1:-0.695020493 2:-0.643894614 3:-0.653512753 4:-0.489488252 5:-0.649667652 6:-0.727061194 7:-0.724607654 8:-0.766159896 9:-0.495335255 10:-0.79849533 11:-0.025462866 12:-0.702939985 13:-0.702939985 14:-0.290081072 15:-0.550717922 16:-0.145250574 17:-0.702939985 18:-0.719641772 19:-0.7120117 20:-0.755925731 21:-0.681769242 22:-0.550898166 23:-0.454769041 24:-0.888546736 25:-0.28391306 26:-0.856244145 27:-0.626135038 
-0.06754073501423621 1.0 0.1755407277056479 0.12806704634138355 0.1713579993674192 1:-0.587459932 2:-0.489298068 3:-0.674595226 4:-0.965798584 5:-0.640883057 6:-0.489098845 7:-0.614612275 8:-0.660263573 9:-0.546385225 10:-0.6638332 11:-0.188790452 12:-0.577083802 13:-0.577083802 14:-0.433870956 15:-0.651567897 16:0.018723967 17:-0.577083802 18:-0.648307564 19:-0.399590916 20:-0.392463494 21:-0.474323862 22:-0.550898166 23:-0.580627632 24:-0.758989496 25:-0.443927383 26:-0.856244145 27:-0.626135038 
-0.34776363837581403 1.0 0.4359623315888764 0.3877386516295314 0.3979555485441863 1:-0.752937718 2:-0.334701522 3:-0.737842647 4:-0.775274451 5:-0.755082792 6:-0.727061194 7:-0.693180403 8:-0.744980632 9:0.160192765 10:-0.643260512 11:0.683722706 12:-0.467947595 13:-0.467947595 14:0.666544219 15:0.605175012 16:-0.760781488 17:-0.467947595 18:-1.026494679 19:-0.641006976 20:-0.710492951 21:-0.826981008 22:-0.839931832 23:-0.916250541 24:-1.018103976 25:-0.694046595 26:-0.432360905 27:-0.049052054 
-0.7215724209363092 0.9295240666801678 1.0 1.0 1.0 1:-0.604007711 2:-0.180104976 3:-0.63243028 4:-0.822905485 5:-0.663723004 6:-0.447714089 7:-0.724607654 8:-0.787339161 9:-1.257769868 10:-0.980030485 11:-0.668715086 12:-0.877964108 13:-0.877964108 14:-1.19987357 15:-1.626491277 16:0.561470106 17:-0.877964108 18:-0.63804233 19:-0.257581469 20:-0.574194613 21:-0.764747394 22:-0.637608266 23:-0.622580496 24:-0.370317777 25:0.110121718 26:0.203463955 27:-0.626135038 
-0.3705331287873804 1.0 0.5201981088419091 0.6033400458042861 0.6249061879158608 1:-0.628829379 2:-0.334701522 3:-0.737842647 4:-1.061060651 5:-0.762110468 6:-0.55117598 7:-0.661753152 8:-0.744980632 9:-0.822641281 10:-0.834057883 11:-0.158175955 12:-0.640047745 13:-0.640047745 14:-0.42528472 15:-0.669933528 16:-0.012740446 17:-0.640047745 18:-0.472695392 19:-0.314385248 20:-0.453040534 21:-0.661024704 22:-0.579801533 23:-0.832344813 24:-1.082882596 25:-0.323412303 26:-0.644302525 27:-0.626135038 
-0.31223974788650566 1.0 0.3581366873464953 0.3645767483598432 0.3704945969865774 1:-0.703294383 2:-0.180104976 3:-0.795819448 4:-1.013429618 5:-0.821845714 6:-0.633945492 7:-0.708894029 8:-0.766159896 9:-0.430578423 10:-0.785961677 11:0.137798083 12:-0.634615805 13:-0.634615805 14:-0.057337128 15:-0.26441387 16:-0.300076117 17:-0.634615805 18:-0.634183191 19:-0.456394695 20:-0.528761833 21:-0.640280166 22:-0.753221732 23:-0.580627632 24:-0.370317777 25:-0.61099157 26:-0.432360905 27:-0.049052054 
-0.5465367255226574 0.45211276033097836 0.4760310677504175 0.5041072458886962 0.5167865269421995 1:-0.926689394 2:-0.79849116 3:-0.980291091 4:-1.013429618 5:-0.98875302 6:-0.892600219 7:-0.960312038 8:-0.82969769 9:1.463284539 10:-0.553908657 11:0.581612611 12:-0.973260499 13:-0.973260499 14:0.350755406 15:0.053352399 16:-0.680645028 17:-0.973260499 18:-1.003187783 19:-0.811418313 20:-0.89222407 21:-1.11740454 22:-0.984448664 23:-1.167967722 24:-0.564653637 25:-0.922902849 26:-0.644302525 27:-0.049052054 
-0.9143987274120307 9.32213565694573E-4 0.13149752663159717 0.13928534929541583 0.14315920614474603 1:-1.009428288 2:-0.953087706 3:-0.996102946 4:-0.870536518 5:-0.985239182 6:-1.027100677 7:-1.054593791 8:-0.999131807 9:0.802224272 10:-0.95992335 11:0.857546999 12:-1.108413843 13:-1.108413843 14:0.648078138 15:0.346150209 16:-0.891508074 17:-1.108413843 18:-0.551746563 19:-1.038633428 20:-1.073955188 21:-0.992937312 22:-1.013352031 23:-0.874297677 24:-1.212439835 25:-0.817134127 26:-0.856244145 27:-0.049052054 
-0.845277611103109 0.2831686004319742 0.5376691316634863 0.5682037045704749 0.5830863396916942 1:-1.025976066 2:-1.107684252 3:-0.959208617 4:-0.822905485 5:-0.974697668 6:-1.089177812 7:-1.054593791 8:-0.935594013 9:1.953483409 10:-0.672672825 11:1.138985398 12:-1.053186276 13:-1.053186276 14:1.037450758 15:0.850521769 16:-1.08919218 17:-1.053186276 18:-0.818388594 19:-1.024432483 20:-1.028522408 21:-0.847725546 22:-0.753221732 23:-0.832344813 24:-0.694210876 25:-0.991219903 26:-0.432360905 27:-0.626135038 
-0.09769080687219288 1.0 0.31096361462848654 0.12675160906695634 0.13393768322825333 1:-0.719842161 2:-0.643894614 3:-0.621889043 4:-0.346595152 5:-0.658452247 6:-0.696022627 7:-0.724607654 8:-0.744980632 9:-0.136217503 10:-0.699106597 11:0.179208295 12:-0.649334132 13:-0.649334132 14:-0.012601526 15:-0.220759462 16:-0.337992577 17:-0.649334132 18:-0.235320635 19:-0.783016423 20:-0.771069991 21:-0.619535628 22:-0.550898166 23:-0.412816178 24:-0.564653637 25:-0.544980748 26:-0.644302525 27:-0.626135038 
-1.0 0.0 0.0 0.0 0.0 1:-1.116988849 2:-0.953087706 3:-1.090974076 4:-0.918167551 5:-1.120521945 6:-1.058139245 7:-1.196016421 8:-1.210924452 9:-0.456661036 10:-1.560106087 11:1.168452239 12:-1.377441711 13:-1.377441711 14:0.945130609 15:0.581920449 16:-1.108960591 17:-1.377441711 18:-0.900100065 19:-1.052834373 20:-1.073955188 21:-1.096660002 22:-1.100062131 23:-1.042109131 24:-1.212439835 25:-0.906727278 26:-0.644302525 27:-0.626135038 
-1.0 0.15353987202442118 0.0 0.0 0.0 1:-1.042523845 2:-0.953087706 3:-1.085703457 4:-1.108691684 5:-1.069571294 6:-0.99606211 7:-1.086021042 8:-1.083848865 9:0.216270383 10:-1.206921259 11:1.076122804 12:-1.134681696 13:-1.134681696 14:0.924349935 15:0.675787987 16:-1.046449671 17:-1.134681696 18:-1.063341089 19:-0.95342776 20:-1.028522408 21:-1.055170926 22:-1.013352031 23:-1.000156268 24:-1.018103976 25:-1.007505359 26:-0.432360905 27:-0.626135038 
-0.7927219367355666 0.9120347217920907 0.6049207232201432 0.6367124872208932 0.6524203695244574 1:-0.951511062 2:-0.953087706 3:-0.906502434 4:-0.822905485 5:-0.911448583 6:-0.965023543 7:-0.913171161 8:-0.893235484 9:1.145556629 10:-0.714854302 11:1.366301028 12:-0.711605226 13:-0.711605226 14:1.425991133 15:1.432818619 16:-1.23745526 17:-0.711605226 18:-0.897860768 19:-0.896623981 20:-1.013378149 21:-1.034426388 22:-1.013352031 23:-1.000156268 24:-0.888546736 25:-0.969226639 26:0.415405575 27:-0.626135038 
-0.5670121046993756 0.7768193832245517 0.39865907462299094 0.44193198628148844 0.4602788930192791 1:-0.85222439 2:0.129088116 3:-0.837984395 4:-0.775274451 5:-0.821845714 6:-0.851215463 7:-0.756034905 8:-0.744980632 9:1.258654346 10:-0.447098136 11:1.331386536 12:-0.420056817 13:-0.420056817 14:1.448825178 15:1.521975474 16:-1.215301007 17:-0.420056817 18:-0.738873377 19:-0.783016423 20:-0.89222407 21:-0.826981008 22:-0.724318366 23:-0.664533359 24:-0.953325356 25:-0.819166499 26:-0.432360905 27:-0.626135038 
-0.8342365410798673 1.0 1.0 1.0 1.0 1:-0.819128833 2:-0.02550843 3:-0.859066869 4:-0.918167551 5:-0.892122474 6:-0.861561652 7:-0.88174391 8:-0.914414748 9:-0.64358643 10:-1.046047218 11:0.014334304 12:-0.957227204 13:-0.957227204 14:-0.368935268 15:-0.767533187 16:-0.183798974 17:-0.957227204 18:-0.783424456 19:-0.811418313 20:-0.87707981 21:-0.992937312 22:-1.013352031 23:-0.958203404 24:-1.147661216 25:-0.922187943 26:2.322880156 27:-0.626135038 
-0.059823779651621244 0.18679120834996782 0.06967199526151249 0.06876600665023272 0.07064945509373151 1:-0.835676612 2:-0.953087706 3:-0.906502434 4:-0.870536518 5:-0.893879393 6:-0.88225403 7:-0.897457535 8:-0.956773277 9:-0.873237629 10:-1.152796417 11:0.060499022 12:-0.974145981 13:-0.974145981 14:-0.318866597 15:-0.720652713 16:-0.227854289 17:-0.974145981 18:-0.584664135 19:-0.910824925 20:-0.952801109 21:-0.826981008 22:-0.782125099 23:-1.000156268 24:-0.953325356 25:-0.797955634 26:-0.644302525 27:-0.626135038 
-0.3470501012499443 1.0 0.5072063783268468 0.5579362138912481 0.5728639289846188 1:-0.695020493 2:-0.79849116 3:-0.722030792 4:-0.775274451 5:-0.739270521 6:-0.696022627 7:-0.567471398 8:-0.660263573 9:0.278149135 10:-0.498212394 11:0.929669218 12:-0.198190722 13:-0.198190722 14:1.029014076 15:1.081746925 16:-0.943753159 17:-0.198190722 18:-1.003494523 19:-0.7120117 20:-0.665060172 21:-0.515812938 22:-0.724318366 23:-0.538674768 24:-0.111203297 25:-0.758414645 26:-0.644302525 27:-0.626135038 
-0.6688341697853764 1.0 1.0 1.0 1.0 1:-0.670198825 2:-0.334701522 3:-0.548100386 4:-0.441857219 5:-0.558307864 6:-0.65463787 7:-0.661753152 8:-0.575546515 9:0.664891329 10:-0.303410228 11:0.152828456 12:-0.555336504 13:-0.555336504 14:-0.005935545 15:-0.176436833 16:-0.313899827 17:-0.555336504 18:-0.662364216 19:-0.783016423 20:-0.649915912 21:-0.536557476 22:-0.3485746 23:-0.119146133 24:0.018353942 25:-0.494550097 26:-0.856244145 27:-0.049052054 
-0.6082024040741962 1.0 0.9076907623748969 0.9125442323226305 0.9362523476852134 1:-0.843950501 2:0.129088116 3:-0.774736975 4:-0.537119285 5:-0.774408901 6:-0.840869274 7:-0.88174391 8:-0.82969769 9:0.372312452 10:-0.735124341 11:0.265229507 12:-0.897559983 13:-0.897559983 14:-0.017559003 15:-0.337541585 16:-0.415089378 17:-0.897559983 18:-0.836837455 19:-0.783016423 20:-0.80135851 21:-0.640280166 22:-0.608704899 23:-0.454769041 24:-0.758989496 25:-0.779196882 26:-0.008477665 27:-0.626135038 
-0.6373500891892817 0.7943533415851957 1.0 1.0 1.0 1:-0.794307165 2:0.902070846 3:-0.690407082 4:-0.632381352 5:-0.691833708 6:-0.830523085 7:-0.661753152 8:-0.660263573 9:1.292960654 10:-0.308532586 11:1.334645222 12:-0.252193365 13:-0.252193365 14:1.485587264 15:1.594816183 16:-1.217377968 17:-0.252193365 18:-0.518805351 19:-0.811418313 20:-0.86193555 21:-0.661024704 22:-0.724318366 23:-0.706486223 24:-0.823768116 25:-0.588119797 26:-0.008477665 27:-0.626135038 
-0.6233607222686752 1.0 0.9996164418527508 1.0 1.0 1:-0.678472715 2:-0.643894614 3:-0.753654502 4:-0.775274451 5:-0.658452247 6:-0.685676438 7:-0.536044147 8:-0.55436725 9:0.891722145 10:-0.229146313 11:0.96615741 12:-0.138306535 13:-0.138306535 14:1.084772142 15:1.156663502 16:-0.969758033 17:-0.138306535 18:-0.857903193 19:-0.726212644 20:-0.634771652 21:-0.619535628 22:-0.724318366 23:-1.000156268 24:-0.629432256 25:-1.041091283 26:0.415405575 27:0.528030931 
-0.5361596488106098 1.0 1.0 0.9008494743828486 0.924690737788395 1:-0.554364375 2:-0.79849116 3:-0.642971516 4:-0.680012385 5:-0.619800029 6:-0.478752656 7:-0.410335143 8:-0.533187986 9:0.017841888 10:-0.378858096 11:0.635782423 12:-0.038186153 13:-0.038186153 14:0.730635515 15:0.783272154 16:-0.723476584 17:-0.038186153 18:-0.942873145 19:-0.470595639 20:-0.362174975 21:-0.432834786 22:-0.406381334 23:-0.748439086 24:-0.435096397 25:-0.888463731 26:-0.856244145 27:-0.049052054 
-0.8362059997514126 1.0 1.0 1.0 1.0 1:-0.289599916 2:0.7474743 3:-0.400523072 4:-0.632381352 5:-0.40721283 6:-0.292521253 7:-0.158917133 8:-0.300216075 9:-0.324713699 10:-0.174547205 11:0.109379311 12:0.14414794 13:0.14414794 14:0.179974756 15:0.232503886 16:-0.273745243 17:0.14414794 18:-0.86591138 19:-0.186576745 20:-0.362174975 21:-0.370601172 22:-0.464188067 23:-0.706486223 24:-0.564653637 25:0.152166208 26:0.627347196 27:-0.049052054 
-0.0 1.0 0.0 0.0 0.0 1:-0.794307165 2:-0.79849116 3:-0.785278212 4:-0.775274451 5:-0.809547281 6:-0.840869274 7:-0.724607654 8:-0.723801367 9:0.754615519 10:-0.502581358 11:0.891463935 12:-0.469646002 13:-0.469646002 14:0.914334491 15:0.888029768 16:-0.916218587 17:-0.469646002 18:-0.580383562 19:-0.811418313 20:-0.81650277 21:-0.744002856 22:-1.013352031 23:-0.874297677 24:-0.823768116 25:-0.845259068 26:-0.220419285 27:-0.626135038 
-0.649998036914208 1.0 1.0 1.0 1.0 1:-0.570912153 2:-0.334701522 3:-0.66405399 4:-0.775274451 5:-0.663723004 6:-0.65463787 7:-0.567471398 8:-0.681442838 9:-0.786529379 10:-0.741926481 11:-0.053554986 12:-0.468313844 13:-0.468313844 14:-0.22133255 15:-0.378426022 16:-0.117716002 17:-0.468313844 18:-0.638257555 19:-0.584203197 20:-0.710492951 21:-0.661024704 22:-0.695414999 23:-0.832344813 24:-0.629432256 25:-0.865655257 26:0.839288816 27:0.528030931 
-0.48406436878343595 1.0 0.48903933773055536 0.6364541483999987 0.652172010867488 1:-0.761211608 2:-1.262280798 3:-0.837984395 4:-0.870536518 5:-0.835901066 6:-0.65463787 7:-0.693180403 8:-0.808518425 9:-0.272101786 10:-0.817712688 11:0.765241416 12:-0.447357562 13:-0.447357562 14:0.770160046 15:0.728804494 16:-0.822956328 17:-0.447357562 18:-0.667294136 19:-0.584203197 20:-0.695348691 21:-0.744002856 22:-0.695414999 23:-0.79039195 24:-0.694210876 25:-0.728962119 26:-0.644302525 27:-0.049052054 
-0.7599433634119103 1.0 1.0 1.0 1.0 1:-0.628829379 2:-0.643894614 3:-0.60080657 4:-0.537119285 5:-0.616286191 6:-0.66498406 7:-0.708894029 8:-0.639084309 9:-0.114292419 10:-0.546696452 11:-0.420585928 12:-0.784956549 13:-0.784956549 14:-0.828172245 15:-1.176195424 16:0.268670778 17:-0.784956549 18:-0.875109876 19:-0.626806031 20:-0.619627392 21:-0.557302014 22:-0.666511632 23:-0.412816178 24:-0.758989496 25:-0.858212395 26:1.263172056 27:-0.626135038 
-0.0 0.27735162209440023 0.0 0.0 0.0 1:-0.86049828 2:-0.953087706 3:-0.869608105 4:-0.870536518 5:-0.851713337 6:-0.778792139 7:-0.787462156 8:-0.808518425 9:0.765328855 10:-0.63371781 11:1.189123008 12:-0.51047101 13:-0.51047101 14:1.259462677 15:1.280053587 16:-1.122727877 17:-0.51047101 18:-0.964304566 19:-0.797217368 20:-0.740781471 21:-0.723258318 22:-0.868835198 23:-0.832344813 24:-0.953325356 25:-0.985310112 26:-0.220419285 27:-0.626135038 
-0.3349859251167293 0.9559710616975499 0.5525452546987172 0.5867902110755124 0.6300188837913611 1:-0.587459932 2:-0.334701522 3:-0.722030792 4:-1.013429618 5:-0.704132141 6:-0.633945492 7:-0.614612275 8:-0.639084309 9:-0.411798941 10:-0.607816145 11:-0.188790452 12:-0.577083802 13:-0.577083802 14:-0.433870956 15:-0.651567897 16:0.018723967 17:-0.577083802 18:-0.711226067 19:-0.612605087 20:-0.634771652 21:-0.515812938 22:-0.811028465 23:-0.832344813 24:-0.305539157 25:-0.785320207 26:0.627347196 27:-0.049052054 
-0.7586489588922685 0.9822887060102308 1.0 1.0 1.0 1:-0.595733821 2:-1.262280798 3:-0.674595226 4:-0.918167551 5:-0.711159817 6:-0.540829791 7:-0.756034905 8:-0.744980632 9:-1.034430436 10:-0.87745989 11:-0.887976081 12:-0.987046271 13:-0.987046271 14:-1.557215689 15:-2.075626267 16:0.845044547 17:-0.987046271 18:-0.218308377 19:-0.541600363 20:-0.513617573 21:-0.412090248 22:-0.579801533 23:-0.412816178 24:-0.499875017 25:-0.226956967 26:-0.008477665 27:-0.626135038 
-0.0 1.0 0.0 0.0 0.0 1:-0.85222439 2:-0.953087706 3:-0.79054883 4:-0.680012385 5:-0.784950415 6:-0.809830707 7:-0.818889408 8:-0.82969769 9:0.466970324 10:-0.718820767 11:0.842583646 12:-0.648427764 13:-0.648427764 14:0.801629821 15:0.706788534 16:-0.880525624 17:-0.648427764 18:-0.660197829 19:-0.754614534 20:-0.755925731 21:-0.90995916 22:-1.013352031 23:-0.832344813 24:-0.758989496 25:-0.721037434 26:-0.856244145 27:-0.049052054 
-0.8225121679246148 1.0 1.0 1.0 1.0 1:-0.339243252 2:-0.180104976 3:-0.379440599 4:-0.727643418 5:-0.361532936 6:-0.406329332 7:-0.237485261 8:-0.194319753 9:0.457835508 10:0.134670611 11:0.060499022 12:0.026116753 13:0.026116753 14:0.089158663 15:0.10773293 16:-0.227854289 17:0.026116753 18:-0.330251404 19:-0.484796584 20:-0.437896274 21:-0.204644868 22:-0.146251035 23:-0.664533359 24:-0.240760537 25:-0.657184856 26:2.534821777 27:0.528030931 
-0.8231801902968525 1.0 1.0 1.0 1.0 1:-0.066204904 2:-0.489298068 3:-0.168615865 4:-0.537119285 5:-0.131376547 6:-0.261482685 7:0.186782629 8:0.165727745 9:0.541038921 10:0.549543051 11:0.259318847 12:0.619909505 13:0.619909505 14:0.465673532 15:0.625796921 16:-0.409862477 17:0.619909505 18:-0.391667266 19:-0.314385248 20:-0.150155337 21:-0.246133944 22:-0.117347668 23:-0.161098996 24:-0.111203297 25:-0.630150816 26:1.687055296 27:0.528030931 
-0.1269626963122756 1.0 0.20865650232377525 0.21126171806244523 0.21300196745943278 1:-0.703294383 2:-0.79849116 3:-0.769466357 4:-0.870536518 5:-0.772651982 6:-0.66498406 7:-0.74032128 8:-0.702622102 9:0.038908614 10:-0.604747444 11:-0.055449571 12:-0.736150879 13:-0.736150879 14:-0.343343264 15:-0.624691647 16:-0.115849251 17:-0.736150879 18:-0.56146018 19:-0.655207921 20:-0.574194613 21:-0.661024704 22:-0.897738565 23:-0.664533359 24:-0.694210876 25:-0.652252556 26:-0.008477665 27:-0.049052054 
-0.5657259008421235 0.9373703803325195 0.8395978616000397 0.893844978384127 0.9173632467199834 1:-0.794307165 2:-0.953087706 3:-0.832713777 4:-0.775274451 5:-0.832387228 6:-0.76844595 7:-0.708894029 8:-0.787339161 9:0.216270383 10:-0.696630131 11:1.002259256 12:-0.415282843 13:-0.415282843 14:1.060641059 15:1.070104261 16:-0.995211212 17:-0.415282843 18:-0.687133248 19:-0.768815478 20:-0.574194613 21:-0.723258318 22:-0.724318366 23:-0.706486223 24:-0.758989496 25:-0.672113795 26:0.627347196 27:-0.626135038 
-1.0 0.6488883745397093 0.6890543634662512 0.7293568582358942 0.7476433468432364 1:-1.108714959 2:-0.643894614 3:-1.075162221 4:-0.918167551 5:-1.080112808 6:-1.130562568 7:-1.196016421 8:-1.147386659 9:0.483017973 10:-1.302885979 11:0.981297979 12:-1.409470331 13:-1.409470331 14:0.669911058 15:0.205842773 16:-0.980465922 17:-1.409470331 18:-1.104155959 19:-1.138040041 20:-1.134532227 21:-1.179638154 22:-1.071158764 23:-1.042109131 24:-0.953325356 25:-1.224390523 26:-0.008477665 27:-0.626135038 
-0.0 0.0 0.0494914243732775 0.0497678249774489 0.04950450191553092 1:-0.968058841 2:-1.107684252 3:-1.032997274 4:-1.061060651 5:-1.0238914 6:-0.892600219 7:-1.02316654 8:-1.083848865 9:-0.830511824 10:-1.359711775 11:0.552922674 12:-1.104664057 13:-1.104664057 14:0.2509316 15:-0.131817571 16:-0.657662241 17:-1.104664057 18:-0.749427403 19:-0.854021147 20:-0.967945369 21:-0.90995916 22:-0.955545298 23:-0.958203404 24:-1.018103976 25:-0.805256899 26:-0.856244145 27:-0.626135038 
-0.043584463553290806 0.6596688095806877 0.0 0.0 0.0 1:-0.794307165 2:-0.643894614 3:-0.880149342 4:-0.965798584 5:-0.86401177 6:-0.706368816 7:-0.787462156 8:-0.808518425 9:0.036822005 10:-0.761313055 11:0.448282648 12:-0.687098639 13:-0.687098639 14:0.303654722 15:0.120033613 16:-0.572036438 17:-0.687098639 18:-1.050231154 19:-0.626806031 20:-0.771069991 21:-0.826981008 22:-0.839931832 23:-0.916250541 24:-0.823768116 25:-0.89822731 26:-0.644302525 27:-0.049052054 
-0.7331724241118465 0.6134227730028199 0.7747032114389809 0.8187938335054327 0.8391877451905686 1:-1.042523845 2:-0.489298068 3:-1.017185419 4:-0.870536518 5:-1.020377562 6:-0.99606211 7:-1.117448294 8:-0.956773277 9:2.010754168 10:-0.705889484 11:0.706805065 12:-1.27504677 13:-1.27504677 14:0.36647696 15:-0.091106364 16:-0.778545728 17:-1.27504677 18:-0.918368106 19:-0.967628704 20:-0.998233889 21:-1.11740454 22:-1.157868864 23:-1.042109131 24:-1.147661216 25:-0.877023168 26:-0.856244145 27:-0.626135038 
-0.2042637726034114 0.4428789184913444 0.44372688387346515 0.48580967885758697 0.5019960604872927 1:-0.802581054 2:0.129088116 3:-0.827443159 4:-1.013429618 5:-0.820088795 6:-0.840869274 7:-0.708894029 8:-0.723801367 9:0.846764686 10:-0.486029312 11:1.093590535 12:-0.392951596 13:-0.392951596 14:1.174119897 15:1.206394511 16:-1.058405311 17:-0.392951596 18:-0.928044048 19:-0.854021147 20:-0.80135851 21:-0.90995916 22:-0.811028465 23:-0.958203404 24:-0.953325356 25:-0.94329575 26:-0.008477665 27:-0.049052054 
-0.6252131423156587 0.7916370904268913 0.9263177699931691 0.9809526238187417 1.0 1:-0.85222439 2:-0.643894614 3:-0.964479236 4:-1.108691684 5:-0.943073126 6:-0.830523085 7:-0.976025663 8:-0.914414748 9:-0.324713699 10:-0.990543398 11:-0.379423579 12:-1.219355134 13:-1.219355134 14:-1.053168875 15:-1.712982675 16:0.222711433 17:-1.219355134 18:-0.748563016 19:-0.740413589 20:-0.89222407 21:-0.951448236 22:-0.984448664 23:-1.251873449 24:-0.823768116 25:-0.592977359 26:-0.220419285 27:-0.626135038 
-0.6603517154721885 0.781253679543625 0.847089270595461 0.8967263067150096 0.919710246989208 1:-0.901867726 2:-0.953087706 3:-0.953937999 4:-1.013429618 5:-0.960642316 6:-0.851215463 7:-0.928884787 8:-1.10502813 9:-1.722929835 10:-1.537697842 11:0.542994778 12:-0.921234893 13:-0.921234893 14:0.324670635 15:0.046819693 16:-0.649660498 17:-0.921234893 18:-0.794208352 19:-0.768815478 20:-0.725637211 21:-0.847725546 22:-0.984448664 23:-1.000156268 24:-0.888546736 25:-0.706731681 26:-0.856244145 27:-0.626135038 
-1.0 0.953626393428561 1.0 1.0 1.0 1:-1.067345513 2:-1.262280798 3:-1.090974076 4:-1.013429618 5:-1.069571294 6:-0.985715921 7:-1.086021042 8:-1.210924452 9:-1.257769868 10:-1.663989576 11:1.564149817 12:-1.043539948 13:-1.043539948 14:1.593489971 15:1.556553912 16:-1.359004271 17:-1.043539948 18:-0.770839165 19:-0.981829649 20:-0.952801109 21:-0.972192774 22:-1.013352031 23:-1.084061995 24:-0.823768116 25:-1.053385182 26:-0.644302525 27:-0.626135038 
-1.0 0.12861586062319202 0.15803452567486853 0.1637970356663128 0.1663565448746141 1:-1.083893292 2:-1.262280798 3:-1.054079747 4:-0.965798584 5:-1.073085132 6:-1.058139245 7:-1.148875545 8:-1.126207394 9:0.32842562 10:-1.277688384 11:1.099205163 12:-1.274921447 13:-1.274921447 14:0.896545564 15:0.574078235 16:-1.062235257 17:-1.274921447 18:-1.133304628 19:-1.038633428 20:-1.028522408 21:-1.01368185 22:-1.157868864 23:-1.167967722 24:-1.082882596 25:-1.112332166 26:-0.644302525 27:-0.049052054 
-0.05325201925306535 -0.09134596177100095 1.0 0.13213191297558366 0.10321390462255398 1:-0.256504359 2:-0.334701522 3:-0.342546271 4:-0.537119285 5:-0.293013095 6:-0.178713173 7:-0.111776257 8:-0.215499017 9:-0.10417315 10:-0.025263203 11:0.119853658 12:0.207750516 13:0.207750516 14:0.209665778 15:0.278330393 16:-0.283479687 17:0.207750516 18:-0.635677315 19:-0.129772966 20:-0.104722557 21:-0.163155791 22:-0.117347668 23:0.048665322 24:-0.305539157 25:-0.263716123 26:-0.220419285 27:-0.049052054 
-0.3208185694019895 -0.473345511348288 0.6844248178806486 0.5773997543790705 0.5917354855645616 1:-0.628829379 2:-0.489298068 3:-0.66405399 4:-0.775274451 5:-0.640883057 6:-0.561522169 7:-0.551757773 8:-0.490829457 9:0.877395988 10:-0.144390448 11:0.45411398 12:-0.301927203 13:-0.301927203 14:0.445765339 15:0.404925964 16:-0.576884074 17:-0.301927203 18:-0.54706145 19:-0.570002252 20:-0.589338872 21:-0.661024704 22:-0.608704899 23:-0.454769041 24:-0.111203297 25:-0.407796734 26:0.415405575 27:-0.049052054 
-0.2788779290071487 -1.0 0.4231522927122381 0.4869670320598912 0.5004368273846482 1:-0.719842161 2:-0.953087706 3:-0.780007593 4:-0.918167551 5:-0.742784359 6:-0.747753572 7:-0.646039526 8:-0.59672578 9:0.985334862 10:-0.271269269 11:0.673830267 12:-0.392492346 13:-0.392492346 14:0.677762957 15:0.638955987 16:-0.7531292 17:-0.392492346 18:-0.696433132 19:-0.754614534 20:-0.710492951 21:-0.70251378 22:-0.637608266 23:-0.748439086 24:-0.823768116 25:-0.983698414 26:0.203463955 27:-0.626135038 
-0.15420660800671218 -1.0 0.05281865539396997 0.05661031369866563 0.059483807741599996 1:-0.910141616 2:-0.953087706 3:-0.869608105 4:-0.584750318 5:-0.844685661 6:-0.861561652 7:-0.866030284 8:-0.850876955 9:0.995841208 10:-0.665412793 11:1.191156198 12:-0.657175676 13:-0.657175676 14:1.224983808 15:1.203942785 16:-1.124077611 17:-0.657175676 18:-0.966195547 19:-0.868222091 20:-0.80135851 21:-0.889214622 22:-0.839931832 23:-1.000156268 24:-0.888546736 25:-0.872083329 26:-0.644302525 27:-0.626135038 
-0.3561344835063862 -0.2572387072700313 0.8846827100046593 0.6576449416568344 0.6754864569825832 1:-0.537816596 2:0.129088116 3:-0.416334928 4:-0.108439986 5:-0.465191157 6:-0.540829791 7:-0.426048768 8:-0.406112398 9:0.664891329 10:-0.076878051 11:0.43678502 12:-0.118922065 13:-0.118922065 14:0.480279146 15:0.490812879 16:-0.562451619 17:-0.118922065 18:-0.796924176 19:-0.555801308 20:-0.619627392 21:-0.4950684 22:-0.550898166 23:-0.412816178 24:-0.629432256 25:-0.772324838 26:0.203463955 27:-0.626135038 
-0.0 -1.0 0.0 0.0 0.0 1:-0.752937718 2:-0.953087706 3:-0.753654502 4:-0.822905485 5:-0.726972088 6:-0.66498406 7:-0.677466777 8:-0.723801367 9:0.32842562 10:-0.58063154 11:0.78759332 12:-0.415310693 13:-0.415310693 14:0.806082927 15:0.77828055 16:-0.839733665 17:-0.415310693 18:-0.762466727 19:-0.669408865 20:-0.589338872 21:-0.70251378 22:-0.637608266 23:-0.580627632 24:-0.564653637 25:-0.761970081 26:-0.856244145 27:-0.049052054 
-0.032517184917057136 -0.2770337299552129 1.0 0.04553799245635948 0.04445647526971261 1:-0.463351592 2:0.129088116 3:-0.511206058 4:-0.489488252 5:-0.472218833 6:-0.395983143 7:-0.34748064 8:-0.384933134 9:0.2552809 10:-0.139779102 11:0.313401386 12:-0.04364978 13:-0.04364978 14:0.359577181 15:0.378570627 16:-0.457309055 17:-0.04364978 18:-0.637811395 19:-0.456394695 20:-0.362174975 21:-0.39134571 22:-0.406381334 23:-0.496721905 24:-0.499875017 25:-0.35208263 26:-0.220419285 27:-0.626135038 
-0.14162639242892308 -0.7413005276845087 0.20114600983588243 0.30956924485200854 0.3188716379820869 1:-0.661924936 2:-0.643894614 3:-0.743113265 4:-0.727643418 5:-0.728729007 6:-0.644291681 7:-0.646039526 8:-0.723801367 9:-0.444336285 10:-0.72910294 11:0.179208295 12:-0.523482685 13:-0.523482685 14:0.038893867 15:-0.115145006 16:-0.337992577 17:-0.523482685 18:-0.444593598 19:-0.626806031 20:-0.755925731 21:-0.59879109 22:-0.637608266 23:-0.832344813 24:-0.888546736 25:-0.523263769 26:-0.644302525 27:0.528030931 
-0.2172400302299892 -0.6370145898403797 0.2476472673323336 0.32178206837431433 0.32039434644475123 1:-0.686746604 2:-0.643894614 3:-0.716760173 4:-0.775274451 5:-0.760353549 6:-0.582214547 7:-0.661753152 8:-0.723801367 9:-0.252742424 10:-0.691385967 11:0.287125816 12:-0.51944724 13:-0.51944724 14:0.171345184 15:0.032769418 16:-0.434363579 17:-0.51944724 18:-0.581004759 19:-0.541600363 20:-0.649915912 21:-0.619535628 22:-0.666511632 23:-0.832344813 24:-0.175981917 25:-0.061427924 26:-0.432360905 27:-0.626135038 
-0.9827137320953556 -1.0 0.841893158183666 0.8796150092930051 0.9019773578476781 1:-0.885319948 2:-0.643894614 3:-0.869608105 4:-0.775274451 5:-0.842928742 6:-0.861561652 7:-0.803175782 8:-0.808518425 9:1.085473466 10:-0.579807617 11:1.384849352 12:-0.494694017 13:-0.494694017 14:1.496877661 15:1.564622424 16:-1.249136593 17:-0.494694017 18:-0.889969692 19:-0.910824925 20:-0.89222407 21:-0.889214622 22:-0.753221732 23:-0.874297677 24:-0.823768116 25:-0.888376555 26:-0.432360905 27:-0.626135038 
-0.5539254215752079 -0.7077878298555118 1.0 1.0 1.0 1:0.099272882 2:0.438281208 3:0.063291342 4:0.129715181 5:0.081210653 6:0.110980122 7:0.045359999 8:0.059831422 9:-0.548591558 10:0.145142445 11:-0.806792226 12:0.062031109 13:0.062031109 14:-0.911486783 15:-0.909380035 16:0.737118781 17:0.062031109 18:-0.385026849 19:0.083241204 20:0.016431522 21:-0.100922177 22:0.084975898 23:0.25842964 24:0.083132562 25:0.099943766 26:-0.220419285 27:-0.049052054 
-0.27791848615057824 -1.0 0.5539670729079847 0.6073906438060238 0.6220099016692431 1:-0.777759386 2:-0.79849116 3:-0.685136463 4:-0.298964119 5:-0.72345825 6:-0.685676438 7:-0.708894029 8:-0.744980632 9:0.402710257 10:-0.598550179 11:0.826713422 12:-0.458633108 13:-0.458633108 14:0.840188793 15:0.805782103 16:-0.868823013 17:-0.458633108 18:-0.082243056 19:-0.697810755 20:-0.695348691 21:-0.70251378 22:-0.724318366 23:-0.538674768 24:-0.888546736 25:-0.518357339 26:-0.856244145 27:-0.626135038 
-0.09544295197682393 -0.0794028845637067 0.3105770219423669 0.19261109505282276 0.3737604090745546 1:-0.479899371 2:-0.334701522 3:-0.590265333 4:-0.822905485 5:-0.570606297 6:-0.354598387 7:-0.473189645 8:-0.533187986 9:-0.466586278 10:-0.48380106 11:-0.167464804 12:-0.36546983 13:-0.36546983 14:-0.317047328 15:-0.44293539 16:-0.00323015 17:-0.36546983 18:-0.191590806 19:-0.257581469 20:-0.271309415 21:-0.4950684 22:-0.377477967 23:-0.748439086 24:-0.564653637 25:-0.282376208 26:-0.220419285 27:-0.626135038 
-0.0 -0.9015116593195271 0.0 0.0 0.0 1:-0.645377157 2:-0.489298068 3:-0.716760173 4:-0.727643418 5:-0.707645979 6:-0.582214547 7:-0.646039526 8:-0.617905044 9:0.15838381 10:-0.462792309 11:0.051563915 12:-0.558164275 13:-0.558164275 14:-0.130729557 15:-0.314609008 16:-0.219382113 17:-0.558164275 18:-0.514001041 19:-0.527399418 20:-0.483329053 21:-0.619535628 22:-0.464188067 23:-0.580627632 24:-0.499875017 25:-0.547769633 26:-0.432360905 27:-0.626135038 
-0.0 -0.0 0.1430250955326856 0.0 0.0 1:-0.455077703 2:-0.489298068 3:-0.574453478 4:-0.584750318 5:-0.54776635 6:-0.364944576 7:-0.410335143 8:-0.427291663 9:-0.031244621 10:-0.255984899 11:-0.025462866 12:-0.234430089 13:-0.234430089 14:-0.097659016 15:-0.16482711 16:-0.145250574 17:-0.234430089 18:-0.556187248 19:-0.342787137 20:-0.392463494 21:-0.536557476 22:-0.608704899 23:-0.32891045 24:-0.435096397 25:-0.778621583 26:-0.432360905 27:-0.626135038 
-0.3803005492112826 -0.4924150406202454 0.7559022148124056 0.7060925698943422 0.7278750214840288 1:-0.562638264 2:-0.489298068 3:-0.463770493 4:-0.394226185 5:-0.481003428 6:-0.675330249 7:-0.473189645 8:-0.427291663 9:0.730224477 10:-0.090379744 11:0.375136222 12:-0.205857788 13:-0.205857788 14:0.382864196 15:0.36213361 16:-0.510445949 17:-0.205857788 18:-0.740053557 19:-0.7120117 20:-0.695348691 21:-0.661024704 22:-0.782125099 23:-0.832344813 24:-0.694210876 25:-0.956862708 26:0.627347196 27:0.528030931 
-0.07976097267727729 -0.0 0.6683206775891715 0.16927701436300585 0.16385517116830936 1:-0.496447149 2:-0.79849116 3:-0.447958638 4:-0.156071019 5:-0.479246509 6:-0.478752656 7:-0.457476019 8:-0.427291663 9:0.240520164 10:-0.195742598 11:0.008095829 12:-0.290594951 13:-0.290594951 14:-0.078226074 15:-0.162041543 16:-0.177791431 17:-0.290594951 18:-0.682779104 19:-0.555801308 20:-0.407607754 21:-0.4950684 22:-0.5219948 23:-0.748439086 24:-0.499875017 25:-0.531011875 26:-0.644302525 27:-0.626135038 
-0.4686465842921633 -1.0 0.7356969709359664 0.7691598320074732 0.7879281495603314 1:-0.752937718 2:-0.643894614 3:-0.769466357 4:-0.680012385 5:-0.797248848 6:-0.65463787 7:-0.677466777 8:-0.872056219 9:-0.849204364 10:-1.019034343 11:0.78759332 12:-0.415310693 13:-0.415310693 14:0.806082927 15:0.77828055 16:-0.839733665 17:-0.415310693 18:-0.577728359 19:-0.598404142 20:-0.574194613 21:-0.59879109 22:-0.4352847 23:-0.664533359 24:-0.758989496 25:-0.850661867 26:-0.856244145 27:-0.049052054 
-0.44906663555497495 -1.0 0.660641388460946 0.6801411925447892 0.6954209706404255 1:-0.86049828 2:-0.489298068 3:-0.901231815 4:-1.013429618 5:-0.91847626 6:-0.902946408 7:-0.897457535 8:-0.82969769 9:0.564453804 10:-0.702153536 11:0.320950711 12:-0.913091579 13:-0.913091579 14:0.045823497 15:-0.272586637 16:-0.463864906 17:-0.913091579 18:-0.83593286 19:-0.839820202 20:-0.87707981 21:-0.868470084 22:-0.839931832 23:-0.664533359 24:-0.888546736 25:-1.038204983 26:-0.644302525 27:-0.626135038 
-0.0 -0.0 0.11461641654957025 0.0 0.0 1:-0.637103268 2:-0.489298068 3:-0.611347806 4:-0.298964119 5:-0.607501596 6:-0.633945492 7:-0.567471398 8:-0.512008721 9:0.808068227 10:-0.187227779 11:0.431781217 12:-0.332292582 13:-0.332292582 14:0.409771196 15:0.356534825 16:-0.558269152 17:-0.332292582 18:-0.800460511 19:-0.68360981 20:-0.634771652 21:-0.640280166 22:-0.5219948 23:-0.622580496 24:-0.370317777 25:-0.848509261 26:-0.644302525 27:-0.626135038 
-0.0 -1.0 0.0 0.0 0.0 1:-0.579186043 2:-0.643894614 3:-0.63243028 4:-0.775274451 5:-0.667236842 6:-0.509791223 7:-0.583185024 8:-0.639084309 9:-0.467765515 10:-0.619492228 11:-0.07936636 12:-0.499045793 13:-0.499045793 14:-0.265537492 15:-0.437995792 16:-0.092176689 17:-0.499045793 18:-0.574308571 19:-0.513198474 20:-0.513617573 21:-0.744002856 22:-0.897738565 23:-0.538674768 24:-0.823768116 25:-0.549778167 26:-0.432360905 27:-0.626135038 
-0.5263094409495798 -1.0 0.7659060808853323 0.801745959127462 0.8211734537156878 1:-0.885319948 2:-0.643894614 3:-0.753654502 4:-0.251333086 5:-0.763867387 6:-0.892600219 7:-0.834603033 8:-0.787339161 9:1.295764535 10:-0.509786298 11:1.125172816 12:-0.61239371 13:-0.61239371 14:1.156508943 15:1.133940128 16:-1.079867458 17:-0.61239371 18:-0.808506562 19:-0.95342776 20:-0.937656849 21:-0.951448236 22:-1.071158764 23:-0.874297677 24:-0.694210876 25:-1.051317419 26:-0.856244145 27:-0.049052054 
-0.46719306700920776 -1.0 1.0 0.8587279912563576 0.9824754051684139 1:-0.471625481 2:-0.643894614 3:-0.563912241 4:-0.727643418 5:-0.586418568 6:-0.478752656 7:-0.520330522 8:-0.617905044 9:-0.987922682 10:-0.704546962 11:-0.43516426 12:-0.51254839 13:-0.51254839 14:-0.707137077 15:-0.914704695 16:0.285118557 17:-0.51254839 18:-0.682772996 19:-0.356988082 20:-0.392463494 21:-0.412090248 22:-0.637608266 23:-0.454769041 24:-0.694210876 25:-0.605279606 26:-0.856244145 27:-0.626135038 
-0.1558936217798329 -0.5057973424921457 0.36888649836756354 0.2748173562236042 0.2668325701560774 1:-0.6122816 2:-0.643894614 3:-0.674595226 4:-0.870536518 5:-0.72345825 6:-0.499445034 7:-0.567471398 8:-0.681442838 9:-0.514473013 10:-0.685464376 11:0.240398642 12:-0.385269481 13:-0.385269481 14:0.164359858 15:0.070248918 16:-0.393061721 17:-0.385269481 18:-0.47027869 19:-0.484796584 20:-0.422752014 21:-0.536557476 22:-0.579801533 23:-0.32891045 24:-0.564653637 25:0.035996117 26:-0.220419285 27:-0.049052054 
-0.4597185107104244 -0.7718166735707058 0.7198367991976841 0.7440486690540628 0.7689503484758669 1:-0.72811605 2:-0.643894614 3:-0.785278212 4:-0.680012385 5:-0.75859663 6:-0.675330249 7:-0.708894029 8:-0.914414748 9:-1.362010535 10:-1.177417988 11:0.35083616 12:-0.579145967 13:-0.579145967 14:0.226057994 15:0.072487741 16:-0.489658416 17:-0.579145967 18:-0.823884146 19:-0.655207921 20:-0.710492951 21:-0.640280166 22:-0.666511632 23:-0.664533359 24:-0.694210876 25:-0.638430502 26:-0.644302525 27:-0.049052054 
