svm_type c_svc
kernel_type rbf
gamma 1.0
nr_class 6
total_sv 121
rho 0.7833333333333333 0.5517241379310345 0.0 -0.6923076923076923 -0.8461538461538461 -0.5166666666666667 -0.7833333333333333 -0.9333333333333333 -0.9666666666666667 -0.5517241379310345 -0.8620689655172413 -0.9310344827586207 -0.6923076923076923 -0.8461538461538461 -0.5
label 1 2 3 4 5 6
nr_sv 13 60 29 13 4 2
SV
1.0 1.0 1.0 0.3076171875 0.1533203125 1:34.0 2:1.0 3:53.0 4:5.0 5:154.0 6:27.0 7:28.0 8:17.0 9:40.448524 10:9.47 11:13.6 12:9.962354 13:15.903189 14:14.41 15:58.82352941176471 16:0.7941176 17:0.5 18:2.9154758 19:0.8235294 20:4.8019605 21:3.3954988 22:0.015613398 23:0.9449415 24:0.9550633 25:64.047554 26:1.2142857 27:4.8019605 28:2.9497993 29:2.9497993 30:20.0 31:20.0 32:16.0 33:14.0 34:8.0 35:4.0 36:2.2881854 37:2.2881854 38:34.0 39:1.0 40:0.0 41:0.0 
1.0 1.0 1.0 0.30859375 0.154296875 1:33.0 2:1.0 3:51.0 4:3.0 5:155.0 6:26.0 7:28.0 8:17.0 9:42.594547 10:9.08 11:13.2 12:10.921211 13:13.023867 14:13.91 15:72.72727272727273 16:0.7878788 17:0.5151515 18:2.95932 19:0.8484849 20:4.8741746 21:3.4465618 22:0.013439301 23:0.95300937 24:0.9615499 25:74.40863 26:1.1785715 27:4.8741746 28:0.7756864 29:0.7756864 30:19.0 31:19.0 32:9.0 33:5.0 34:5.0 35:3.0 36:1.1187941 37:1.1187941 38:33.0 39:1.0 40:6.0 41:1.0 
1.0 1.0 1.0 0.3076171875 0.154296875 1:34.0 2:6.0 3:41.0 4:2.0 5:132.0 6:30.0 7:32.0 8:16.0 9:99.06569 10:-1.84 11:2.0 12:1.8047057 13:6.427356 14:-4.8 15:55.88235294117647 16:0.88235295 17:0.47058824 18:2.7439773 19:0.9411765 20:5.4879546 21:3.88057 22:0.0048752357 23:0.9828082 24:0.98623997 25:205.11829 26:1.0625 27:5.4879546 28:0.9738813 29:0.9738813 30:22.0 31:20.0 32:14.0 33:7.0 34:5.0 35:2.0 36:0.955397 37:0.955397 38:5.6666665 39:6.0 40:1.0 41:0.0 
1.0 1.0 1.0 0.3076171875 0.154296875 1:37.0 2:2.0 3:56.0 4:7.0 5:166.0 6:33.0 7:30.0 8:16.0 9:60.01425 10:3.23 11:7.2000003 12:8.98054 13:13.816669 14:6.41 15:51.35135135135135 16:0.8918919 17:0.43243244 18:2.6303837 19:0.8108108 20:4.9319696 21:3.4874291 22:0.01608443 23:0.94192046 24:0.9533986 25:62.17192 26:1.2333333 27:4.9319696 28:1.7493284 29:1.7493284 30:26.0 31:19.0 32:14.0 33:14.0 34:7.0 35:4.0 36:1.6618412 37:1.6618412 38:18.5 39:2.0 40:0.0 41:1.0 
1.0 1.0 1.0 0.3076171875 0.154296875 1:65.0 2:5.0 3:101.0 4:12.0 5:328.0 6:48.0 7:56.0 8:38.0 9:62.18462 10:1.28 11:5.2000003 12:11.594463 13:11.979248 14:8.62 15:60.0 16:0.73846155 17:0.5846154 18:4.71332 19:0.86153847 20:6.9459453 21:4.911525 22:0.0085527245 23:0.9642976 24:0.97455835 25:116.92181 26:1.1607143 27:6.9459453 28:2.0138304 29:2.0138304 30:32.0 31:34.0 32:17.0 33:20.0 34:13.0 35:3.0 36:2.396728 37:2.396728 38:13.0 39:5.0 40:2.0 41:0.0 
1.0 1.0 1.0 0.3076171875 0.154296875 1:46.0 2:3.0 3:54.0 4:3.0 5:178.0 6:36.0 7:37.0 8:25.0 9:91.958626 10:2.06 11:6.0 12:5.0226083 13:8.841846 14:0.2 15:41.30434782608695 16:0.7826087 17:0.54347825 18:3.686049 19:0.8043478 20:5.4553523 21:3.8575168 22:0.014853058 23:0.94313294 24:0.9563891 25:67.3262 26:1.2432432 27:5.4553523 28:0.72533196 29:0.72533196 30:30.0 31:24.0 32:13.0 33:12.0 34:3.0 35:5.0 36:0.80029076 37:0.80029076 38:15.333333 39:3.0 40:2.0 41:2.0 
1.0 1.0 1.0 0.3076171875 0.1533203125 1:28.0 2:2.0 3:50.0 4:6.0 5:152.0 6:22.0 7:19.0 8:12.0 9:41.553574 10:1.67 11:5.6 12:14.0057125 13:13.023867 14:9.12 15:67.85714285714286 16:0.78571427 17:0.42857143 18:2.2677867 19:0.6785714 20:3.5906625 21:2.538982 22:0.034922548 23:0.88363093 24:0.8972148 25:28.634796 26:1.4736842 27:3.5906625 28:1.001189 29:1.001189 30:14.0 31:17.0 32:11.0 33:2.0 34:4.0 35:4.0 36:0.9233146 37:0.9233146 38:14.0 39:1.0 40:0.0 41:0.0 
1.0 1.0 1.0 0.3076171875 0.1533203125 1:30.0 2:2.0 3:41.0 4:2.0 5:128.0 6:23.0 7:29.0 8:14.0 9:75.99 10:2.06 11:6.0 12:7.3146677 13:8.841846 14:4.91 15:60.0 16:0.76666665 17:0.46666667 18:2.5560386 19:0.96666664 20:5.2946515 21:3.7438838 22:0.0029305958 23:0.9900325 24:0.9918166 25:341.22757 26:1.0344827 27:5.2946515 28:1.2695162 29:1.2695162 30:15.0 31:19.0 32:9.0 33:8.0 34:7.0 35:2.0 36:0.60654926 37:0.60654926 38:15.0 39:2.0 40:1.0 41:0.0 
1.0 1.0 1.0 0.3076171875 0.154296875 1:33.0 2:2.0 3:38.0 4:0.0 5:120.0 6:23.0 7:27.0 8:15.0 9:92.66932 10:2.45 11:6.4 12:3.78788 13:3.1291 14:0.7 15:42.42424242424242 16:0.6969697 17:0.45454547 18:2.6111648 19:0.8181818 20:4.7000966 21:3.3234704 22:0.016414022 23:0.94260824 24:0.95278305 25:60.92352 26:1.2222222 27:4.7000966 28:1.2801176 29:1.2801176 30:17.0 31:18.0 32:12.0 33:7.0 34:6.0 35:7.0 36:0.4496147 37:0.4496147 38:16.5 39:2.0 40:5.0 41:0.0 
1.0 1.0 1.0 0.3076171875 0.154296875 1:41.0 2:3.0 3:57.0 4:4.0 5:166.0 6:32.0 7:33.0 8:16.0 9:75.3487 10:1.28 11:5.2000003 12:5.8409758 13:9.725611 14:3.91 15:56.09756097560976 16:0.7804878 17:0.3902439 18:2.4987803 19:0.80487806 20:5.153734 21:3.6442404 22:0.015740013 23:0.94154835 24:0.9540931 25:63.53235 26:1.2424242 27:5.153734 28:1.0665925 29:1.0665925 30:23.0 31:24.0 32:16.0 33:10.0 34:7.0 35:6.0 36:2.1491032 37:2.1491032 38:13.666667 39:3.0 40:1.0 41:0.0 
1.0 1.0 1.0 0.3076171875 0.1533203125 1:29.0 2:2.0 3:49.0 4:7.0 5:144.0 6:17.0 7:27.0 8:19.0 9:49.172672 10:1.67 11:5.6 12:11.355861 13:13.816669 14:4.41 15:48.275862068965516 16:0.5862069 17:0.6551724 18:3.5282114 19:0.9310345 20:5.013774 21:3.5452738 22:0.0063022287 23:0.97877854 24:0.9823328 25:158.67403 26:1.074074 27:5.013774 28:0.68699723 29:0.68699723 30:14.0 31:13.0 32:7.0 33:9.0 34:2.0 35:2.0 36:1.3456101 37:1.3456101 38:14.5 39:2.0 40:0.0 41:0.0 
1.0 1.0 1.0 0.3076171875 0.1533203125 1:29.0 2:1.0 3:43.0 4:4.0 5:129.0 6:24.0 7:26.0 8:17.0 9:51.95862 10:7.52 11:11.6 12:9.335174 13:14.554592 14:11.91 15:51.724137931034484 16:0.82758623 17:0.5862069 18:3.1568208 19:0.8965517 20:4.8280787 21:3.4139674 22:0.009630688 23:0.9675706 24:0.97284687 25:103.83475 26:1.1153846 27:4.8280787 28:1.1273998 29:1.1273998 30:20.0 31:17.0 32:9.0 33:7.0 34:5.0 35:1.0 36:0.69369376 37:0.69369376 38:29.0 39:1.0 40:0.0 41:0.0 
1.0 1.0 1.0 0.3076171875 0.1533203125 1:45.0 2:4.0 3:59.0 4:4.0 5:175.0 6:43.0 7:39.0 8:19.0 9:84.496254 10:0.5 11:4.4 12:4.4355555 13:8.648137 14:-1.8 15:51.11111111111111 16:0.95555556 17:0.42222223 18:2.8323529 19:0.8666667 20:5.813777 21:4.110961 22:0.009875372 23:0.96240777 24:0.97133577 25:101.26201 26:1.1538461 27:5.813777 28:1.6521807 29:1.6521807 30:36.0 31:28.0 32:19.0 33:18.0 34:7.0 35:8.0 36:1.338059 37:1.338059 38:11.25 39:4.0 40:1.0 41:0.0 
-0.216796875 0.482421875 0.2158203125 0.06640625 0.033203125 1:28.0 2:1.0 3:52.0 4:8.0 5:148.0 6:20.0 7:26.0 8:21.0 9:21.300718 10:7.13 11:11.2 12:14.2228565 13:19.287186 14:16.12 15:46.42857142857143 16:0.71428573 17:0.75 18:3.968627 19:0.9285714 20:4.913538 21:3.4743962 22:0.006674237 23:0.9777601 24:0.9813141 25:149.82986 26:1.0769231 27:4.913538 28:0.27717096 29:0.27717096 30:14.0 31:10.0 32:6.0 33:8.0 34:7.0 35:6.0 36:0.722106 37:0.722106 38:28.0 39:1.0 40:0.0 41:0.0 
-0.216796875 0.482421875 0.2158203125 0.06640625 0.033203125 1:66.0 2:4.0 3:97.0 4:9.0 5:289.0 6:56.0 7:48.0 8:31.0 9:65.75114 10:2.45 11:6.4 12:8.153333 13:11.407656 14:5.41 15:51.515151515151516 16:0.8484849 17:0.46969697 18:3.8158362 19:0.72727275 20:5.9083915 21:4.1778636 22:0.018142197 23:0.9239905 24:0.94481885 25:55.120117 26:1.375 27:5.9083915 28:2.0217538 29:2.0217538 30:39.0 31:39.0 32:28.0 33:18.0 34:12.0 35:11.0 36:3.3007426 37:3.3007426 38:16.5 39:4.0 40:0.0 41:0.0 
-0.216796875 0.4833984375 0.2158203125 0.06640625 0.033203125 1:39.0 2:6.0 3:51.0 4:2.0 5:147.0 6:32.0 7:33.0 8:23.0 9:89.606735 10:-1.45 11:2.4 12:1.8092318 13:6.427356 14:-4.3 15:56.41025641025641 16:0.82051283 17:0.5897436 18:3.6829476 19:0.84615386 20:5.2842293 21:3.7365143 22:0.012446581 23:0.9544012 24:0.96405584 25:80.343346 26:1.1818181 27:5.2842293 28:0.77477527 29:0.77477527 30:21.0 31:21.0 32:16.0 33:13.0 34:10.0 35:4.0 36:0.6819984 37:0.6819984 38:6.5 39:6.0 40:3.0 41:0.0 
-0.216796875 0.4833984375 0.2158203125 0.06640625 0.033203125 1:52.0 2:3.0 3:76.0 4:9.0 5:242.0 6:41.0 7:40.0 8:26.0 9:65.59551 10:2.84 11:6.8 12:9.856923 13:13.023867 14:5.91 15:48.07692307692308 16:0.78846157 17:0.5 18:3.6055512 19:0.7692308 20:5.547002 21:3.9223228 22:0.016804943 23:0.9335996 24:0.9499955 25:59.5063 26:1.3 27:5.547002 28:1.0022767 29:1.0022767 30:29.0 31:31.0 32:23.0 33:11.0 34:9.0 35:6.0 36:1.2037619 37:1.2037619 38:17.333334 39:3.0 40:0.0 41:0.0 
-0.216796875 0.4833984375 0.216796875 0.06640625 0.033203125 1:38.0 2:1.0 3:51.0 4:3.0 5:155.0 6:33.0 7:35.0 8:20.0 9:54.722893 10:11.03 11:15.2 12:7.4052634 13:13.023867 14:16.41 15:60.526315789473685 16:0.8684211 17:0.5263158 18:3.2444284 19:0.92105263 20:5.6777496 21:4.0147753 22:0.0062150764 23:0.97739214 24:0.9822915 25:160.89906 26:1.0857143 27:5.6777496 28:1.3606544 29:1.3606544 30:20.0 31:25.0 32:20.0 33:14.0 34:9.0 35:4.0 36:1.7932017 37:1.7932017 38:38.0 39:1.0 40:1.0 41:0.0 
-0.216796875 0.4833984375 0.216796875 0.06640625 0.033203125 1:62.0 2:4.0 3:80.0 4:6.0 5:257.0 6:44.0 7:49.0 8:34.0 9:81.941216 10:2.06 11:6.0 12:6.6638703 13:9.888513 14:4.91 15:54.83870967741935 16:0.7096774 17:0.5483871 18:4.318004 19:0.7903226 20:6.2230062 21:4.40033 22:0.013814994 23:0.9429837 24:0.95858705 25:72.38512 26:1.2653061 27:6.2230062 28:2.3674288 29:2.3674288 30:33.0 31:30.0 32:22.0 33:15.0 34:15.0 35:6.0 36:1.1070946 37:1.1070946 38:15.5 39:4.0 40:2.0 41:0.0 
-0.216796875 0.4833984375 0.216796875 0.06640625 0.033203125 1:37.0 2:2.0 3:51.0 4:3.0 5:172.0 6:32.0 7:34.0 8:15.0 9:71.446686 10:3.23 11:7.2000003 12:9.934054 13:10.125756 14:6.41 15:54.054054054054056 16:0.8648649 17:0.4054054 18:2.4659848 19:0.9189189 20:5.5895658 21:3.9524198 22:0.006485095 23:0.9765829 24:0.98154485 25:154.19975 26:1.0882353 27:5.5895658 28:1.0641412 29:1.0641412 30:23.0 31:24.0 32:13.0 33:10.0 34:7.0 35:3.0 36:1.6936071 37:1.6936071 38:18.5 39:2.0 40:0.0 41:0.0 
-0.216796875 0.4833984375 0.216796875 0.06640625 0.033203125 1:66.0 2:3.0 3:86.0 4:3.0 5:257.0 6:55.0 7:48.0 8:31.0 9:74.26864 10:4.79 11:8.8 12:5.75091 13:8.841846 14:3.7 15:45.45454545454545 16:0.8333333 17:0.46969697 18:3.8158362 19:0.72727275 20:5.9083915 21:4.1778636 22:0.018142197 23:0.9239905 24:0.94481885 25:55.120117 26:1.375 27:5.9083915 28:3.4315705 29:3.4315705 30:45.0 31:42.0 32:26.0 33:18.0 34:18.0 35:10.0 36:4.0639753 37:4.0639753 38:22.0 39:3.0 40:3.0 41:1.0 
-0.216796875 0.4833984375 0.216796875 0.06640625 0.033203125 1:32.0 2:4.0 3:39.0 4:1.0 5:113.0 6:25.0 7:27.0 8:16.0 9:95.60875 10:-0.67 11:3.2 12:1.26375 13:5.8886185 14:-3.3 15:50.0 16:0.78125 17:0.5 18:2.828427 19:0.84375 20:4.7729707 21:3.375 22:0.014144903 23:0.9509775 24:0.9595592 25:70.69684 26:1.1851852 27:4.7729707 28:1.038836 29:1.038836 30:20.0 31:20.0 32:7.0 33:7.0 34:4.0 35:3.0 36:1.2660477 37:1.2660477 38:8.0 39:2.0 40:2.0 41:1.0 
-0.216796875 0.4833984375 0.216796875 0.06640625 0.033203125 1:51.0 2:2.0 3:64.0 4:4.0 5:206.0 6:40.0 7:37.0 8:20.0 9:74.78779 10:5.96 11:10.0 12:6.789804 13:11.208143 14:9.91 15:52.94117647058824 16:0.78431374 17:0.39215687 18:2.8005602 19:0.7254902 20:5.1810365 21:3.6635458 22:0.020758294 23:0.918382 24:0.937812 25:48.173515 26:1.3783784 27:5.1810365 28:0.8166892 29:0.8166892 30:29.0 31:25.0 32:19.0 33:9.0 34:5.0 35:6.0 36:2.2349956 37:2.2349956 38:25.5 39:2.0 40:2.0 41:0.0 
-0.216796875 0.4833984375 0.216796875 0.06640625 0.033203125 1:75.0 2:4.0 3:112.0 4:12.0 5:339.0 6:55.0 7:49.0 8:29.0 9:61.46775 10:3.23 11:7.2000003 12:9.198934 13:12.688353 14:6.41 15:44.0 16:0.73333335 17:0.38666666 18:3.3486316 19:0.6533333 20:5.6580324 21:4.000833 22:0.022835394 23:0.90140843 24:0.92903626 25:43.791668 26:1.5306122 27:5.6580324 28:1.9334972 29:1.9334972 30:43.0 31:35.0 32:25.0 33:20.0 34:12.0 35:7.0 36:2.0063584 37:2.0063584 38:18.75 39:4.0 40:3.0 41:1.0 
-0.216796875 0.4833984375 0.216796875 0.06640625 0.033203125 1:48.0 2:3.0 3:75.0 4:7.0 5:217.0 6:44.0 7:37.0 8:20.0 9:58.4075 10:2.45 11:6.4 12:8.932501 13:11.855464 14:5.41 15:52.083333333333336 16:0.9166667 17:0.41666666 18:2.8867514 19:0.7708333 20:5.34049 21:3.7762966 22:0.017368188 23:0.93276423 24:0.9485782 25:57.57653 26:1.2972972 27:5.34049 28:1.5311238 29:1.5311238 30:33.0 31:33.0 32:19.0 33:12.0 34:3.0 35:5.0 36:1.2918501 37:1.2918501 38:16.0 39:3.0 40:0.0 41:1.0 
-0.216796875 0.4833984375 0.216796875 0.06640625 0.033203125 1:76.0 2:3.0 3:132.0 4:16.0 5:391.0 6:67.0 7:55.0 8:34.0 9:34.18482 10:5.96 11:10.0 12:13.282632 13:16.322123 14:14.62 15:55.26315789473685 16:0.8815789 17:0.4473684 18:3.9000676 19:0.7236842 20:6.308933 21:4.461089 22:0.017243179 23:0.9253244 24:0.9470499 25:57.993946 26:1.3818182 27:6.308933 28:3.2329006 29:3.2329006 30:43.0 31:38.0 32:26.0 33:28.0 34:11.0 35:12.0 36:2.4018445 37:2.4018445 38:25.333334 39:3.0 40:0.0 41:0.0 
-0.216796875 0.4833984375 0.216796875 0.06640625 0.033203125 1:75.0 2:5.0 3:99.0 4:5.0 5:307.0 6:60.0 7:56.0 8:38.0 9:79.937996 10:2.06 11:6.0 12:6.2954655 13:8.841846 14:4.91 15:50.66666666666667 16:0.8 17:0.50666666 18:4.387862 19:0.74666667 20:6.466323 21:4.572381 22:0.015671963 23:0.9323365 24:0.9521004 25:63.808216 26:1.3392857 27:6.466323 28:2.727516 29:2.727516 30:46.0 31:43.0 32:34.0 33:21.0 34:19.0 35:7.0 36:3.778963 37:3.778963 38:15.0 39:5.0 40:2.0 41:0.0 
-0.216796875 0.4833984375 0.216796875 0.06640625 0.033203125 1:98.0 2:6.0 3:136.0 4:10.0 5:409.0 6:79.0 7:72.0 8:44.0 9:72.85258 10:2.45 11:6.4 12:6.927756 13:10.504224 14:5.41 15:56.12244897959183 16:0.8061224 17:0.4489796 18:4.444671 19:0.7346939 20:7.2730985 21:5.142857 22:0.014665704 23:0.9327582 24:0.9542881 25:68.186295 26:1.3611112 27:7.2730985 28:5.126909 29:5.126909 30:57.0 31:60.0 32:34.0 33:27.0 34:25.0 35:12.0 36:5.839295 37:5.839295 38:16.333334 39:3.0 40:4.0 41:0.0 
-0.216796875 0.4833984375 0.216796875 0.06640625 0.033203125 1:108.0 2:4.0 3:168.0 4:16.0 5:502.0 6:90.0 7:71.0 8:40.0 9:47.829998 10:6.74 11:10.8 12:10.434815 13:14.167174 14:10.91 15:50.92592592592593 16:0.8333333 17:0.37037036 18:3.849002 19:0.6574074 20:6.8319783 21:4.8309383 22:0.0191335 23:0.91041446 24:0.93920314 25:52.26435 26:1.5211267 27:6.8319783 28:5.2244134 29:5.2244134 30:64.0 31:51.0 32:42.0 33:25.0 34:17.0 35:13.0 36:4.046178 37:4.046178 38:27.0 39:2.0 40:1.0 41:0.0 
-0.216796875 0.4833984375 0.216796875 0.06640625 0.033203125 1:53.0 2:5.0 3:73.0 4:4.0 5:238.0 6:46.0 7:39.0 8:22.0 9:79.551476 10:0.11 11:4.0 12:7.8120775 13:8.238735 14:2.41 15:58.490566037735846 16:0.8679245 17:0.41509435 18:3.0219324 19:0.7358491 20:5.357062 21:3.788015 22:0.019458607 23:0.9227437 24:0.94168735 25:51.39114 26:1.3589743 27:5.357062 28:1.9731227 29:1.9731227 30:36.0 31:33.0 32:22.0 33:17.0 34:12.0 35:9.0 36:2.6901927 37:2.6901927 38:10.6 39:2.5 40:0.0 41:0.0 
-0.216796875 0.4833984375 0.216796875 0.06640625 0.033203125 1:89.0 2:4.0 3:141.0 4:12.0 5:455.0 6:68.0 7:68.0 8:40.0 9:50.22204 10:4.79 11:8.8 12:12.930338 13:12.688353 14:13.12 15:51.68539325842697 16:0.76404494 17:0.4494382 18:4.2399917 19:0.76404494 20:7.2079854 21:5.0968156 22:0.013357682 23:0.9400422 24:0.9588222 25:74.86329 26:1.3088236 27:7.2079854 28:4.2795777 29:4.2795777 30:48.0 31:54.0 32:32.0 33:24.0 34:18.0 35:13.0 36:4.160001 37:4.160001 38:22.25 39:4.0 40:0.0 41:0.0 
-0.216796875 0.4833984375 0.216796875 0.06640625 0.033203125 1:99.0 2:4.0 3:143.0 4:10.0 5:433.0 6:84.0 7:66.0 8:37.0 9:59.513752 10:5.57 11:9.6 12:8.721615 13:11.855464 14:9.41 15:50.505050505050505 16:0.8484849 17:0.37373737 18:3.7186399 19:0.6666667 20:6.6332498 21:4.690416 22:0.01920259 23:0.9117618 24:0.93942505 25:52.07631 26:1.5 27:6.6332498 28:3.3805707 29:3.3805707 30:64.0 31:56.0 32:46.0 33:26.0 34:22.0 35:17.0 36:3.539595 37:3.539595 38:24.75 39:2.0 40:2.0 41:0.0 
-0.216796875 0.4833984375 0.216796875 0.06640625 0.033203125 1:61.0 2:4.0 3:91.0 4:9.0 5:256.0 6:51.0 7:45.0 8:29.0 9:65.14969 10:2.06 11:6.0 12:6.935737 13:11.407656 14:4.91 15:55.73770491803278 16:0.8360656 17:0.47540984 18:3.7130694 19:0.73770493 20:5.7616596 21:4.0741086 22:0.018001435 23:0.9259984 24:0.94561344 25:55.551125 26:1.3555555 27:5.7616596 28:1.10151 29:1.10151 30:37.0 31:38.0 32:19.0 33:11.0 34:14.0 35:5.0 36:1.6058623 37:1.6058623 38:15.25 39:2.0 40:0.0 41:2.0 
-0.216796875 0.4833984375 0.216796875 0.06640625 0.033203125 1:61.0 2:2.0 3:87.0 4:7.0 5:241.0 6:55.0 7:42.0 8:24.0 9:55.218487 10:7.91 11:12.0 12:6.460328 13:13.816669 14:7.7 15:44.26229508196721 16:0.90163934 17:0.39344263 18:3.072885 19:0.6885246 20:5.377549 21:3.8025014 22:0.022084028 23:0.90921533 24:0.9326748 25:45.281597 26:1.4523809 27:5.377549 28:4.576712 29:4.576712 30:45.0 31:37.0 32:24.0 33:24.0 34:18.0 35:5.0 36:4.842392 37:4.842392 38:30.5 39:2.0 40:2.0 41:0.0 
-0.216796875 0.4833984375 0.216796875 0.06640625 0.033203125 1:59.0 2:5.0 3:105.0 4:14.0 5:277.0 6:46.0 7:47.0 8:33.0 9:44.298676 10:0.5 11:4.4 12:9.2976265 13:12.688353 14:2.91 15:59.32203389830508 16:0.779661 17:0.55932206 18:4.296234 19:0.7966102 20:6.118879 21:4.3267007 22:0.013676506 23:0.94423354 24:0.9591732 25:73.118095 26:1.2553191 27:6.118879 28:1.6068572 29:1.6068572 30:28.0 31:27.0 32:21.0 33:16.0 34:12.0 35:8.0 36:2.1786199 37:2.1786199 38:11.8 39:2.5 40:3.0 41:1.0 
-0.216796875 0.4833984375 0.216796875 0.06640625 0.033203125 1:61.0 2:3.0 3:82.0 4:5.0 5:257.0 6:55.0 7:44.0 8:30.0 9:72.472084 10:4.01 11:8.0 12:7.5173764 13:10.504224 14:7.41 15:45.90163934426229 16:0.90163934 17:0.4918033 18:3.8411064 19:0.72131145 20:5.6336226 21:3.9835727 22:0.019331247 23:0.9205317 24:0.9414249 25:51.72972 26:1.3863636 27:5.6336226 28:3.0839899 29:3.0839899 30:41.0 31:37.0 32:23.0 33:17.0 34:9.0 35:12.0 36:1.8616681 37:1.8616681 38:20.333334 39:1.5 40:0.0 41:0.0 
-0.216796875 0.4833984375 0.216796875 0.06640625 0.033203125 1:53.0 2:1.0 3:82.0 4:7.0 5:227.0 6:43.0 7:42.0 8:26.0 9:22.149435 10:16.88 11:21.2 12:8.825662 13:18.243607 14:23.91 15:52.83018867924528 16:0.8113208 17:0.49056605 18:3.5713747 19:0.7924528 20:5.7691436 21:4.0794005 22:0.014757285 23:0.9414093 24:0.9562115 25:67.763145 26:1.2619047 27:5.7691436 28:3.391657 29:3.391657 30:29.0 31:32.0 32:18.0 33:19.0 34:14.0 35:9.0 36:3.0013154 37:3.0013154 38:53.0 39:1.0 40:0.0 41:0.0 
-0.216796875 0.4833984375 0.216796875 0.06640625 0.033203125 1:37.0 2:2.0 3:70.0 4:10.0 5:190.0 6:28.0 7:29.0 8:21.0 9:28.00345 10:3.23 11:7.2000003 12:12.794593 13:15.903189 14:11.12 15:64.86486486486487 16:0.7567568 17:0.5675676 18:3.4523787 19:0.7837838 20:4.7675705 21:3.3711815 22:0.018684497 23:0.93253183 24:0.9455965 25:53.520306 26:1.2758621 27:4.7675705 28:3.0055814 29:3.0055814 30:17.0 31:20.0 32:10.0 33:8.0 34:7.0 35:7.0 36:2.5447967 37:2.5447967 38:18.5 39:2.0 40:0.0 41:0.0 
-0.216796875 0.4833984375 0.216796875 0.06640625 0.033203125 1:82.0 2:7.0 3:126.0 4:8.0 5:368.0 6:66.0 7:68.0 8:41.0 9:64.94988 10:0.5 11:4.4 12:8.061463 13:9.029199 14:2.91 15:57.3170731707317 16:0.80487806 17:0.5 18:4.527693 19:0.8292683 20:7.5093436 21:5.309908 22:0.009640551 23:0.9575168 24:0.9707295 25:103.72851 26:1.2058823 27:7.5093436 28:3.2754848 29:3.2754848 30:48.0 31:43.0 32:25.0 33:19.0 34:13.0 35:10.0 36:2.6196752 37:2.6196752 38:11.714286 39:2.3333333 40:0.0 41:0.0 
-0.216796875 0.4833984375 0.216796875 0.06640625 0.033203125 1:43.0 2:2.0 3:58.0 4:2.0 5:186.0 6:35.0 7:33.0 8:19.0 9:70.90087 10:4.4 11:8.400001 12:8.257676 13:8.841846 14:7.91 15:44.18604651162791 16:0.81395346 17:0.44186047 18:2.8974729 19:0.76744187 20:5.0324526 21:3.5584815 22:0.018710649 23:0.9296255 24:0.9449148 25:53.445503 26:1.3030303 27:5.0324526 28:1.9455696 29:1.9455696 30:26.0 31:29.0 32:21.0 33:15.0 34:10.0 35:5.0 36:2.2036824 37:2.2036824 38:21.5 39:2.0 40:0.0 41:0.0 
-0.216796875 0.4833984375 0.216796875 0.06640625 0.033203125 1:60.0 2:6.0 3:104.0 4:15.0 5:300.0 6:42.0 7:45.0 8:29.0 9:50.045 10:0.11 11:4.0 12:10.64 13:12.161745 14:7.12 15:61.66666666666667 16:0.7 17:0.48333332 18:3.7438838 19:0.75 20:5.809475 21:4.107919 22:0.017161056 23:0.92973673 24:0.9483162 25:58.27147 26:1.3333334 27:5.809475 28:1.2644455 29:1.2644455 30:30.0 31:35.0 32:16.0 33:20.0 34:13.0 35:11.0 36:1.8080512 37:1.8080512 38:10.0 39:2.0 40:2.0 41:1.0 
-0.216796875 0.4833984375 0.216796875 0.0673828125 0.0341796875 1:71.0 2:5.0 3:115.0 4:11.0 5:340.0 6:54.0 7:54.0 8:35.0 9:55.39383 10:1.67 11:5.6 12:10.27324 13:11.602472 14:4.41 15:59.154929577464785 16:0.7605634 17:0.49295774 18:4.1537356 19:0.7605634 20:6.408621 21:4.5315795 22:0.015062697 23:0.93579257 24:0.95423025 25:66.389175 26:1.3148148 27:6.408621 28:3.1674871 29:3.1674871 30:29.0 31:40.0 32:27.0 33:21.0 34:24.0 35:5.0 36:2.3270996 37:2.3270996 38:14.2 39:2.5 40:3.0 41:1.0 
-0.216796875 0.4833984375 0.216796875 0.0673828125 0.0341796875 1:28.0 2:5.0 3:49.0 4:6.0 5:152.0 6:23.0 7:26.0 8:18.0 9:53.101 10:-1.84 11:2.0 12:10.834284 13:9.3871 14:4.62 15:53.57142857142857 16:0.8214286 17:0.64285713 18:3.4016802 19:0.9285714 20:4.913538 21:3.4743962 22:0.006674237 23:0.9777601 24:0.9813141 25:149.82986 26:1.0769231 27:4.913538 28:2.1024933 29:2.1024933 30:11.0 31:13.0 32:13.0 33:7.0 34:2.0 35:3.0 36:1.2563334 37:1.2563334 38:5.6 39:2.5 40:2.0 41:0.0 
-0.216796875 0.482421875 0.216796875 0.0673828125 0.0341796875 1:36.0 2:4.0 3:46.0 4:3.0 5:145.0 6:27.0 7:30.0 8:15.0 9:89.6 10:-0.28 11:3.6000001 12:4.594444 13:7.908726 14:1.91 15:63.888888888888886 16:0.75 17:0.41666666 18:2.5 19:0.8333333 20:5.0 21:3.535534 22:0.01419772 23:0.9491222 24:0.9590881 25:70.433846 26:1.2 27:5.0 28:0.6948663 29:0.6948663 30:18.0 31:17.0 32:13.0 33:11.0 34:10.0 35:3.0 36:1.1653714 37:1.1653714 38:9.0 39:2.0 40:0.0 41:0.0 
-0.216796875 0.482421875 0.216796875 0.0673828125 0.0341796875 1:67.0 2:3.0 3:88.0 4:4.0 5:266.0 6:52.0 7:50.0 8:33.0 9:73.05025 10:4.79 11:8.8 12:6.2191043 13:9.725611 14:3.7 15:47.76119402985074 16:0.7761194 17:0.49253732 18:4.031592 19:0.74626863 20:6.1084723 21:4.319342 22:0.016554236 23:0.93039453 24:0.9497657 25:60.4075 26:1.34 27:6.1084723 28:2.423113 29:2.423113 30:38.0 31:39.0 32:21.0 33:16.0 34:5.0 35:12.0 36:2.4374232 37:2.4374232 38:22.333334 39:1.0 40:1.0 41:1.0 
-0.216796875 0.4833984375 0.216796875 0.06640625 0.033203125 1:57.0 2:3.0 3:81.0 4:8.0 5:244.0 6:54.0 7:45.0 8:20.0 9:67.32895 10:3.62 11:7.6 12:7.8126307 13:12.457975 14:6.91 15:49.122807017543856 16:0.94736844 17:0.3508772 18:2.6490648 19:0.7894737 20:5.960396 21:4.2146363 22:0.014461334 23:0.9415321 24:0.95687413 25:69.14991 26:1.2666667 27:5.960396 28:2.1449504 29:2.1449504 30:39.0 31:36.0 32:23.0 33:19.0 34:8.0 35:8.0 36:1.7889482 37:1.7889482 38:19.0 39:3.0 40:0.0 41:0.0 
-0.216796875 0.4833984375 0.216796875 0.06640625 0.033203125 1:93.0 2:6.0 3:131.0 4:8.0 5:397.0 6:84.0 7:62.0 8:39.0 9:71.93476 10:2.06 11:6.0 12:7.3909693 13:9.725611 14:4.91 15:52.68817204301075 16:0.9032258 17:0.41935483 18:4.0441117 19:0.6666667 20:6.4291005 21:4.5460606 22:0.019735985 23:0.9105447 24:0.9379921 25:50.66887 26:1.5 27:6.4291005 28:4.332683 29:4.332683 30:54.0 31:60.0 32:32.0 33:31.0 34:18.0 35:6.0 36:3.6242564 37:3.6242564 38:15.5 39:3.0 40:1.0 41:0.0 
-0.216796875 0.4833984375 0.216796875 0.06640625 0.033203125 1:56.0 2:4.0 3:84.0 4:8.0 5:257.0 6:48.0 7:49.0 8:26.0 9:65.725 10:1.67 11:5.6 12:9.070715 13:10.934197 14:4.41 15:55.35714285714286 16:0.85714287 17:0.4642857 18:3.4743962 19:0.875 20:6.5479 21:4.630065 22:0.0082409205 23:0.9668274 24:0.97577554 25:121.34567 26:1.1428572 27:6.5479 28:2.3040855 29:2.3040855 30:39.0 31:34.0 32:20.0 33:8.0 34:9.0 35:4.0 36:1.511097 37:1.511097 38:14.0 39:2.0 40:4.0 41:0.0 
-0.216796875 0.4833984375 0.216796875 0.06640625 0.033203125 1:41.0 2:3.0 3:61.0 4:5.0 5:169.0 6:32.0 7:39.0 8:23.0 9:67.09504 10:1.28 11:5.2000003 12:6.2712183 13:10.504224 14:3.91 15:36.58536585365854 16:0.7804878 17:0.5609756 18:3.5919964 19:0.9512195 20:6.090777 21:4.3068295 22:0.003626409 23:0.98653305 24:0.9896658 25:275.75488 26:1.051282 27:6.090777 28:0.94525373 29:0.94525373 30:26.0 31:24.0 32:14.0 33:13.0 34:7.0 35:7.0 36:1.7307676 37:1.7307676 38:13.666667 39:3.0 40:0.0 41:0.0 
-0.216796875 0.4833984375 0.216796875 0.06640625 0.033203125 1:41.0 2:4.0 3:54.0 4:3.0 5:163.0 6:29.0 7:30.0 8:20.0 9:85.00686 10:0.11 11:4.0 12:4.688781 13:7.908726 14:-2.3 15:46.34146341463415 16:0.70731705 17:0.4878049 18:3.1234753 19:0.73170733 20:4.685213 21:3.3129458 22:0.022651248 23:0.91588295 24:0.93302816 25:44.14768 26:1.3666667 27:4.685213 28:1.2049224 29:1.2049224 30:19.0 31:20.0 32:13.0 33:13.0 34:7.0 35:7.0 36:2.6296418 37:2.6296418 38:10.25 39:2.0 40:1.0 41:0.0 
-0.216796875 0.4833984375 0.216796875 0.06640625 0.033203125 1:117.0 2:6.0 3:151.0 4:4.0 5:462.0 6:101.0 7:84.0 8:42.0 9:77.85789 10:3.62 11:7.6 12:5.9005127 13:7.7935376 14:2.2 15:51.28205128205128 16:0.8632479 17:0.35897437 18:3.8829014 19:0.71794873 20:7.765803 21:5.491252 22:0.014611198 23:0.9304189 24:0.9537899 25:68.44066 26:1.3928572 27:7.765803 28:3.6628296 29:3.6628296 30:75.0 31:76.0 32:45.0 33:32.0 34:15.0 35:21.0 36:4.120659 37:4.120659 38:19.5 39:3.0 40:2.0 41:0.0 
-0.216796875 0.4833984375 0.216796875 0.06640625 0.033203125 1:34.0 2:1.0 3:49.0 4:3.0 5:151.0 6:31.0 7:30.0 8:15.0 9:50.401474 10:9.47 11:13.6 12:9.443529 13:13.023867 14:14.41 15:44.11764705882353 16:0.9117647 17:0.44117647 18:2.5724788 19:0.88235295 20:5.1449575 21:3.6380343 22:0.010065215 23:0.96450645 24:0.9713245 25:99.35208 26:1.1333333 27:5.1449575 28:1.5838759 29:1.5838759 30:25.0 31:24.0 32:11.0 33:10.0 34:9.0 35:2.0 36:1.5808994 37:1.5808994 38:34.0 39:1.0 40:0.0 41:1.0 
-0.216796875 0.4833984375 0.216796875 0.06640625 0.033203125 1:39.0 2:3.0 3:58.0 4:5.0 5:175.0 6:36.0 7:36.0 8:19.0 9:67.824615 10:1.28 11:5.2000003 12:8.307691 13:10.504224 14:3.91 15:48.717948717948715 16:0.9230769 17:0.4871795 18:3.042435 19:0.9230769 20:5.7646136 21:4.076197 22:0.005963686 23:0.9781517 24:0.9829868 25:167.68153 26:1.0833334 27:5.7646136 28:1.271536 29:1.271536 30:27.0 31:28.0 32:13.0 33:13.0 34:9.0 35:6.0 36:1.6173687 37:1.6173687 38:13.0 39:3.0 40:0.0 41:0.0 
-0.216796875 0.4833984375 0.216796875 0.06640625 0.033203125 1:90.0 2:4.0 3:129.0 4:9.0 5:370.0 6:78.0 7:67.0 8:41.0 9:62.737503 10:4.79 11:8.8 12:7.057778 13:11.407656 14:8.41 15:48.888888888888886 16:0.8666667 17:0.45555556 18:4.3217793 19:0.74444443 20:7.06242 21:4.993885 22:0.014574914 23:0.93441564 24:0.9548987 25:68.61104 26:1.3432835 27:7.06242 28:4.996733 29:4.996733 30:59.0 31:60.0 32:39.0 33:34.0 34:26.0 35:14.0 36:5.3464766 37:5.3464766 38:22.5 39:4.0 40:1.0 41:0.0 
-0.216796875 0.4833984375 0.216796875 0.06640625 0.033203125 1:43.0 2:3.0 3:56.0 4:3.0 5:163.0 6:35.0 7:37.0 8:25.0 9:82.109924 10:1.67 11:5.6 12:4.4241858 13:8.841846 14:-0.3 15:51.162790697674424 16:0.81395346 17:0.5813953 18:3.8124642 19:0.8604651 20:5.642447 21:3.9898126 22:0.010623183 23:0.9600441 24:0.9692195 25:94.13374 26:1.1621622 27:5.642447 28:1.3094625 29:1.3094625 30:27.0 31:23.0 32:16.0 33:13.0 34:9.0 35:4.0 36:1.9324558 37:1.9324558 38:14.333333 39:3.0 40:1.0 41:0.0 
-0.216796875 0.4833984375 0.216796875 0.06640625 0.033203125 1:57.0 2:6.0 3:82.0 4:8.0 5:236.0 6:43.0 7:42.0 8:28.0 9:75.487236 10:-0.28 11:3.6000001 12:5.4294744 13:9.725611 14:1.91 15:47.368421052631575 16:0.75438595 17:0.49122807 18:3.7086906 19:0.7368421 20:5.563036 21:3.9336605 22:0.018682046 23:0.9244675 24:0.94378144 25:53.52733 26:1.3571428 27:5.563036 28:1.3211063 29:1.3211063 30:35.0 31:33.0 32:18.0 33:14.0 34:7.0 35:6.0 36:2.0739493 37:2.0739493 38:9.5 39:3.0 40:1.0 41:0.0 
-0.2158203125 0.4833984375 0.216796875 0.06640625 0.033203125 1:67.0 2:4.0 3:91.0 4:6.0 5:293.0 6:55.0 7:49.0 8:28.0 9:74.92927 10:2.45 11:6.4 12:8.146865 13:9.888513 14:5.41 15:53.73134328358209 16:0.8208955 17:0.41791046 18:3.4207444 19:0.73134327 20:5.986303 21:4.2329555 22:0.017696958 23:0.92558974 24:0.9461606 25:56.506886 26:1.3673469 27:5.986303 28:3.2234647 29:3.2234647 30:35.0 31:35.0 32:24.0 33:16.0 34:16.0 35:6.0 36:2.5227537 37:2.5227537 38:16.75 39:1.3333334 40:0.0 41:0.0 
-0.2158203125 0.4833984375 0.216796875 0.06640625 0.033203125 1:28.0 2:2.0 3:37.0 4:1.0 5:104.0 6:25.0 7:23.0 8:11.0 9:80.832146 10:1.67 11:5.6 12:3.9257133 13:7.1686215 14:-0.3 15:57.14285714285714 16:0.89285713 17:0.39285713 18:2.0788045 19:0.8214286 20:4.3465915 21:3.0735042 22:0.017715923 23:0.9409669 24:0.94944704 25:56.446396 26:1.2173913 27:4.3465915 28:2.1160245 29:2.1160245 30:20.0 31:16.0 32:7.0 33:7.0 34:5.0 35:4.0 36:1.1195328 37:1.1195328 38:14.0 39:2.0 40:0.0 41:0.0 
-0.2158203125 0.4833984375 0.216796875 0.06640625 0.033203125 1:28.0 2:2.0 3:39.0 4:2.0 5:110.0 6:22.0 7:26.0 8:17.0 9:74.78928 10:1.67 11:5.6 12:5.1857142 13:8.841846 14:-0.3 15:53.57142857142857 16:0.78571427 17:0.60714287 18:3.212698 19:0.9285714 20:4.913538 21:3.4743962 22:0.006674237 23:0.9777601 24:0.9813141 25:149.82986 26:1.0769231 27:4.913538 28:0.41395837 29:0.41395837 30:13.0 31:18.0 32:9.0 33:5.0 34:4.0 35:6.0 36:0.39836687 37:0.39836687 38:14.0 39:2.0 40:1.0 41:0.0 
-0.2158203125 0.4833984375 0.216796875 0.06640625 0.033203125 1:63.0 2:4.0 3:80.0 4:7.0 5:236.0 6:49.0 7:48.0 8:33.0 9:83.42017 10:2.06 11:6.0 12:4.347302 13:10.4301 14:0.2 15:52.38095238095239 16:0.7777778 17:0.52380955 18:4.157609 19:0.7619048 20:6.0474315 21:4.27618 22:0.015841816 23:0.9343652 24:0.95224047 25:63.12408 26:1.3125 27:6.0474315 28:2.1448886 29:2.1448886 30:36.0 31:35.0 32:21.0 33:15.0 34:9.0 35:10.0 36:2.2083247 37:2.2083247 38:15.75 39:4.0 40:0.0 41:2.0 
-0.216796875 0.4833984375 0.216796875 0.06640625 0.033203125 1:81.0 2:4.0 3:115.0 4:8.0 5:345.0 6:58.0 7:54.0 8:36.0 9:66.17014 10:4.01 11:8.0 12:7.7827168 13:10.934197 14:7.41 15:51.85185185185185 16:0.7160494 17:0.44444445 18:4.0 19:0.6666667 20:6.0 21:4.2426405 22:0.020996388 23:0.9077324 24:0.9346059 25:47.62724 26:1.5 27:6.0 28:2.4992566 29:2.4992566 30:42.0 31:44.0 32:30.0 33:19.0 34:11.0 35:16.0 36:2.4256225 37:2.4256225 38:20.25 39:2.0 40:0.0 41:0.0 
-0.216796875 0.4833984375 0.216796875 0.0673828125 0.033203125 1:70.0 2:3.0 3:104.0 4:7.0 5:344.0 6:48.0 7:58.0 8:41.0 9:57.460236 10:5.18 11:9.2 12:11.827428 13:11.855464 14:8.91 15:57.14285714285714 16:0.6857143 17:0.5857143 18:4.9004374 19:0.82857144 20:6.932326 21:4.9018946 22:0.010418572 23:0.95573676 24:0.96870327 25:95.98244 26:1.2068965 27:6.932326 28:1.8057519 29:1.8057519 30:40.0 31:35.0 32:29.0 33:18.0 34:13.0 35:5.0 36:2.0823555 37:2.0823555 38:23.333334 39:3.0 40:4.0 41:1.0 
-0.216796875 0.4833984375 0.216796875 0.0673828125 0.033203125 1:86.0 2:4.0 3:126.0 4:14.0 5:380.0 6:65.0 7:59.0 8:39.0 9:61.063663 10:4.4 11:8.400001 12:8.804651 13:13.454273 14:7.91 15:53.48837209302325 16:0.75581396 17:0.45348838 18:4.205478 19:0.68604654 20:6.3621335 21:4.498708 22:0.018991275 23:0.9154063 24:0.94083375 25:52.65576 26:1.4576272 27:6.3621335 28:2.7905893 29:2.7905893 30:45.0 31:48.0 32:24.0 33:26.0 34:12.0 35:10.0 36:2.1783464 37:2.1783464 38:21.5 39:2.0 40:0.0 41:0.0 
-0.216796875 0.4833984375 0.216796875 0.0673828125 0.033203125 1:69.0 2:3.0 3:92.0 4:7.0 5:285.0 6:55.0 7:56.0 8:34.0 9:70.689995 10:5.18 11:9.2 12:7.200001 13:11.855464 14:8.91 15:43.47826086956522 16:0.79710144 17:0.49275362 18:4.093119 19:0.8115942 20:6.7416077 21:4.7670364 22:0.011644288 23:0.9506968 24:0.96496606 25:85.87901 26:1.2321428 27:6.7416077 28:2.3698027 29:2.3698027 30:39.0 31:37.0 32:27.0 33:16.0 34:8.0 35:11.0 36:2.1511226 37:2.1511226 38:23.0 39:3.0 40:0.0 41:0.0 
-0.216796875 0.4833984375 0.216796875 0.0673828125 0.033203125 1:59.0 2:3.0 3:93.0 4:8.0 5:280.0 6:46.0 7:48.0 8:28.0 9:53.520794 10:3.62 11:7.6 12:10.600001 13:12.457975 14:6.91 15:45.76271186440678 16:0.779661 17:0.47457626 18:3.6452894 19:0.8135593 20:6.249068 21:4.4187584 22:0.012410235 23:0.9493968 24:0.9630532 25:80.57865 26:1.2291666 27:6.249068 28:2.1320221 29:2.1320221 30:35.0 31:35.0 32:25.0 33:14.0 34:11.0 35:5.0 36:2.7285395 37:2.7285395 38:19.666666 39:1.5 40:0.0 41:0.0 
-0.216796875 0.4833984375 0.216796875 0.0673828125 0.033203125 1:45.0 2:2.0 3:63.0 4:5.0 5:198.0 6:38.0 7:36.0 8:19.0 9:65.5575 10:4.79 11:8.8 12:8.756444 13:12.161745 14:8.41 15:42.22222222222222 16:0.84444445 17:0.42222223 18:2.8323529 19:0.8 20:5.3665633 21:3.7947333 22:0.015399109 23:0.9413808 24:0.9548102 25:64.93882 26:1.25 27:5.3665633 28:0.70748 29:0.70748 30:31.0 31:28.0 32:17.0 33:7.0 34:5.0 35:5.0 36:1.3325464 37:1.3325464 38:22.5 39:2.0 40:0.0 41:0.0 
-0.216796875 0.4833984375 0.216796875 0.0673828125 0.033203125 1:86.0 2:4.0 3:125.0 4:14.0 5:363.0 6:71.0 7:58.0 8:31.0 9:62.047386 10:4.4 11:8.400001 12:7.6423254 13:13.454273 14:7.91 15:45.348837209302324 16:0.8255814 17:0.3604651 18:3.3428159 19:0.6744186 20:6.254301 21:4.4224586 22:0.019852836 23:0.9115686 24:0.93802154 25:50.370636 26:1.4827586 27:6.254301 28:4.932425 29:4.932425 30:47.0 31:50.0 32:38.0 33:34.0 34:22.0 35:3.0 36:3.2301104 37:3.2301104 38:21.5 39:2.0 40:0.0 41:0.0 
-0.216796875 0.4833984375 0.216796875 0.0673828125 0.033203125 1:67.0 2:4.0 3:99.0 4:8.0 5:302.0 6:50.0 7:56.0 8:32.0 9:64.82778 10:2.45 11:6.4 12:8.936715 13:10.934197 14:5.41 15:50.74626865671642 16:0.74626863 17:0.47761193 18:3.9094222 19:0.8358209 20:6.841489 21:4.837663 22:0.010144039 23:0.95734745 24:0.96964985 25:98.58006 26:1.1964285 27:6.841489 28:2.532917 29:2.532917 30:32.0 31:34.0 32:24.0 33:19.0 34:13.0 35:10.0 36:3.4100237 37:3.4100237 38:16.75 39:1.3333334 40:0.0 41:0.0 
-0.216796875 0.4833984375 0.216796875 0.0673828125 0.033203125 1:40.0 2:1.0 3:57.0 4:4.0 5:174.0 6:35.0 7:32.0 8:19.0 9:45.680004 10:11.81 11:16.0 12:9.038 13:14.554592 14:17.41 15:50.0 16:0.875 17:0.475 18:3.0041637 19:0.8 20:5.059644 21:3.5777087 22:0.016398171 23:0.9395091 24:0.95219743 25:60.98241 26:1.25 27:5.059644 28:1.3110478 29:1.3110478 30:22.0 31:18.0 32:19.0 33:16.0 34:12.0 35:2.0 36:2.1961942 37:2.1961942 38:40.0 39:1.0 40:0.0 41:0.0 
-0.2158203125 0.4833984375 0.2158203125 0.0673828125 0.0341796875 1:64.0 2:4.0 3:79.0 4:6.0 5:246.0 6:54.0 7:47.0 8:26.0 9:86.16688 10:2.45 11:6.4 12:4.95125 13:9.888513 14:0.7 15:40.625 16:0.84375 17:0.40625 18:3.25 19:0.734375 20:5.875 21:4.1542525 22:0.01784979 23:0.9257648 24:0.9458795 25:56.023067 26:1.3617021 27:5.875 28:1.2897911 29:1.2897911 30:41.0 31:34.0 32:25.0 33:14.0 34:6.0 35:5.0 36:2.086348 37:2.086348 38:16.0 39:4.0 40:1.0 41:0.0 
-0.2158203125 0.4833984375 0.2158203125 0.0673828125 0.0341796875 1:83.0 2:10.0 3:113.0 4:2.0 5:340.0 6:74.0 7:58.0 8:31.0 9:83.232185 10:-0.67 11:3.2 12:4.7204814 13:5.683918 14:1.41 15:59.036144578313255 16:0.8915663 17:0.37349397 18:3.402692 19:0.6987952 20:6.3663273 21:4.501673 22:0.018354747 23:0.9188933 24:0.94307387 25:54.481815 26:1.4310344 27:6.3663273 28:3.0315568 29:3.0315568 30:50.0 31:58.0 32:35.0 33:30.0 34:23.0 35:10.0 36:2.9581876 37:2.9581876 38:8.3 39:10.0 40:1.0 41:0.0 
-0.2158203125 0.4833984375 0.2158203125 0.0673828125 0.0341796875 1:87.0 2:5.0 3:135.0 4:14.0 5:410.0 6:64.0 7:60.0 8:36.0 9:57.898132 10:2.84 11:6.8 12:10.209196 13:12.688353 14:5.91 15:50.57471264367817 16:0.7356322 17:0.41379312 18:3.859605 19:0.6896552 20:6.4326754 21:4.5485883 22:0.01863003 23:0.9168 24:0.9419529 25:53.67678 26:1.45 27:6.4326754 28:2.8084075 29:2.8084075 30:47.0 31:42.0 32:33.0 33:28.0 34:21.0 35:7.0 36:5.286282 37:5.286282 38:17.4 39:1.6666666 40:0.0 41:0.0 
-0.2158203125 0.4833984375 0.2158203125 0.0673828125 0.0341796875 1:100.0 2:6.0 3:131.0 4:4.0 5:415.0 6:87.0 7:67.0 8:41.0 9:79.09234 10:2.45 11:6.4 12:6.826 13:7.7935376 14:5.41 15:54.0 16:0.87 17:0.41 18:4.1 19:0.67 20:6.7 21:4.7376156 22:0.018883688 23:0.9130374 24:0.9404272 25:52.955757 26:1.4925373 27:6.7 28:3.2062888 29:3.2062888 30:69.0 31:66.0 32:43.0 33:28.0 34:18.0 35:9.0 36:4.468498 37:4.468498 38:16.666666 39:1.5 40:0.0 41:0.0 
-0.4482421875 -1.0 0.4482421875 0.1376953125 0.068359375 1:140.0 2:7.0 3:194.0 4:13.0 5:613.0 6:117.0 7:99.0 8:62.0 9:69.30357 10:4.01 11:8.0 12:8.466001 13:10.65028 14:7.41 15:53.57142857142857 16:0.8357143 17:0.44285715 18:5.2399564 19:0.70714283 20:8.367027 21:5.916382 22:0.014190213 23:0.92987704 24:0.9544952 25:70.47111 26:1.4141414 27:8.367027 28:3.2767367 29:3.2767367 30:88.0 31:85.0 32:58.0 33:43.0 34:33.0 35:16.0 36:5.3895025 37:5.3895025 38:20.0 39:7.0 40:3.0 41:1.0 
-0.4482421875 -1.0 0.4482421875 0.1376953125 0.068359375 1:95.0 2:6.0 3:133.0 4:8.0 5:415.0 6:80.0 7:71.0 8:49.0 9:72.324165 10:2.06 11:6.0 12:8.016842 13:9.725611 14:4.91 15:50.526315789473685 16:0.84210527 17:0.51578945 18:5.027294 19:0.7473684 20:7.2844462 21:5.1508813 22:0.01404185 23:0.9360551 24:0.9564104 25:71.21568 26:1.3380282 27:7.2844462 28:3.7710116 29:3.7710116 30:57.0 31:53.0 32:34.0 33:26.0 34:21.0 35:19.0 36:4.6531515 37:4.6531515 38:15.833333 39:3.0 40:6.0 41:1.0 
-0.4482421875 -1.0 0.4482421875 0.1376953125 0.068359375 1:84.0 2:3.0 3:111.0 4:5.0 5:357.0 6:62.0 7:65.0 8:44.0 9:66.62215 10:7.13 11:11.2 12:8.132857 13:10.504224 14:11.41 15:44.047619047619044 16:0.7380952 17:0.52380955 18:4.8007936 19:0.77380955 20:7.0920815 21:5.0148587 22:0.013061723 23:0.9421259 24:0.959951 25:76.559586 26:1.2923077 27:7.0920815 28:2.9378593 29:2.9378593 30:44.0 31:45.0 32:32.0 33:25.0 34:14.0 35:8.0 36:1.7099016 37:1.7099016 38:28.0 39:3.0 40:5.0 41:0.0 
-0.4482421875 -1.0 0.44921875 0.1376953125 0.068359375 1:61.0 2:3.0 3:94.0 4:12.0 5:299.0 6:51.0 7:51.0 8:32.0 9:55.829456 10:4.01 11:8.0 12:11.565902 13:14.554592 14:7.41 15:60.65573770491803 16:0.8360656 17:0.52459013 18:4.0971804 19:0.8360656 20:6.529881 21:4.617323 22:0.010595019 23:0.9564452 24:0.9684984 25:94.38397 26:1.1960784 27:6.529881 28:1.4332016 29:1.4332016 30:36.0 31:39.0 32:23.0 33:18.0 34:8.0 35:7.0 36:2.2803311 37:2.2803311 38:20.333334 39:3.0 40:1.0 41:0.0 
-0.4482421875 -1.0 0.4482421875 0.1376953125 0.068359375 1:106.0 2:10.0 3:180.0 4:22.0 5:515.0 6:82.0 7:79.0 8:53.0 9:52.415623 10:0.11 11:4.0 12:9.9754715 13:11.602472 14:2.41 15:55.660377358490564 16:0.7735849 17:0.5 18:5.147815 19:0.745283 20:7.673158 21:5.425742 22:0.013518291 23:0.93695825 24:0.9577098 25:73.973854 26:1.3417722 27:7.673158 28:2.3773491 29:2.3773491 30:58.0 31:51.0 32:42.0 33:28.0 34:22.0 35:11.0 36:2.790165 37:2.790165 38:10.6 39:5.0 40:5.0 41:0.0 
-0.4482421875 -1.0 0.4482421875 0.138671875 0.0693359375 1:80.0 2:3.0 3:116.0 4:7.0 5:366.0 6:70.0 7:63.0 8:38.0 9:57.09833 10:6.35 11:10.400001 12:9.990998 13:11.855464 14:10.41 15:53.75 16:0.875 17:0.475 18:4.248529 19:0.7875 20:7.043614 21:4.9805875 22:0.012440889 23:0.9454837 24:0.9620587 25:80.38011 26:1.2698413 27:7.043614 28:2.5695426 29:2.5695426 30:50.0 31:53.0 32:32.0 33:25.0 34:18.0 35:12.0 36:2.8430846 37:2.8430846 38:26.666666 39:1.5 40:0.0 41:1.0 
-0.4482421875 -1.0 0.4482421875 0.138671875 0.0693359375 1:99.0 2:4.0 3:149.0 4:13.0 5:468.0 6:83.0 7:74.0 8:43.0 9:54.386475 10:5.57 11:9.6 12:10.800404 13:13.078686 14:9.41 15:52.52525252525253 16:0.83838385 17:0.43434343 18:4.3216624 19:0.74747473 20:7.4372797 21:5.258951 22:0.013784182 23:0.93666005 24:0.95709175 25:72.54692 26:1.3378378 27:7.4372797 28:3.3921037 29:3.3921037 30:56.0 31:61.0 32:35.0 33:38.0 34:18.0 35:13.0 36:3.161127 37:3.161127 38:24.75 39:2.0 40:0.0 41:0.0 
-0.4482421875 -1.0 0.4482421875 0.138671875 0.0693359375 1:115.0 2:10.0 3:162.0 4:14.0 5:511.0 6:96.0 7:84.0 8:54.0 9:75.98685 10:0.5 11:4.4 12:7.7537384 13:9.888513 14:2.91 15:53.91304347826087 16:0.8347826 17:0.4695652 18:5.035526 19:0.7304348 20:7.83304 21:5.538796 22:0.013951764 23:0.9337998 24:0.9560117 25:71.67552 26:1.3690476 27:7.83304 28:3.264835 29:3.264835 30:65.0 31:68.0 32:47.0 33:33.0 34:20.0 35:13.0 36:4.9378877 37:4.9378877 38:11.5 39:3.3333333 40:3.0 41:0.0 
-0.4482421875 -1.0 0.4482421875 0.138671875 0.0693359375 1:91.0 2:5.0 3:118.0 4:9.0 5:365.0 6:72.0 7:65.0 8:38.0 9:78.6609 10:3.23 11:7.2000003 12:6.158242 13:10.793553 14:6.41 15:53.84615384615385 16:0.7912088 17:0.41758242 18:3.9834824 19:0.71428573 20:6.8138514 21:4.8181205 22:0.016536007 23:0.9254084 24:0.9485425 25:60.474094 26:1.4 27:6.8138514 28:4.3425484 29:4.3425484 30:53.0 31:42.0 32:37.0 33:25.0 34:12.0 35:7.0 36:4.063036 37:4.063036 38:18.2 39:1.6666666 40:1.0 41:2.0 
-0.4482421875 -1.0 0.4482421875 0.138671875 0.0693359375 1:168.0 2:7.0 3:244.0 4:20.0 5:727.0 6:147.0 7:105.0 8:63.0 9:59.603577 10:5.57 11:9.6 12:8.411667 13:12.457975 14:9.41 15:55.952380952380956 16:0.875 17:0.375 18:4.8605556 19:0.625 20:8.100925 21:5.7282195 22:0.017901486 23:0.90827346 24:0.94111747 25:55.861286 26:1.6 27:8.100925 28:7.1924763 29:7.1924763 30:86.0 31:100.0 32:70.0 33:57.0 34:37.0 35:17.0 36:10.050831 37:10.050831 38:24.0 39:2.3333333 40:2.0 41:0.0 
-0.4482421875 -1.0 0.4482421875 0.138671875 0.0693359375 1:88.0 2:5.0 3:123.0 4:8.0 5:347.0 6:78.0 7:64.0 8:38.0 9:70.723274 10:2.84 11:6.8 12:5.7040906 13:10.355216 14:1.2 15:46.590909090909086 16:0.8863636 17:0.4318182 18:4.0508137 19:0.72727275 20:6.822423 21:4.8241816 22:0.015885716 23:0.9288743 24:0.9507802 25:62.94963 26:1.375 27:6.822423 28:3.5816855 29:3.5816855 30:59.0 31:49.0 32:36.0 33:24.0 34:12.0 35:18.0 36:6.4233313 37:6.4233313 38:17.6 39:5.0 40:2.0 41:0.0 
-0.4482421875 -1.0 0.4482421875 0.138671875 0.0693359375 1:64.0 2:5.0 3:94.0 4:8.0 5:300.0 6:51.0 7:55.0 8:34.0 9:69.58675 10:0.89 11:4.8 12:9.45 13:10.355216 14:3.41 15:64.0625 16:0.796875 17:0.53125 18:4.25 19:0.859375 20:6.875 21:4.861359 22:0.00876198 23:0.9635599 24:0.973955 25:114.12946 26:1.1636363 27:6.875 28:1.8583676 29:1.8583676 30:33.0 31:33.0 32:23.0 33:21.0 34:11.0 35:8.0 36:2.1970608 37:2.1970608 38:12.8 39:2.5 40:2.0 41:0.0 
-0.4482421875 -1.0 0.4482421875 0.1376953125 0.0693359375 1:183.0 2:12.0 3:271.0 4:27.0 5:826.0 6:145.0 7:109.0 8:75.0 9:66.07429 10:2.06 11:6.0 12:8.799346 13:10.793553 14:4.91 15:60.10928961748634 16:0.79234976 17:0.40983605 18:5.5441594 19:0.59562844 20:8.057512 21:5.697521 22:0.019092197 23:0.90053946 24:0.93652683 25:52.37742 26:1.678899 27:8.057512 28:4.6747947 29:4.6747947 30:103.0 31:93.0 32:61.0 33:50.0 34:38.0 35:22.0 36:7.2480507 37:7.2480507 38:15.25 39:4.0 40:3.0 41:1.0 
-0.4482421875 -1.0 0.4482421875 0.1376953125 0.0693359375 1:77.0 2:4.0 3:129.0 4:18.0 5:368.0 6:68.0 7:61.0 8:37.0 9:45.56378 10:3.62 11:7.6 12:10.764154 13:14.836746 14:6.91 15:57.14285714285714 16:0.8831169 17:0.48051947 18:4.2165413 19:0.7922078 20:6.9515953 21:4.91552 22:0.0123449005 23:0.94637614 24:0.9624748 25:81.005104 26:1.2622951 27:6.9515953 28:6.3636346 29:6.3636346 30:48.0 31:46.0 32:32.0 33:22.0 34:19.0 35:7.0 36:4.0881114 37:4.0881114 38:19.25 39:4.0 40:0.0 41:0.0 
-0.4482421875 -1.0 0.4482421875 0.1376953125 0.068359375 1:113.0 2:7.0 3:147.0 4:7.0 5:455.0 6:100.0 7:76.0 8:47.0 9:80.395134 10:2.45 11:6.4 12:6.0424786 13:8.648137 14:5.41 15:51.32743362831859 16:0.88495576 17:0.4159292 18:4.421388 19:0.67256635 20:7.1494784 21:5.0554447 22:0.017748836 23:0.91609436 24:0.9435835 25:56.34172 26:1.4868422 27:7.1494784 28:5.753724 29:5.753724 30:79.0 31:74.0 32:42.0 33:34.0 34:14.0 35:12.0 36:5.2941365 37:5.2941365 38:16.142857 39:1.75 40:3.0 41:0.0 
-0.4482421875 -1.0 0.4482421875 0.1376953125 0.068359375 1:93.0 2:6.0 3:123.0 4:9.0 5:377.0 6:78.0 7:65.0 8:43.0 9:79.21217 10:2.06 11:6.0 12:6.1264515 13:10.125756 14:4.91 15:49.46236559139785 16:0.83870965 17:0.4623656 18:4.4588923 19:0.6989247 20:6.740186 21:4.7660313 22:0.017435953 23:0.9209698 24:0.9455249 25:57.352757 26:1.4307692 27:6.740186 28:3.9554126 29:3.9554126 30:60.0 31:60.0 32:36.0 33:31.0 34:18.0 35:13.0 36:3.9377942 37:3.9377942 38:15.5 39:1.5 40:2.0 41:0.0 
-0.4482421875 -1.0 0.4482421875 0.1376953125 0.068359375 1:116.0 2:6.0 3:150.0 4:12.0 5:468.0 6:99.0 7:80.0 8:52.0 9:77.81512 10:3.62 11:7.6 12:6.3917255 13:11.208143 14:6.91 15:50.86206896551724 16:0.8534483 17:0.44827586 18:4.8280787 19:0.6896552 20:7.4278135 21:5.2522573 22:0.016443325 23:0.9218352 24:0.94779086 25:60.814953 26:1.45 27:7.4278135 28:3.7201097 29:3.7201097 30:73.0 31:66.0 32:40.0 33:26.0 34:24.0 35:14.0 36:2.7579837 37:2.7579837 38:19.333334 39:6.0 40:2.0 41:0.0 
-0.4482421875 -1.0 0.4482421875 0.1376953125 0.068359375 1:103.0 2:6.0 3:171.0 4:16.0 5:506.0 6:69.0 7:76.0 8:52.0 9:48.95841 10:2.84 11:6.8 12:11.361942 13:12.457975 14:5.91 15:44.66019417475729 16:0.6699029 17:0.5048544 18:5.123712 19:0.7378641 20:7.4885025 21:5.295171 22:0.014152028 23:0.9344092 24:0.95576304 25:70.66125 26:1.3552631 27:7.4885025 28:2.6945565 29:2.6945565 30:47.0 31:46.0 32:34.0 33:20.0 34:12.0 35:10.0 36:1.8470498 37:1.8470498 38:17.166666 39:3.0 40:7.0 41:2.0 
-0.4482421875 -1.0 0.4482421875 0.1376953125 0.068359375 1:111.0 2:4.0 3:174.0 4:21.0 5:507.0 6:88.0 7:77.0 8:52.0 9:46.052532 10:6.74 11:10.8 12:9.99063 13:15.774803 14:10.91 15:49.549549549549546 16:0.7927928 17:0.46846846 18:4.9356217 19:0.6936937 20:7.3085165 21:5.1679015 22:0.016489185 23:0.9223437 24:0.947833 25:60.64581 26:1.4415585 27:7.3085165 28:3.0140173 29:3.0140173 30:58.0 31:65.0 32:42.0 33:29.0 34:14.0 35:13.0 36:4.0234385 37:4.0234385 38:27.75 39:0.8 40:1.0 41:0.0 
-0.4482421875 -1.0 0.4482421875 0.1376953125 0.068359375 1:80.0 2:5.0 3:113.0 4:10.0 5:326.0 6:71.0 7:63.0 8:31.0 9:71.097496 10:2.45 11:6.4 12:6.3109984 13:11.208143 14:5.41 15:50.0 16:0.8875 17:0.3875 18:3.4659054 19:0.7875 20:7.043614 21:4.9805875 22:0.012440889 23:0.9454837 24:0.9620587 25:80.38011 26:1.2698413 27:7.043614 28:3.59996 29:3.59996 30:55.0 31:54.0 32:37.0 33:32.0 34:16.0 35:9.0 36:2.3898087 37:2.3898087 38:16.0 39:1.6666666 40:0.0 41:1.0 
-0.4482421875 -1.0 0.4482421875 0.1376953125 0.0693359375 1:97.0 2:2.0 3:139.0 4:15.0 5:418.0 6:76.0 7:73.0 8:49.0 9:36.37657 10:14.93 11:19.2 12:8.928248 13:18.7741 14:21.41 15:49.48453608247423 16:0.78350514 17:0.5051546 18:4.9751964 19:0.7525773 20:7.412027 21:5.2410946 22:0.013582368 23:0.9378646 24:0.95781136 25:73.62486 26:1.3287672 27:7.412027 28:4.2311068 29:4.2311068 30:50.0 31:54.0 32:34.0 33:28.0 34:10.0 35:14.0 36:3.4453998 37:3.4453998 38:48.5 39:1.0 40:2.0 41:1.0 
-0.44921875 -1.0 0.4482421875 0.1376953125 0.0693359375 1:67.0 2:6.0 3:88.0 4:3.0 5:257.0 6:47.0 7:49.0 8:33.0 9:84.384415 10:0.5 11:4.4 12:4.103881 13:7.1686215 14:-1.8 15:44.776119402985074 16:0.70149255 17:0.49253732 18:4.031592 19:0.73134327 20:5.986303 21:4.2329555 22:0.017696958 23:0.92558974 24:0.9461606 25:56.506886 26:1.3673469 27:5.986303 28:2.1597698 29:2.1597698 30:38.0 31:34.0 32:24.0 33:18.0 34:16.0 35:7.0 36:1.4313357 37:1.4313357 38:11.166667 39:1.5 40:1.0 41:0.0 
-0.4482421875 -1.0 0.4482421875 0.1376953125 0.0693359375 1:94.0 2:6.0 3:143.0 4:18.0 5:434.0 6:73.0 7:70.0 8:48.0 9:62.233334 10:2.06 11:6.0 12:9.458723 13:13.023867 14:4.91 15:59.57446808510638 16:0.7765958 17:0.5106383 18:4.950822 19:0.7446808 20:7.219949 21:5.1052747 22:0.014281866 23:0.93511325 24:0.95567834 25:70.01886 26:1.3428571 27:7.219949 28:2.3576236 29:2.3576236 30:49.0 31:50.0 32:35.0 33:29.0 34:17.0 35:15.0 36:2.4008105 37:2.4008105 38:15.666667 39:2.0 40:1.0 41:0.0 
-0.4482421875 -1.0 0.4482421875 0.1376953125 0.0693359375 1:101.0 2:5.0 3:139.0 4:8.0 5:400.0 6:85.0 7:69.0 8:42.0 9:69.9023 10:4.01 11:8.0 12:6.0217824 13:10.355216 14:2.7 15:52.475247524752476 16:0.84158415 17:0.41584158 18:4.1791563 19:0.6831683 20:6.8657565 21:4.854823 22:0.017888539 23:0.91744226 24:0.9436582 25:55.90172 26:1.4637681 27:6.8657565 28:3.6190348 29:3.6190348 30:61.0 31:58.0 32:30.0 33:16.0 34:19.0 35:8.0 36:3.92753 37:3.92753 38:20.2 39:2.5 40:2.0 41:0.0 
-0.4482421875 -1.0 0.4482421875 0.1376953125 0.0693359375 1:64.0 2:5.0 3:116.0 4:19.0 5:345.0 6:48.0 7:53.0 8:35.0 9:40.5055 10:0.89 11:4.8 12:13.584375 13:14.265292 14:8.12 15:51.5625 16:0.75 17:0.546875 18:4.375 19:0.828125 20:6.625 21:4.684582 22:0.01090355 23:0.9546534 24:0.96743935 25:91.71325 26:1.2075472 27:6.625 28:2.3127456 29:2.3127456 30:30.0 31:30.0 32:20.0 33:10.0 34:11.0 35:10.0 36:1.3643222 37:1.3643222 38:12.8 39:2.5 40:0.0 41:1.0 
-0.4482421875 -1.0 0.4482421875 0.1376953125 0.0693359375 1:114.0 2:5.0 3:152.0 4:9.0 5:446.0 6:88.0 7:73.0 8:43.0 9:70.893 10:4.79 11:8.8 12:5.905966 13:10.793553 14:3.7 15:56.14035087719298 16:0.7719298 17:0.37719297 18:4.027319 19:0.6403509 20:6.837076 21:4.834543 22:0.019871052 23:0.90588677 24:0.93644625 25:50.324463 26:1.5616438 27:6.837076 28:3.0140507 29:3.0140507 30:72.0 31:66.0 32:46.0 33:25.0 34:21.0 35:10.0 36:3.6438797 37:3.6438797 38:22.8 39:1.6666666 40:0.0 41:0.0 
-0.4482421875 -1.0 0.4482421875 0.1376953125 0.0693359375 1:97.0 2:5.0 3:131.0 4:6.0 5:368.0 6:86.0 7:70.0 8:40.0 9:72.89039 10:3.62 11:7.6 12:4.9818554 13:9.3871 14:2.2 15:48.45360824742268 16:0.88659793 17:0.41237113 18:4.0613847 19:0.72164947 20:7.1074233 21:5.0257072 22:0.01558754 23:0.9286915 24:0.95134723 25:64.1538 26:1.3857143 27:7.1074233 28:4.1992846 29:4.1992846 30:63.0 31:64.0 32:40.0 33:27.0 34:24.0 35:12.0 36:6.921233 37:6.921233 38:19.4 39:1.6666666 40:3.0 41:1.0 
-0.4482421875 -1.0 0.4482421875 0.1376953125 0.0693359375 1:83.0 2:5.0 3:110.0 4:10.0 5:348.0 6:69.0 7:61.0 8:29.0 9:77.865524 10:2.45 11:6.4 12:7.0703607 13:11.208143 14:5.41 15:48.19277108433735 16:0.8313253 17:0.3493976 18:3.1831636 19:0.73493975 20:6.69562 21:4.734518 22:0.015772013 23:0.93030596 24:0.9513811 25:63.403446 26:1.3606558 27:6.69562 28:2.226974 29:2.226974 30:51.0 31:45.0 32:35.0 33:24.0 34:16.0 35:10.0 36:3.4744556 37:3.4744556 38:16.6 39:2.5 40:1.0 41:1.0 
-0.4482421875 -1.0 0.4482421875 0.1376953125 0.0693359375 1:76.0 2:5.0 3:124.0 4:16.0 5:363.0 6:63.0 7:55.0 8:33.0 9:53.375423 10:2.06 11:6.0 12:10.337367 13:13.3483715 14:4.91 15:51.31578947368421 16:0.82894737 17:0.43421054 18:3.7853596 19:0.7236842 20:6.308933 21:4.461089 22:0.017243179 23:0.9253244 24:0.9470499 25:57.993946 26:1.3818182 27:6.308933 28:4.1204653 29:4.1204653 30:41.0 31:38.0 32:31.0 33:23.0 34:16.0 35:7.0 36:2.3175387 37:2.3175387 38:15.2 39:5.0 40:2.0 41:0.0 
-1.0 -1.0 -1.0 0.3076171875 0.1533203125 1:214.0 2:11.0 3:319.0 4:26.0 5:922.0 6:178.0 7:114.0 8:75.0 9:60.979286 10:3.62 11:7.6 12:8.011963 13:10.65028 14:6.91 15:51.4018691588785 16:0.8317757 17:0.3504673 18:5.1268945 19:0.53271025 20:7.7928796 21:5.510398 22:0.021872062 23:0.88263506 24:0.92569184 25:45.720425 26:1.877193 27:7.7928796 28:7.668622 29:7.668622 30:137.0 31:115.0 32:74.0 33:68.0 34:38.0 35:26.0 36:8.416824 37:8.416824 38:19.454546 39:5.5 40:9.0 41:0.0 
-1.0 -1.0 -1.0 0.30859375 0.154296875 1:165.0 2:7.0 3:212.0 4:12.0 5:647.0 6:140.0 7:99.0 8:58.0 9:74.21182 10:5.18 11:9.2 12:6.00097 13:10.355216 14:4.2 15:49.696969696969695 16:0.8484849 17:0.35151514 18:4.515294 19:0.6 20:7.7071395 21:5.4497705 22:0.019593874 23:0.89995474 24:0.9353469 25:51.036358 26:1.6666666 27:7.7071395 28:7.5583744 29:7.5583744 30:112.0 31:87.0 32:59.0 33:42.0 34:20.0 35:13.0 36:5.5991564 37:5.5991564 38:23.571428 39:3.5 40:2.0 41:0.0 
-1.0 -1.0 -1.0 0.3076171875 0.154296875 1:172.0 2:7.0 3:245.0 4:15.0 5:721.0 6:148.0 7:108.0 8:68.0 9:61.38919 10:5.57 11:9.6 12:7.6434894 13:11.208143 14:9.41 15:46.51162790697674 16:0.8604651 17:0.39534885 18:5.1849513 19:0.627907 20:8.234922 21:5.82297 22:0.017563066 23:0.90959424 24:0.942169 25:56.93767 26:1.5925926 27:8.234922 28:6.2324924 29:6.2324924 30:110.0 31:94.0 32:76.0 33:52.0 34:31.0 35:19.0 36:7.2062273 37:7.2062273 38:24.571428 39:7.0 40:5.0 41:3.0 
-1.0 -1.0 -1.0 0.3076171875 0.154296875 1:221.0 2:13.0 3:315.0 4:18.0 5:958.0 6:190.0 7:136.0 8:88.0 9:68.99629 10:2.84 11:6.8 12:7.9476924 13:9.3871 14:5.91 15:51.58371040723983 16:0.8597285 17:0.39819005 18:5.9195204 19:0.61538464 20:9.14835 21:6.46886 22:0.016661124 23:0.9100605 24:0.9441039 25:60.019962 26:1.625 27:9.14835 28:6.0347543 29:6.0347543 30:126.0 31:127.0 32:93.0 33:55.0 34:32.0 35:24.0 36:5.271858 37:5.271858 38:17.0 39:1.8571428 40:6.0 41:1.0 
-1.0 -1.0 -1.0 0.3076171875 0.154296875 1:153.0 2:4.0 3:234.0 4:21.0 5:694.0 6:116.0 7:111.0 8:72.0 9:38.623013 10:11.03 11:15.2 12:10.097517 13:15.774803 14:16.41 15:56.209150326797385 16:0.75816995 17:0.47058824 18:5.820855 19:0.7254902 20:8.973818 21:6.3454475 22:0.01268144 23:0.9362068 24:0.95919615 25:78.8554 26:1.3783784 27:8.973818 28:5.5507045 29:5.5507045 30:84.0 31:82.0 32:52.0 33:40.0 34:31.0 35:18.0 36:5.888014 37:5.888014 38:38.25 39:1.3333334 40:12.0 41:4.0 
-1.0 -1.0 -1.0 0.3076171875 0.154296875 1:207.0 2:13.0 3:281.0 4:16.0 5:863.0 6:164.0 7:125.0 8:85.0 9:75.8296 10:2.06 11:6.0 12:6.855265 13:9.029199 14:4.91 15:49.275362318840585 16:0.79227054 17:0.41062802 18:5.9079084 19:0.6038647 20:8.688101 21:6.143415 22:0.017737078 23:0.90541315 24:0.9406379 25:56.379074 26:1.656 27:8.688101 28:5.4378653 29:5.4378653 30:125.0 31:121.0 32:75.0 33:38.0 34:28.0 35:25.0 36:8.315439 37:8.315439 38:15.923077 39:6.5 40:1.0 41:0.0 
-1.0 -1.0 -1.0 0.3076171875 0.1533203125 1:244.0 2:11.0 3:345.0 4:27.0 5:1047.0 6:186.0 7:137.0 8:87.0 9:64.7016 10:4.79 11:8.8 12:8.096558 13:10.793553 14:8.41 15:51.229508196721305 16:0.76229507 17:0.35655737 18:5.5696044 19:0.5614754 20:8.770526 21:6.201699 22:0.019100236 23:0.8950028 24:0.93491006 25:52.355377 26:1.781022 27:8.770526 28:10.115027 29:10.115027 30:134.0 31:144.0 32:91.0 33:60.0 34:51.0 35:28.0 36:10.275203 37:10.275203 38:22.181818 39:1.2222222 40:18.0 41:3.0 
-1.0 -1.0 -1.0 0.3076171875 0.1533203125 1:118.0 2:5.0 3:191.0 4:20.0 5:566.0 6:86.0 7:85.0 8:52.0 9:45.943707 10:5.18 11:9.2 12:11.149832 13:14.554592 14:8.91 15:58.47457627118644 16:0.7288136 17:0.44067797 18:4.786988 19:0.720339 20:7.8248844 21:5.5330286 22:0.014413074 23:0.9312398 24:0.9544071 25:69.381454 26:1.3882353 27:7.8248844 28:6.12478 29:6.12478 30:62.0 31:66.0 32:46.0 33:32.0 34:32.0 35:10.0 36:2.9598207 37:2.9598207 38:23.6 39:1.6666666 40:7.0 41:1.0 
-1.0 -1.0 -1.0 0.3076171875 0.154296875 1:140.0 2:6.0 3:206.0 4:16.0 5:606.0 6:101.0 7:100.0 8:74.0 9:58.668816 10:5.18 11:9.2 12:8.383427 13:12.457975 14:8.91 15:49.28571428571429 16:0.7214286 17:0.5285714 18:6.2541413 19:0.71428573 20:8.451543 21:5.976143 22:0.013778648 23:0.9319109 24:0.95586264 25:72.576065 26:1.4 27:8.451543 28:2.259717 29:2.259717 30:76.0 31:63.0 32:56.0 33:32.0 34:22.0 35:20.0 36:3.7000265 37:3.7000265 38:23.333334 39:1.2 40:4.0 41:3.0 
-1.0 -1.0 -1.0 0.3076171875 0.154296875 1:91.0 2:7.0 3:163.0 4:20.0 5:476.0 6:63.0 7:67.0 8:47.0 9:42.10374 10:1.28 11:5.2000003 12:12.679998 13:12.457975 14:8.62 15:56.043956043956044 16:0.6923077 17:0.51648355 18:4.9269385 19:0.73626375 20:7.0235085 21:4.9663706 22:0.015046643 23:0.9321267 24:0.9533441 25:66.46001 26:1.358209 27:7.0235085 28:2.7587242 29:2.7587242 30:44.0 31:38.0 32:34.0 33:20.0 34:15.0 35:7.0 36:4.852445 37:4.852445 38:13.0 39:3.5 40:1.0 41:0.0 
-1.0 -1.0 -1.0 0.3076171875 0.1533203125 1:132.0 2:6.0 3:189.0 4:18.0 5:566.0 6:109.0 7:82.0 8:48.0 9:63.373188 10:4.79 11:8.8 12:8.067274 13:13.023867 14:8.41 15:53.03030303030303 16:0.82575756 17:0.36363637 18:4.1778636 19:0.6212121 20:7.1371837 21:5.046751 22:0.01996844 23:0.90249807 24:0.9353046 25:50.07902 26:1.6097561 27:7.1371837 28:5.585735 29:5.585735 30:69.0 31:73.0 32:54.0 33:41.0 34:17.0 35:18.0 36:5.20602 37:5.20602 38:22.0 39:1.5 40:0.0 41:0.0 
-1.0 -1.0 -1.0 0.3076171875 0.1533203125 1:173.0 2:7.0 3:233.0 4:18.0 5:742.0 6:138.0 7:114.0 8:75.0 9:67.80896 10:5.57 11:9.6 12:8.221734 13:11.979248 14:9.41 15:55.49132947976878 16:0.7976879 17:0.433526 18:5.7021446 19:0.6589595 20:8.667259 21:6.128678 22:0.015705928 23:0.9190628 24:0.94852465 25:63.670223 26:1.5175439 27:8.667259 28:7.3278303 29:7.3278303 30:97.0 31:98.0 32:62.0 33:36.0 34:37.0 35:19.0 36:6.2846 37:6.2846 38:24.714285 39:1.75 40:5.0 41:4.0 
-1.0 -1.0 -1.0 0.3076171875 0.1533203125 1:179.0 2:11.0 3:267.0 4:22.0 5:820.0 6:143.0 7:121.0 8:84.0 9:64.12712 10:2.45 11:6.4 12:9.317318 13:10.04758 14:5.41 15:58.10055865921788 16:0.79888266 17:0.46927375 18:6.278455 19:0.67597765 20:9.043964 21:6.3950486 22:0.014552591 23:0.9245101 24:0.9523206 25:68.716286 26:1.4793389 27:9.043964 28:9.099632 29:9.099632 30:99.0 31:92.0 32:64.0 33:38.0 34:35.0 35:17.0 36:6.796114 37:6.796114 38:16.272728 39:2.75 40:5.0 41:1.0 
-1.0 -1.0 -1.0 -1.0 0.5 1:404.0 2:28.0 3:593.0 4:48.0 5:1758.0 6:330.0 7:230.0 8:154.0 9:68.012276 10:1.67 11:5.6 12:7.7352486 13:10.355216 14:4.41 15:53.46534653465347 16:0.8168317 17:0.38118812 18:7.6617866 19:0.5693069 20:11.442927 21:8.091372 22:0.015640832 23:0.9061329 24:0.9449946 25:63.935215 26:1.7565217 27:11.442927 28:16.745182 29:16.745182 30:255.0 31:246.0 32:144.0 33:131.0 34:67.0 35:63.0 36:16.898298 37:16.898298 38:14.428572 39:3.5 40:7.0 41:2.0 
-1.0 -1.0 -1.0 -1.0 0.5 1:285.0 2:16.0 3:395.0 4:33.0 5:1210.0 6:225.0 7:164.0 8:113.0 9:71.502686 10:2.84 11:6.8 12:7.502456 13:9.120679 14:5.91 15:51.92982456140351 16:0.7894737 17:0.39649123 18:6.6935425 19:0.5754386 20:9.714521 21:6.869204 22:0.017296143 23:0.9022337 24:0.9406028 25:57.816357 26:1.7378049 27:9.714521 28:8.349018 29:8.349018 30:173.0 31:160.0 32:94.0 33:52.0 34:37.0 35:31.0 36:7.2948275 37:7.2948275 38:17.8125 39:4.0 40:4.0 41:3.0 
-1.0 -1.0 -1.0 -1.0 0.5 1:186.0 2:11.0 3:242.0 4:18.0 5:753.0 6:144.0 7:117.0 8:76.0 9:79.60131 10:2.45 11:6.4 12:6.2539787 13:9.3871 14:5.41 15:50.53763440860215 16:0.7741935 17:0.40860215 18:5.5725904 19:0.62903225 20:8.578856 21:6.0661674 22:0.016975446 23:0.91129065 24:0.94382346 25:58.908615 26:1.5897436 27:8.578856 28:9.532147 29:9.532147 30:103.0 31:107.0 32:64.0 33:39.0 34:26.0 35:20.0 36:6.539491 37:6.539491 38:16.90909 39:2.75 40:3.0 41:0.0 
-1.0 -1.0 -1.0 -1.0 0.5 1:476.0 2:24.0 3:666.0 4:46.0 5:2020.0 6:402.0 7:220.0 8:155.0 9:68.33526 10:3.62 11:7.6 12:7.6605043 13:10.203071 14:6.91 15:49.57983193277311 16:0.8445378 17:0.32563025 18:7.1044135 19:0.46218488 20:10.083683 21:7.130241 22:0.020303657 23:0.87481946 24:0.9264755 25:49.25221 26:2.1636364 27:10.083683 28:16.623684 29:16.623684 30:310.0 31:276.0 32:177.0 33:137.0 34:74.0 35:63.0 36:16.214384 37:16.214384 38:19.833334 39:3.0 40:7.0 41:2.0 
-1.0 -1.0 -1.0 -1.0 -1.0 1:470.0 2:24.0 3:673.0 4:52.0 5:2082.0 6:385.0 7:233.0 8:172.0 9:65.81792 10:3.62 11:7.6 12:8.73566 13:10.65028 14:6.91 15:51.91489361702127 16:0.81914896 17:0.36595744 18:7.9337683 19:0.49574468 20:10.747489 21:7.5996222 22:0.01853582 23:0.885954 24:0.93335325 25:53.949593 26:2.0171673 27:10.747489 28:17.80552 29:17.80552 30:302.0 31:241.0 32:194.0 33:135.0 34:98.0 35:66.0 36:17.288176 37:17.288176 38:19.583334 39:8.0 40:17.0 41:4.0 
-1.0 -1.0 -1.0 -1.0 -1.0 1:345.0 2:10.0 3:549.0 4:57.0 5:1661.0 6:300.0 7:182.0 8:117.0 9:37.193157 10:9.47 11:13.6 12:11.651247 13:16.768095 14:14.41 15:56.231884057971016 16:0.8695652 17:0.33913043 18:6.2990685 19:0.5275362 20:9.798551 21:6.928622 22:0.018728951 23:0.8905565 24:0.9343419 25:53.393272 26:1.8956044 27:9.798551 28:16.821215 29:16.821215 30:197.0 31:224.0 32:150.0 33:124.0 34:89.0 35:43.0 36:16.706573 37:16.706573 38:34.5 39:2.5 40:3.0 41:1.0 
