svm_type c_svc
kernel_type rbf
gamma 1.0
nr_class 6
total_sv 576
rho 0.1494449598738895 0.29272310668481105 0.4485719739372113 0.5192208878361019 0.5493947747132939 0.09272065621691566 0.29994800265677096 0.3740961863272966 0.4086099544306805 0.24439682791031966 0.30108409404802844 0.33354559690147917 0.11508115197899378 0.15212159417645452 0.04696605112578246
label 1 2 3 4 5 6
nr_sv 82 98 98 100 99 99
SV
1.0 0.3152328935413054 0.39891947094376734 0.4176628063242249 0.4243583287527632 1:-1.1294255415502894 2:-1.254975314838529 3:-1.0822580132370263 4:-0.916843686214547 5:-1.0957509119154112 6:-1.1048597911695937 7:-1.2223535329375725 8:-1.1638368203942113 9:0.6674513436588987 10:-1.321304811074241 11:1.08840875507311 12:-1.463229741561498 13:-1.4632297415614994 14:0.7885830038256743 15:0.3203028283446796 16:-1.054494245052119 17:-1.463229741561498 18:-0.6897458722906608 19:-1.091179748759306 20:-1.0841255343554452 21:-1.0298124027391324 22:-0.9518128280356903 23:-0.9983770962350998 24:-1.0793446659528145 25:-0.8662419528321857 26:-0.8595618722740974 27:-0.6257399132720064 
0.12591608518410294 0.2892542065348989 0.3007811389028151 0.31592984014400416 0.3211290262652715 1:-1.1377115806511588 2:-1.254975314838529 3:-1.092817821969966 4:-1.0123630629240918 5:-1.09399107201391 6:-1.115217315829945 7:-1.2223535329375725 8:-1.1638368203942113 9:0.8720678573997815 10:-1.296734067154198 11:1.2963835542923163 12:-1.4292371362761105 13:-1.429237136276112 14:1.0978801997028886 15:0.7501901823240045 16:-1.192563837363784 17:-1.4292371362761105 18:-1.0801729427500388 19:-1.1054010625917465 20:-1.099286724972502 21:-1.1752187224953792 22:-1.2124048468320647 23:-1.1245582567552923 24:-1.1442385718094241 25:-1.0954229011730219 26:0.41605328952824877 27:-0.04695444984736337 
0.8877699093185705 0.5213786560766744 0.585125994284587 0.611754519108515 0.6225424772492312 1:-1.1294255415502894 2:-0.4819739991517336 3:-1.1456168656346644 4:-1.0601227512788645 5:-1.134467389748434 6:-1.0737872171885399 7:-1.159437703124897 8:-1.1850408937387487 9:0.27025458169130206 10:-1.417414386585773 11:2.0688613799636517 12:-1.1403181120851782 13:-1.1403181120851797 14:2.2402758613400824 15:2.3864878254880852 16:-1.6412900123766965 17:-1.1403181120851782 18:-1.0445811310621331 19:-1.0627371210944252 20:-1.0841255343554452 21:-1.0713570655266316 22:-1.1544955093217593 23:-1.1245582567552923 24:-1.2091324776660337 25:-1.1274460026969337 26:-0.6469593453070398 27:-0.6257399132720064 
1.0 0.23627622159198852 0.24755367429038122 0.26038520367275436 0.2649983685267455 1:-1.1045674242476813 2:-1.10037505170117 3:-1.0664183001376168 4:-0.8213243095050022 5:-1.0746328330973984 6:-1.0427146432074859 7:-1.190895618031235 8:-1.1850408937387487 9:-0.24502770410449837 10:-1.4810733919462407 11:0.9824138767065658 12:-1.4020317235997433 13:-1.4020317235997453 14:0.6727634038292012 15:0.2099761143667399 16:-0.9808571291525636 17:-1.4020317235997433 18:-0.9053263819846006 19:-1.0058518657646633 20:-1.099286724972502 21:-1.0713570655266316 22:-0.9518128280356903 23:-1.040437483075164 24:-1.0793446659528145 25:-0.988994832958387 26:-0.8595618722740974 27:-0.04695444984736337 
1.0 1.0 1.0 1.0 1.0 1:-0.8725583294233386 2:-0.6365742622890926 3:-0.8288226036464744 4:-0.58252586773114 5:-0.7895387690542287 6:-0.8873517733022163 7:-0.781942724248844 8:-0.718551280158926 9:1.8101558742425998 10:-0.3137745136224489 11:1.4051703723454396 12:-0.4540120713543679 13:-0.4540120713543699 14:1.5306371589614867 15:1.6123077018051541 16:-1.2615986335196163 17:-0.4540120713543679 18:-0.8578271302418471 19:-0.9205239827700205 20:-0.8718688657166481 21:-1.0090400713453829 22:-0.7780848155047742 23:-0.7880751620347789 24:-1.1442385718094241 25:-0.844969502001546 26:-0.4343568183399821 27:-0.6257399132720064 
1.0 0.7277461070614193 0.7202048334605817 0.7556546993813263 0.7710581911568026 1:-1.029993072339857 2:-0.9457747885638108 3:-1.0769781088705566 4:-1.0123630629240918 5:-1.053514754279386 6:-1.011642069226432 7:-1.0807929158590528 8:-0.9942042336379121 9:1.254611774393606 10:-0.8894677805616338 11:0.928552348840957 12:-1.1556647065346088 13:-1.1556647065346104 14:0.719248052489539 15:0.40817229748941325 16:-0.9425459269615795 17:-1.1556647065346088 18:-1.0892155970335187 19:-0.9489666104349014 20:-1.0234807718872174 21:-1.0921293969203811 22:-1.0097221655459958 23:-1.2086790304354207 24:-1.014450760096205 25:-1.157844188204412 26:-0.4343568183399821 27:0.5318310135772796 
0.2653377689238084 0.367115033276394 0.412890155726173 0.44064999521214454 0.4531847378988594 1:-1.162569697953767 2:-1.10037505170117 3:-1.1456168656346644 4:-1.0601227512788645 5:-1.1415067493544384 6:-1.146289889810999 7:-1.2066245754844036 8:-1.2274490404278233 9:0.21729501342895607 10:-1.5227372059396351 11:2.281292782023269 12:-1.231309963340344 13:-1.2313099633403455 14:2.5172339899256966 15:2.7560711273226604 16:-1.7496032270349855 17:-1.231309963340344 18:-0.9914910368174554 19:-1.1622863179215084 20:-1.099286724972502 21:-1.1752187224953792 22:-1.1255408405666065 23:-1.040437483075164 24:-1.2091324776660337 25:-1.1958142815555974 26:-0.6469593453070398 27:-0.6257399132720064 
0.6390362271107954 0.469306169654753 0.6035607113768827 0.6336338425218637 0.6454190452770285 1:-1.1377115806511588 2:-1.10037505170117 3:-1.1614565787340738 4:-1.1556421279884093 5:-1.1555854685664468 6:-1.146289889810999 7:-1.2380824903907415 8:-1.206244967083286 9:0.05360180243624933 10:-1.4918438939325616 11:1.0438427266689954 12:-1.5111790652625254 13:-1.5111790652625274 14:0.699131967854574 15:0.16918328828518245 16:-1.023812113427304 17:-1.5111790652625254 18:-0.9895872315673275 19:-1.1338436902566273 20:-1.114447915589559 21:-1.1129017283141307 22:-1.1544955093217593 23:-1.0824978699152281 24:-0.8846629483829858 25:-1.2265707929058023 26:0.20345076256119105 27:-0.6257399132720064 
0.9397328367752923 0.4422264393014735 0.5223999676646517 0.5598213868020222 0.5768479575789388 1:-1.1708557370546364 2:-1.10037505170117 3:-1.1033776307029057 4:-0.8213243095050022 5:-1.1133493109304216 6:-1.2084350377731068 7:-1.2380824903907415 8:-1.1214286737051364 9:2.763006674039666 10:-0.9779215310497301 11:1.9843396019558461 12:-1.3635246593524268 13:-1.3635246593524284 14:2.085791949219292 15:2.127550147955729 16:-1.5965452370905082 17:-1.3635246593524268 18:-1.0960997410106583 19:-1.176507631753949 20:-1.1902538686748436 21:-1.2167633852828783 22:-1.0965861718114538 23:-1.2507394172754849 24:-1.2091324776660337 25:-1.0509707791085 26:-0.8595618722740974 27:-0.6257399132720064 
1.0 0.7952042106946495 0.7804281156032393 0.8268367411646937 0.8465790410733771 1:-1.0382791114407262 2:-0.7911745254264517 3:-1.0505785870382074 4:-0.9646033745693195 5:-1.0587942739838891 6:-0.9391393966039728 7:-1.049335000952715 8:-1.1214286737051364 9:-0.3829134268776343 10:-1.3678878959812293 11:1.4479080508663091 12:-0.9869469948808269 13:-0.9869469948808284 14:1.458187047184072 15:1.3987352784532068 16:-1.2881504781949373 17:-0.9869469948808269 18:-0.9227721658252968 19:-0.8636387274402586 20:-0.9628360094189897 21:-0.9674954085578839 22:-0.8359941530150795 23:-1.040437483075164 24:-0.8197690425263762 25:-1.0524506740876645 26:-0.6469593453070398 27:-0.6257399132720064 
0.9432615187434106 1.0 1.0 1.0 1.0 1:-1.0879953460459426 2:-0.6365742622890926 3:-1.092817821969966 4:-1.0123630629240918 5:-1.1027902715214153 6:-1.011642069226432 7:-1.2066245754844036 8:-1.2910612604614355 9:-2.2758785078445727 10:-1.9680554407807793 11:0.4222037663654351 12:-1.5377184074530212 13:-1.5377184074530232 14:-0.20088639057448546 15:-1.0056589661545272 16:-0.5498260800508591 17:-1.5377184074530212 18:-1.0471054781370825 19:-0.8636387274402586 20:-1.0386419625042744 21:-1.0921293969203811 22:-1.1255408405666065 23:-0.9983770962350998 24:-0.9495568542395953 25:-0.9618781190790627 26:-0.6469593453070398 27:-0.6257399132720064 
1.0 0.6567144758481963 0.7229774024755127 0.7569982287978831 0.771574072916399 1:-1.0879953460459426 2:-1.10037505170117 3:-1.129777152535255 4:-1.0601227512788645 5:-1.1133493109304216 6:-1.0841447418488912 7:-1.175166660578066 8:-1.0366123803269869 9:1.8794106942779754 10:-0.891205818246772 11:0.849580551574132 12:-1.3869671839742133 13:-1.3869671839742153 14:0.4969992096248169 15:-0.004640928413876506 16:-0.8852476480249161 17:-1.3869671839742133 18:-0.9293421959241475 19:-1.0627371210944252 20:-1.0538031531213312 21:-1.1129017283141307 22:-1.0676315030563013 23:-1.0824978699152281 24:-1.0793446659528145 25:-1.0096674779954573 26:-0.00915176440586665 27:-0.6257399132720064 
1.0 0.9026577132519059 1.0 1.0 1.0 1:-1.1542836588528977 2:-1.10037505170117 3:-1.1456168656346644 4:-1.0123630629240918 5:-1.1432665892559395 6:-1.115217315829945 7:-1.300998320203417 8:-1.206244967083286 9:0.4496337645153782 10:-1.4453776460890806 11:0.40841741845547697 12:-1.7791013201429784 13:-1.7791013201429804 14:-0.4330131360474888 15:-1.5864724115854978 16:-0.5382340303215439 17:-1.7791013201429784 18:-0.6941511282280567 19:-1.1054010625917465 20:-1.1599314874407298 21:-1.0713570655266316 22:-1.1255408405666065 23:-1.040437483075164 24:-0.9495568542395953 25:-1.0632733188735208 26:-0.8595618722740974 27:-0.6257399132720064 
0.9983873665136475 0.3278489993566969 0.3846225784374117 0.4013828874080399 0.40967483426069995 1:-1.1874278152563753 2:-1.254975314838529 3:-1.1931360049328927 4:-1.1078824396336369 5:-1.1837429069904635 6:-1.1359323651506477 7:-1.316727277656586 8:-1.2698571871168982 9:-0.08280920672433949 10:-1.6609554181001511 11:1.0157826347108476 12:-1.7306265055592358 13:-1.7306265055592378 14:0.5172018233564603 15:-0.2663535145436164 16:-1.0042871205751494 17:-1.7306265055592358 18:-1.020396634351218 19:-1.1622863179215084 20:-1.0841255343554452 21:-1.1129017283141307 22:-1.0676315030563013 23:-1.040437483075164 24:-1.0793446659528145 25:-1.0911834048393072 26:-0.8595618722740974 27:-0.6257399132720064 
0.2600647215222368 0.21579273495801818 0.24412143474792553 0.25530384935249967 0.2614078713529512 1:-1.1377115806511588 2:-1.10037505170117 3:-1.1192173438023152 4:-0.9646033745693195 5:-1.1467862690589414 6:-1.1048597911695937 7:-1.190895618031235 8:-1.1638368203942113 9:0.8720678573997815 10:-1.296734067154198 11:1.8014652095389585 12:-1.26535327830328 13:-1.2653532783032817 14:1.85434342801373 15:1.8351954637321606 16:-1.4963169404494476 17:-1.26535327830328 18:-1.0891907814354391 19:-1.091179748759306 20:-1.0538031531213312 21:-1.0921293969203811 22:-0.8649488217702322 23:-0.9142563225549715 24:-0.8197690425263762 25:-1.2323303082408035 26:-0.22175429137292435 27:-0.04695444984736337 
1.0 0.05981377942851846 0.08940336906826042 0.09042196721384048 0.09114044496519662 1:-1.1045674242476813 2:-1.254975314838529 3:-1.1350570569017246 4:-1.1078824396336369 5:-1.1080697912259185 6:-1.0737872171885399 7:-1.175166660578066 8:-1.206244967083286 9:-0.6100193232098573 10:-1.5732042796227435 11:1.2076529932354734 12:-1.3246457427898768 13:-1.3246457427898786 14:1.0208918624610148 15:0.705209170485071 16:-1.1346636857492145 17:-1.3246457427898768 18:-1.0010419047272938 19:-1.0200731795971036 20:-1.0689643437383882 21:-1.050584734132882 22:-1.0965861718114538 23:-1.0824978699152281 24:-1.0793446659528145 25:-1.2044942933329255 26:-0.4343568183399821 27:-0.6257399132720064 
0.49086053632739707 0.08423887070024086 0.11126274025151271 0.13625143734045 0.15001178653877284 1:-1.1708557370546364 2:-0.9457747885638108 3:-1.129777152535255 4:-1.0123630629240918 5:-1.1309477099454321 6:-1.1670049391317014 7:-1.2380824903907415 8:-1.1426327470496738 9:2.2973277117328292 10:-1.0819871133508119 11:1.9843396019558461 12:-1.3635246593524268 13:-1.3635246593524284 14:2.085791949219292 15:2.127550147955729 16:-1.5965452370905082 17:-1.3635246593524268 18:-0.9980027726855253 19:-1.1338436902566273 20:-1.2054150592919006 21:-1.2583080480703774 22:-1.2703141843423702 23:-1.2507394172754849 24:-1.1442385718094241 25:-1.1313750587238538 26:-0.00915176440586665 27:-0.04695444984736337 
1.0 1.0 1.0 1.0 1.0 1:-1.203999893458114 2:-1.254975314838529 3:-1.187856100566423 4:-1.0601227512788645 5:-1.1714240276799561 6:-1.2084350377731068 7:-1.426829979828768 8:-1.2698571871168982 9:0.3973575455209328 10:-1.610182847310097 11:-0.7744512322189183 12:-2.3114495145738387 13:-2.3114495145738405 14:-3.1846031251924742 15:-6.497955555533823 16:0.6943872575623093 17:-2.3114495145738387 18:-1.1109274503465718 19:-1.176507631753949 20:-1.1902538686748436 21:-1.1129017283141307 22:-1.0965861718114538 23:-0.9983770962350998 24:-1.338920289379253 25:-1.0790893411589881 26:-0.4343568183399821 27:-0.04695444984736337 
0.7161162758955595 0.8602407614765578 0.9800430237178908 1.0 1.0 1:-1.1542836588528977 2:-1.10037505170117 3:-1.1614565787340738 4:-1.0123630629240918 5:-1.1591051483694488 6:-1.1566474144713503 7:-1.2066245754844036 8:-1.0790205270160618 9:3.063444714237625 10:-0.8414616666165986 11:2.0214201239205605 12:-1.271837886816172 13:-1.2718378868161737 14:2.1548175359344213 15:2.244888784796036 16:-1.6162946551478607 17:-1.271837886816172 18:-1.1854646876903494 19:-1.1338436902566273 20:-1.1447702968236728 21:-1.1959910538891287 22:-1.2413595155872175 23:-1.1245582567552923 24:-1.2091324776660337 25:-1.2382442768578008 26:0.20345076256119105 27:0.5318310135772796 
0.03516549454568794 0.4203001894745315 0.4313159325593691 0.45313829450648474 0.4611485282737228 1:-1.1791417761555059 2:-1.254975314838529 3:-1.1825761961999532 4:-1.1078824396336369 5:-1.1960617863009708 6:-1.1980775131127555 7:-1.2695404052970791 8:-1.1638368203942113 9:2.114382405112285 10:-1.154738496489648 11:1.666175480455037 12:-1.4996656164692335 13:-1.4996656164692352 14:1.5955133778470059 15:1.3931930656461007 16:-1.4189979687549148 17:-1.4996656164692335 18:-1.0141407004617962 19:-1.176507631753949 20:-1.1750926780577868 21:-1.1544463911016296 22:-1.0965861718114538 23:-1.2507394172754849 24:-1.1442385718094241 25:-1.0575912990959717 26:-0.8595618722740974 27:-0.6257399132720064 
1.0 0.863835260712015 0.8785248273439403 0.927135932036835 0.9481980844113422 1:-1.013420994138118 2:-1.254975314838529 3:-1.0452986826717374 4:-1.0123630629240918 5:-1.0024793971358557 6:-1.0841447418488912 7:-1.0021481285932083 8:-0.9305920136043 9:1.792842169233756 10:-0.6902962855975495 11:1.5173567784627222 12:-0.8700195009139283 13:-0.8700195009139302 14:1.5769809627761493 15:1.579721093013665 16:-1.3306334296754496 17:-0.8700195009139283 18:-1.1128298141177788 19:-1.0342944934295442 20:-1.0841255343554452 21:-0.9882677399516334 22:-1.0965861718114538 23:-1.0824978699152281 24:-1.2091324776660337 25:-0.9884314794024908 26:-0.6469593453070398 27:-0.04695444984736337 
0.3637684680417422 0.0 0.0 0.0 0.0 1:-1.1377115806511588 2:-1.10037505170117 3:-1.1192173438023152 4:-0.9646033745693195 5:-1.129187870043931 6:-1.1255748404902963 7:-1.2538114478439104 8:-1.2274490404278233 9:-0.35563122504551636 10:-1.589398807321743 11:0.7913018990456734 12:-1.5931209942489408 13:-1.5931209942489426 14:0.2853331256247064 15:-0.44057177498772737 16:-0.842079487649557 17:-1.5931209942489408 18:-1.0584069176521782 19:-1.091179748759306 20:-1.1750926780577868 21:-1.050584734132882 22:-1.1255408405666065 23:-1.0824978699152281 24:-1.0793446659528145 25:-1.1666045641847407 26:-0.6469593453070398 27:-0.6257399132720064 
1.0 0.6935913802933927 0.7919323687483779 0.8302079536259095 0.8465434907519538 1:-1.1791417761555059 2:-0.3273737360143746 3:-1.150896770001134 4:-1.0123630629240918 5:-1.1503059488619436 6:-1.1566474144713503 7:-1.285269362750248 8:-1.1850408937387487 9:1.6320720512944897 10:-1.2606460905061563 11:1.3685380764704076 12:-1.5886234377262936 13:-1.5886234377262953 14:1.125856544986197 15:0.6904384568858399 16:-1.2385870348010055 17:-1.5886234377262936 18:-1.1561412464149863 19:-1.1480650040890679 20:-1.114447915589559 21:-1.1544463911016296 22:-1.1544955093217593 23:-0.9142563225549715 24:-1.1442385718094241 25:-1.1115731148694892 26:-0.6469593453070398 27:-0.6257399132720064 
1.0 1.0 1.0 1.0 1.0 1:-0.7648398211120365 2:-0.6365742622890926 3:-0.8288226036464744 4:-0.916843686214547 5:-0.8141765276752433 6:-0.7837765266987032 7:-0.7347558518893375 8:-0.824571646881613 9:-0.3713709568717384 10:-0.861186501137367 11:0.5290479626676091 12:-0.57899338227174 13:-0.5789933822717414 14:0.4427820044952335 15:0.3162699587139884 16:-0.6379453055355689 17:-0.57899338227174 18:-0.8422674386742065 19:-0.7640895306131753 20:-0.7505793407801926 21:-0.7597720946203885 22:-0.6333114717290106 23:-0.7039543883546505 24:-0.5601934190999378 25:-0.9963005379674078 26:-0.00915176440586665 27:-0.6257399132720064 
0.6719020514118316 0.05746105589456207 0.1719207592638291 0.18112576063976513 0.1861320066164197 1:-1.1377115806511588 2:-1.254975314838529 3:-1.0716982045040866 4:-0.8690839978597746 5:-1.0975107518169123 6:-1.1255748404902963 7:-1.2066245754844036 8:-1.100224600360599 9:2.0997669398450802 10:-1.004069326986653 11:1.5489243819156373 12:-1.3472952072896949 13:-1.3472952072896967 14:1.482634341660036 15:1.3048264054815346 16:-1.34967751137361 17:-1.3472952072896949 18:-0.8540197932064707 19:-1.1622863179215084 20:-1.099286724972502 21:-1.1129017283141307 22:-1.0676315030563013 23:-1.1245582567552923 24:-1.0793446659528145 25:-1.0080654224905785 26:-0.8595618722740974 27:-0.6257399132720064 
1.0 0.2897043048646109 0.3506568421495504 0.37112558554794844 0.3797167776019754 1:-1.1128534633485507 2:-1.10037505170117 3:-1.061138395771147 4:-0.8213243095050022 5:-1.0675934734913943 6:-1.0737872171885399 7:-1.190895618031235 8:-1.206244967083286 9:-0.4579394819159578 10:-1.5541418161659224 11:1.1701131404806557 12:-1.3700084256925733 13:-1.3700084256925749 14:0.9488573553535031 15:0.5870405462733393 16:-1.109722081976785 17:-1.3700084256925733 18:-0.9883154712860028 19:-1.0627371210944252 20:-1.099286724972502 21:-1.0921293969203811 22:-1.0965861718114538 23:-1.2507394172754849 24:-1.1442385718094241 25:-0.9268953250455784 26:-0.8595618722740974 27:-0.6257399132720064 
1.0 0.28711888475591185 0.310082539941466 0.3232663678288842 0.3289639166318939 1:-1.096281385146812 2:-1.254975314838529 3:-1.0505785870382074 4:-0.8213243095050022 5:-1.0640737936883922 6:-1.0634296925281885 7:-1.159437703124897 8:-1.1638368203942113 9:-0.043321809335747655 10:-1.409688123417262 11:1.2432170642663534 12:-1.2800605663083544 13:-1.2800605663083564 14:1.0882070156465813 15:0.8146573782352999 16:-1.1580464392858678 17:-1.2800605663083544 18:-1.0580803214170014 19:-1.0627371210944252 20:-1.0689643437383882 21:-0.9882677399516334 22:-0.9228581592805376 23:-1.1245582567552923 24:-0.9495568542395953 25:-1.0536018336373791 26:-0.8595618722740974 27:-0.04695444984736337 
0.7435947666501692 0.380974680488124 0.4349511041576287 0.457091741708962 0.4669611219191676 1:-1.1211395024494202 2:-0.7911745254264517 3:-1.0769781088705566 4:-0.8690839978597746 5:-1.0728729931958976 6:-1.0945022665092423 7:-1.2380824903907415 8:-1.206244967083286 9:-0.29716936397669313 10:-1.5342681174441133 11:0.6542083069072996 12:-1.5753212049162646 13:-1.5753212049162664 14:0.10107364392150052 15:-0.6615704773349164 16:-0.737445551595702 17:-1.5753212049162646 18:-1.1682358629362508 19:-1.0769584349268655 20:-1.1750926780577868 21:-1.1959910538891287 22:-1.1255408405666065 23:-1.1245582567552923 24:-1.2740263835226433 25:-1.1625098731004153 26:-0.8595618722740974 27:-0.6257399132720064 
0.4030858370175273 0.04298976403220899 0.06325207755543065 0.06606944844035494 0.068198550769049 1:-1.1211395024494202 2:-1.10037505170117 3:-1.1192173438023152 4:-1.0123630629240918 5:-1.1045501114229164 6:-1.1359323651506477 7:-1.159437703124897 8:-1.1426327470496738 9:0.8603754851860163 10:-1.2500882219788787 11:1.8447579228458135 12:-1.1774897339941401 13:-1.1774897339941417 14:1.933079535253687 15:1.9646421966722454 16:-1.5204791191039893 17:-1.1774897339941401 18:-1.1781528555394771 19:-1.119622376424187 20:-1.1447702968236728 21:-1.0921293969203811 22:-1.183450178076912 23:-1.1245582567552923 24:-1.0793446659528145 25:-1.1853947497987187 26:-0.8595618722740974 27:-0.04695444984736337 
0.17819277997891889 0.14325466916633137 0.1952924659120042 0.20639336286517537 0.21179152956571148 1:-1.1708557370546364 2:-0.4819739991517336 3:-1.1825761961999532 4:-1.1078824396336369 5:-1.1749437074829583 6:-1.1359323651506477 7:-1.2538114478439104 8:-1.1850408937387487 9:1.3659697871191545 10:-1.2901182779529758 11:1.6969655567293085 12:-1.450935270039216 13:-1.4509352700392177 14:1.6561145897493317 15:1.4988840279730336 16:-1.4368408083767303 17:-1.450935270039216 18:-1.1292902341611017 19:-1.1338436902566273 20:-1.0841255343554452 21:-1.1544463911016296 22:-1.183450178076912 23:-1.1245582567552923 24:-0.9495568542395953 25:-1.1165513431202387 26:-0.4343568183399821 27:-0.6257399132720064 
0.23634914253826464 0.4193930297213402 0.5117367596827691 0.5370258944281433 0.5458902893490282 1:-1.162569697953767 2:-0.9457747885638108 3:-1.1192173438023152 4:-0.9646033745693195 5:-1.1203886705364259 6:-1.1048597911695937 7:-1.2380824903907415 8:-1.1850408937387487 9:1.1176076738888412 10:-1.3181042932495421 11:1.7257029612519625 12:-1.4031928036545087 13:-1.4031928036545107 14:1.7117758917841128 15:1.5947886302095007 16:-1.4533619561747073 17:-1.4031928036545087 18:-1.1385688292484357 19:-1.1054010625917465 20:-1.099286724972502 21:-1.1129017283141307 22:-0.9807674967908431 23:-1.040437483075164 24:-1.1442385718094241 25:-1.1939052362662208 26:0.41605328952824877 27:-0.6257399132720064 
1.0 1.0 1.0 1.0 1.0 1:-1.1459976197520283 2:-1.10037505170117 3:-1.1350570569017246 4:-1.0123630629240918 5:-1.129187870043931 6:-1.1048597911695937 7:-1.300998320203417 8:-1.2274490404278233 9:-0.1765917755222439 10:-1.5682228346346547 11:0.21519313602997203 12:-1.8097254360434156 13:-1.8097254360434174 14:-0.7536813131515793 15:-2.041010150278427 16:-0.3701493092464732 17:-1.8097254360434156 18:-0.667891528203321 19:-1.119622376424187 20:-1.0841255343554452 21:-1.0921293969203811 22:-1.0386768343011485 23:-1.040437483075164 24:-1.014450760096205 25:-0.9826678442516047 26:0.20345076256119105 27:-0.6257399132720064 
0.381109047318425 0.0 0.0 0.0 0.0 1:-1.1542836588528977 2:-1.10037505170117 3:-1.1086575350693755 4:-0.916843686214547 5:-1.1151091508319226 6:-1.146289889810999 7:-1.2066245754844036 8:-1.1638368203942113 9:1.3209040810894601 10:-1.2440723195982533 11:2.0214201239205605 12:-1.271837886816172 13:-1.2718378868161737 14:2.1548175359344213 15:2.244888784796036 16:-1.6162946551478607 17:-1.271837886816172 18:-1.0417907369634403 19:-1.176507631753949 20:-1.1447702968236728 21:-1.1752187224953792 22:-1.183450178076912 23:-1.1666186435953565 24:-1.014450760096205 25:-1.0080104147711901 26:-0.8595618722740974 27:-0.6257399132720064 
0.5718525913238668 0.6018543701777246 0.6613394137951999 0.6937156386279997 0.7059503428812512 1:-1.1874278152563753 2:-1.254975314838529 3:-1.1456168656346644 4:-0.9646033745693195 5:-1.1520657887634447 6:-1.1566474144713503 7:-1.2695404052970791 8:-1.2486531137723609 9:0.41736449353115235 10:-1.5531044033776398 11:1.9417656693296927 12:-1.4588558725133496 13:-1.4588558725133511 14:2.004152657549125 15:1.9854624000153973 16:-1.5736359121439802 17:-1.4588558725133496 18:-1.1291160295856306 19:-1.1480650040890679 20:-1.1750926780577868 21:-1.1544463911016296 22:-1.0965861718114538 23:-1.0824978699152281 24:-1.2091324776660337 25:-0.9961606255630159 26:-0.6469593453070398 27:-0.04695444984736337 
0.8335683546857093 1.0 1.0 1.0 1.0 1:-1.1957138543572445 2:-1.10037505170117 3:-1.1350570569017246 4:-0.916843686214547 5:-1.1520657887634447 6:-1.2187925624334581 7:-1.285269362750248 8:-1.1850408937387487 9:2.2256847944548546 10:-1.1966795248256274 11:1.9180225145958765 12:-1.5080296941556082 13:-1.50802969415561 14:1.957521986316451 15:1.9027367582004016 16:-1.5607494168615588 17:-1.5080296941556082 18:-1.1218071717211722 19:-1.2049502594188297 20:-1.2054150592919006 21:-1.1544463911016296 22:-1.183450178076912 23:-1.1666186435953565 24:-1.2091324776660337 25:-1.1474368242208226 26:-0.4343568183399821 27:1.1106164770019227 
0.6030521351404396 0.44274603424271397 0.4950334937973972 0.5279405718924085 0.5430813764074774 1:-1.1128534633485507 2:-0.9457747885638108 3:-1.1192173438023152 4:-1.0601227512788645 5:-1.1115894710289205 6:-1.0530721678678372 7:-1.1122508307653904 8:-1.1426327470496738 9:0.6674513436588987 10:-1.2739366604450497 11:2.3275919337542113 12:-0.9777413053253795 13:-0.977741305325381 14:2.597983258417168 15:2.888611621428706 16:-1.772456125072779 17:-0.9777413053253795 18:-1.0434269210274714 19:-1.091179748759306 20:-1.0689643437383882 21:-1.1544463911016296 22:-1.0965861718114538 23:-1.1666186435953565 24:-0.9495568542395953 25:-1.1394711726093865 26:-0.22175429137292435 27:-0.6257399132720064 
0.7698457606642685 0.9075370447074 1.0 1.0 1.0 1:-1.1957138543572445 2:-1.10037505170117 3:-1.1456168656346644 4:-0.9646033745693195 5:-1.1608649882709499 6:-1.1773624637920528 7:-1.2538114478439104 8:-1.1850408937387487 9:2.2256847944548546 10:-1.1966795248256274 11:2.5590876924089225 12:-1.3233979063439307 13:-1.3233979063439325 14:2.8993593079413023 15:3.2984143115770372 16:-1.882911798922111 17:-1.3233979063439307 18:-1.0618135202340329 19:-1.2049502594188297 20:-1.2054150592919006 21:-1.2167633852828783 22:-1.2124048468320647 23:-1.1666186435953565 24:-1.2740263835226433 25:-1.0140982120400897 26:-0.6469593453070398 27:-0.04695444984736337 
0.11336643156456329 0.0 0.0 0.0 0.0 1:-1.1211395024494202 2:-0.9457747885638108 3:-1.1350570569017246 4:-1.0601227512788645 5:-1.12742803014243 6:-1.1048597911695937 7:-1.159437703124897 8:-1.0790205270160618 9:2.017920334348726 10:-0.965908326513644 11:1.8447579228458135 12:-1.1774897339941401 13:-1.1774897339941417 14:1.933079535253687 15:1.9646421966722454 16:-1.5204791191039893 17:-1.1774897339941401 18:-0.9990463839722897 19:-1.0769584349268655 20:-1.114447915589559 21:-1.13367405970788 22:-1.0965861718114538 23:-1.1245582567552923 24:-0.7548751366697666 25:-1.1031118968010294 26:-0.4343568183399821 27:-0.04695444984736337 
1.0 0.6410338885190909 0.7414100389519184 0.7879391084987862 0.8098000130377313 1:-1.1128534633485507 2:-0.9457747885638108 3:-1.1086575350693755 4:-1.0601227512788645 5:-1.1168689907334237 6:-1.1255748404902963 7:-1.175166660578066 8:-1.0366123803269869 9:2.5431027196169924 10:-0.8069280675769283 11:1.401608899135367 12:-1.2915550016191344 13:-1.291555001619136 14:1.299647544763361 15:1.0852289668681208 16:-1.2593717046113637 17:-1.2915550016191344 18:-1.1317050137792513 19:-1.0485158072619847 20:-1.129609106206616 21:-1.050584734132882 22:-1.0386768343011485 23:-0.9142563225549715 24:-1.014450760096205 25:-1.1149399463127627 26:0.41605328952824877 27:-0.6257399132720064 
1.0 0.620657660790122 0.4916384064652543 0.5195409410954807 0.5321155222761229 1:-1.0797093069450732 2:-0.3273737360143746 3:-1.0875379176034963 4:-1.0601227512788645 5:-1.09399107201391 6:-1.0945022665092423 7:-1.1437087456717283 8:-1.1214286737051364 9:0.3298340959864413 10:-1.2716032367900623 11:1.1006644128842418 12:-1.267505195815336 13:-1.2675051958153376 14:0.900117950816124 15:0.5791777565682122 16:-1.0628620991316136 17:-1.267505195815336 18:-1.0746712190255543 19:-1.091179748759306 20:-1.0841255343554452 21:-1.0713570655266316 22:-1.0676315030563013 23:-1.1245582567552923 24:-0.8846629483829858 25:-1.1261107100829133 26:-0.22175429137292435 27:-0.6257399132720064 
0.0 0.12304640435575355 0.14569678959636867 0.15239424101453575 0.1552402830330447 1:-1.203999893458114 2:-0.9457747885638108 3:-1.1614565787340738 4:-1.0123630629240918 5:-1.1749437074829583 6:-1.1980775131127555 7:-1.316727277656586 8:-1.2486531137723609 9:0.9375451417968645 10:-1.4981007850217478 11:1.5590260150205704 12:-1.6524407523569529 13:-1.6524407523569546 14:1.3768565324672752 15:1.0010857299474667 16:-1.3557369919139337 17:-1.6524407523569529 18:-1.0869178892704632 19:-1.1338436902566273 20:-1.1750926780577868 21:-1.1544463911016296 22:-1.183450178076912 23:-1.1666186435953565 24:-1.2091324776660337 25:-1.1696191390942696 26:-0.4343568183399821 27:-0.6257399132720064 
0.3866812756316986 0.47184167106389846 0.5454585541369642 0.5892954142482003 0.6076886769226137 1:-1.162569697953767 2:-1.10037505170117 3:-1.124497248168785 4:-0.9646033745693195 5:-1.1450264291574406 6:-1.1359323651506477 7:-1.300998320203417 8:-1.2486531137723609 9:-0.2328613168009865 10:-1.6250536622846816 11:0.6145233197093491 12:-1.7469584842828387 13:-1.7469584842828407 14:-0.0955451045405104 15:-1.1053196019929907 16:-0.7063187513966147 17:-1.7469584842828387 18:-1.0889022643584583 19:-1.119622376424187 20:-1.0689643437383882 21:-1.050584734132882 22:-0.8359941530150795 23:-0.9983770962350998 24:-0.6250873249565474 25:-1.134158990465991 26:-0.6469593453070398 27:-0.6257399132720064 
0.38760977794066837 0.3520724478736734 0.4325795311070038 0.4561936658245881 0.4659035635518237 1:-1.1542836588528977 2:-0.9457747885638108 3:-1.1456168656346644 4:-1.0123630629240918 5:-1.1239083503394278 6:-1.1773624637920528 7:-1.2380824903907415 8:-1.1638368203942113 9:1.3209040810894601 10:-1.2440723195982533 11:1.4837525554321997 12:-1.4409256979251073 13:-1.440925697925109 14:1.3570504473268576 15:1.092637430459525 16:-1.3101786752589064 17:-1.4409256979251073 18:-1.1695951575761823 19:-1.119622376424187 20:-1.2054150592919006 21:-1.1959910538891287 22:-1.183450178076912 23:-1.1666186435953565 24:-1.014450760096205 25:-1.2109733023629927 26:-0.22175429137292435 27:0.5318310135772796 
0.11121503651910092 0.0 0.0 0.0 0.0 1:-1.1542836588528977 2:-0.9457747885638108 3:-1.1667364831005436 4:-1.1078824396336369 5:-1.164384668073952 6:-1.146289889810999 7:-1.2538114478439104 8:-1.1850408937387487 9:0.8852689228024191 10:-1.3447249828436671 11:1.2149187711880192 12:-1.525469603479575 13:-1.525469603479577 14:0.9357178404688387 15:0.4739649911774608 16:-1.1394601480131437 17:-1.525469603479575 18:-0.9348933213733698 19:-1.176507631753949 20:-1.1447702968236728 21:-1.0921293969203811 22:-1.0676315030563013 23:-1.1666186435953565 24:-1.1442385718094241 25:-1.1395948782219 26:0.20345076256119105 27:-0.04695444984736337 
1.0 0.38548032986728115 0.13275867068905256 0.13855026571468188 0.1394741435903019 1:-1.0631372287433345 2:-1.10037505170117 3:-1.0400187783052677 4:-0.9646033745693195 5:-1.0587942739838891 6:-1.011642069226432 7:-1.0965218733122215 8:-1.0366123803269869 9:1.3105318154159604 10:-0.9662842613687929 11:1.3685380764704076 12:-1.1087958993816391 13:-1.1087958993816405 14:1.3182474096025247 15:1.1813699166999174 16:-1.2385870348010055 17:-1.1087958993816391 18:-1.0946603877375094 19:-1.0058518657646633 20:-0.9931583906531036 21:-1.0090400713453829 22:-1.0386768343011485 23:-1.1666186435953565 24:-0.8846629483829858 25:-0.9574319860921594 26:-0.4343568183399821 27:-0.6257399132720064 
0.3391007749786206 0.09095020640065617 0.10816243533401075 0.11544609680081913 0.11884022442633511 1:-1.1542836588528977 2:-1.10037505170117 3:-1.1456168656346644 4:-1.0123630629240918 5:-1.1327075498469332 6:-1.146289889810999 7:-1.2223535329375725 8:-1.206244967083286 9:0.4496337645153782 10:-1.4453776460890806 11:1.7525863396763801 12:-1.3563817923706396 13:-1.3563817923706416 14:1.7630584271929481 15:1.6821412722895521 16:-1.4687030219871147 17:-1.3563817923706396 18:-1.1432968251399123 19:-1.1480650040890679 20:-1.099286724972502 21:-1.0713570655266316 22:-1.1255408405666065 23:-0.9563167093950357 24:-1.2091324776660337 25:-1.245170816816276 26:-0.8595618722740974 27:-0.6257399132720064 
0.09503758666211133 0.0 0.0 0.0 0.0 1:-1.162569697953767 2:-0.9457747885638108 3:-1.092817821969966 4:-0.8213243095050022 5:-1.1098296311274196 6:-1.1773624637920528 7:-1.2380824903907415 8:-1.1426327470496738 9:2.017920334348726 10:-1.1134713805594492 11:1.7257029612519625 12:-1.4031928036545087 13:-1.4031928036545107 14:1.7117758917841128 15:1.5947886302095007 16:-1.4533619561747073 17:-1.4031928036545087 18:-1.088114981452911 19:-1.2049502594188297 20:-1.1902538686748436 21:-1.050584734132882 22:-1.183450178076912 23:-1.1245582567552923 24:-1.2091324776660337 25:-1.1852751085780724 26:-0.6469593453070398 27:-0.6257399132720064 
1.0 0.269468709836163 0.10802601193881123 0.11364692004333939 0.11725095535369981 1:-1.0631372287433345 2:-1.10037505170117 3:-1.0875379176034963 4:-1.0123630629240918 5:-1.0746328330973984 6:-1.0530721678678372 7:-1.1279797882185594 8:-1.100224600360599 9:0.3459111077803678 10:-1.2257038265950748 11:0.9716882044909032 12:-1.2540634131879778 13:-1.254063413187979 14:0.731977869216534 15:0.37315063135453747 16:-0.9732768378099624 17:-1.2540634131879778 18:-0.7054061772693819 19:-1.0342944934295442 20:-0.9628360094189897 21:-1.050584734132882 22:-0.9807674967908431 23:-0.9142563225549715 24:-0.689981230813157 25:-1.1176071680888926 26:-0.4343568183399821 27:-0.6257399132720064 
0.9070542459358993 0.9258161308229259 1.0 1.0 1.0 1:-1.1294255415502894 2:0.13642705339770259 3:-1.1139374394358452 4:-1.0601227512788645 5:-1.0992705917184131 6:-1.146289889810999 7:-1.190895618031235 8:-1.2274490404278233 9:-0.5241389422438911 10:-1.609633537608837 11:1.578635067518381 12:-1.3017739268233381 13:-1.3017739268233397 14:1.5386422729493574 15:1.3979887167692615 16:-1.367451987625227 17:-1.3017739268233381 18:-1.0154918296577178 19:-1.1054010625917465 20:-1.1902538686748436 21:-1.0713570655266316 22:-1.0965861718114538 23:-1.040437483075164 24:-1.0793446659528145 25:-1.0133642179909592 26:-0.4343568183399821 27:-0.6257399132720064 
0.8573597734493232 0.4495474214186051 0.512085313294276 0.5415607825081452 0.5530978047979086 1:-1.1128534633485507 2:-1.10037505170117 3:-1.1456168656346644 4:-1.0601227512788645 5:-1.1503059488619436 6:-1.1670049391317014 7:-1.2223535329375725 8:-1.1426327470496738 9:0.6674513436588987 10:-1.2739366604450497 11:0.7071216231712333 12:-1.5269152738394507 13:-1.5269152738394525 14:0.21076180090395452 15:-0.47706904583284804 16:-0.7783550604287877 17:-1.5269152738394507 18:-0.9711845550049584 19:-1.119622376424187 20:-1.2054150592919006 21:-1.1959910538891287 22:-1.183450178076912 23:-1.2086790304354207 24:-1.1442385718094241 25:-1.1869219495145154 26:-0.6469593453070398 27:-0.6257399132720064 
0.5232917488535078 0.44241849168009295 0.49759073111508206 0.529180982996067 0.5436419566510393 1:-1.203999893458114 2:-1.254975314838529 3:-1.129777152535255 4:-0.7735646211502297 5:-1.1415067493544384 6:-1.1877199884524041 7:-1.285269362750248 8:-1.206244967083286 9:2.017920334348726 10:-1.2739366604450497 11:2.225733799946138 12:-1.4641525345806998 13:-1.4641525345807016 14:2.413167015401576 15:2.5748590249900682 16:-1.7218306078918344 17:-1.4641525345806998 18:-1.0382732014506801 19:-1.2049502594188297 20:-1.1902538686748436 21:-1.1959910538891287 22:-1.0965861718114538 23:-1.2086790304354207 24:-1.0793446659528145 25:-0.9384409089688345 26:-0.6469593453070398 27:-0.6257399132720064 
1.0 0.10672005321309616 0.027907475584101622 0.024163187688355122 0.023114705779715743 1:-1.0797093069450732 2:-1.10037505170117 3:-1.092817821969966 4:-0.916843686214547 5:-1.0746328330973984 6:-1.0945022665092423 7:-1.175166660578066 8:-1.1426327470496738 9:-0.007783151686015227 10:-1.3602118872100741 11:0.6839720473057623 12:-1.416360102002027 13:-1.4163601020020287 14:0.25036979052548347 15:-0.33687551773662616 16:-0.7605396291627669 17:-1.416360102002027 18:-0.9264810900989289 19:-1.0627371210944252 20:-1.114447915589559 21:-1.1129017283141307 22:-1.0386768343011485 23:-0.8301355488748431 24:-0.9495568542395953 25:-0.9570174751171253 26:-0.4343568183399821 27:-0.6257399132720064 
0.5254263438129133 0.305321786619007 0.35506603171284545 0.37215777218168616 0.37979995858204424 1:-1.1791417761555059 2:-1.254975314838529 3:-1.187856100566423 4:-1.1078824396336369 5:-1.1837429069904635 6:-1.1566474144713503 7:-1.2695404052970791 8:-1.2698571871168982 9:-0.29716936397669313 10:-1.6842764665721888 11:1.666175480455037 12:-1.4996656164692335 13:-1.4996656164692352 14:1.5955133778470059 15:1.3931930656461007 16:-1.4189979687549148 17:-1.4996656164692335 18:-1.0554290363998862 19:-1.1480650040890679 20:-1.1599314874407298 21:-1.1544463911016296 22:-1.0965861718114538 23:-1.1245582567552923 24:-1.014450760096205 25:-1.1775261285997218 26:-0.6469593453070398 27:-0.6257399132720064 
0.2500464959973619 0.3716812316760554 0.448138252748389 0.4723532866572259 0.48321699619919756 1:-1.1542836588528977 2:-1.10037505170117 3:-1.0875379176034963 4:-0.8213243095050022 5:-1.0763926729988995 6:-1.1566474144713503 7:-1.2538114478439104 8:-1.1426327470496738 9:1.7565392393765025 10:-1.1434196563528396 11:1.2149187711880192 12:-1.525469603479575 13:-1.525469603479577 14:0.9357178404688387 15:0.4739649911774608 16:-1.1394601480131437 17:-1.525469603479575 18:-1.1805652468925596 19:-1.1907289455863892 20:-1.129609106206616 21:-1.13367405970788 22:-1.1544955093217593 23:-0.9563167093950357 24:-1.1442385718094241 25:-1.2246147359580082 26:-0.4343568183399821 27:0.5318310135772796 
0.02875005882032816 0.0 0.025848841971596252 0.02666490579569964 0.026817574316421785 1:-1.1542836588528977 2:-0.9457747885638108 3:-1.0875379176034963 4:-0.8690839978597746 5:-1.1027902715214153 6:-1.1255748404902963 7:-1.2380824903907415 8:-1.1850408937387487 9:0.8852689228024191 10:-1.3447249828436671 11:1.4837525554321997 12:-1.4409256979251073 13:-1.440925697925109 14:1.3570504473268576 15:1.092637430459525 16:-1.3101786752589064 17:-1.4409256979251073 18:-1.1364660654682244 19:-1.1480650040890679 20:-1.129609106206616 21:-1.050584734132882 22:-1.1544955093217593 23:-1.1245582567552923 24:-1.2091324776660337 25:-1.2306962683730218 26:-0.8595618722740974 27:-0.04695444984736337 
0.510255405742589 0.0 0.0 0.0 0.0 1:-1.096281385146812 2:-1.254975314838529 3:-1.0769781088705566 4:-0.9646033745693195 5:-1.0869517124079058 6:-1.0427146432074859 7:-1.159437703124897 8:-1.1426327470496738 9:0.3120647671615751 10:-1.3187775662788486 11:1.2432170642663534 12:-1.2800605663083544 13:-1.2800605663083564 14:1.0882070156465813 15:0.8146573782352999 16:-1.1580464392858678 17:-1.2800605663083544 18:-1.0945044490757316 19:-0.9489666104349014 20:-0.9931583906531036 21:-1.050584734132882 22:-1.183450178076912 23:-1.2507394172754849 24:-0.9495568542395953 25:-1.0929070388552193 26:-0.8595618722740974 27:-0.6257399132720064 
1.0 0.4606688606109024 0.510085104381875 0.5366095868896847 0.5480319345008982 1:-1.096281385146812 2:-1.10037505170117 3:-1.1139374394358452 4:-1.0123630629240918 5:-1.0975107518169123 6:-1.0427146432074859 7:-1.0965218733122215 8:-1.0790205270160618 9:1.3782244966535457 10:-1.0460458948636089 11:2.1204641496947323 12:-0.9746167436099313 13:-0.9746167436099338 14:2.329537804657446 15:2.5298607129195823 16:-1.6681368775484091 17:-0.9746167436099313 18:-1.0291344616434954 19:-1.0200731795971036 20:-1.0234807718872174 21:-1.0713570655266316 22:-1.0676315030563013 23:-1.1245582567552923 24:-0.9495568542395953 25:-1.177386819968662 26:-0.8595618722740974 27:-0.6257399132720064 
0.6124194611788208 0.6100021743679658 0.5951770274075446 0.6219494053760877 0.6359759187560828 1:-1.1045674242476813 2:-1.10037505170117 3:-1.1614565787340738 4:-1.1556421279884093 5:-1.12742803014243 6:-1.115217315829945 7:-1.159437703124897 8:-1.100224600360599 9:1.2149387723169374 10:-1.1125498412402293 11:1.432892109764382 12:-1.2472597619800105 13:-1.247259761980012 14:1.357966736805001 15:1.180232345511289 16:-1.278857332558575 17:-1.2472597619800105 18:-1.027973788615146 19:-1.0627371210944252 20:-1.0841255343554452 21:-1.1959910538891287 22:-1.1544955093217593 23:-1.1666186435953565 24:-1.1442385718094241 25:-1.1899857528155597 26:0.6286558164953064 27:-0.6257399132720064 
1.0 1.0 1.0 1.0 1.0 1:-1.1874278152563753 2:-0.9457747885638108 3:-1.1667364831005436 4:-1.0601227512788645 5:-1.1608649882709499 6:-1.1773624637920528 7:-1.2538114478439104 8:-1.100224600360599 9:3.9185803953195952 10:-0.7981473003200609 11:2.250426680869307 12:-1.3682656614980537 13:-1.3682656614980557 14:2.460365862693245 15:2.6584416897056076 16:-1.734221468740317 17:-1.3682656614980537 18:-1.1884073454565656 19:-1.1622863179215084 20:-1.2205762499089576 21:-1.1752187224953792 22:-1.1255408405666065 23:-1.1245582567552923 24:-1.0793446659528145 25:-1.1723014561389713 26:-0.8595618722740974 27:-0.6257399132720064 
0.10640207634490108 0.10897097303844372 0.08279045276027046 0.08631269262705572 0.0881310450363295 1:-1.1791417761555059 2:-0.9457747885638108 3:-1.1350570569017246 4:-1.0123630629240918 5:-1.1415067493544384 6:-1.2084350377731068 7:-1.285269362750248 8:-1.206244967083286 9:1.1497616974766942 10:-1.3665536845226642 11:1.3685380764704076 12:-1.5886234377262936 13:-1.5886234377262953 14:1.125856544986197 15:0.6904384568858399 16:-1.2385870348010055 17:-1.5886234377262936 18:-1.1628426230838562 19:-1.2191715732512702 20:-1.1902538686748436 21:-1.1544463911016296 22:-1.1544955093217593 23:-1.040437483075164 24:-1.1442385718094241 25:-1.2002734859557151 26:-0.8595618722740974 27:-0.04695444984736337 
0.41947431186186673 0.4696232844072634 0.5303362357128176 0.5623488803577673 0.5753690093944547 1:-1.1459976197520283 2:-1.254975314838529 3:-1.156176674367604 4:-1.1556421279884093 5:-1.1450264291574406 6:-1.1255748404902963 7:-1.2223535329375725 8:-1.2486531137723609 9:-0.5986133351128151 10:-1.6672903175014855 11:1.5173567784627222 12:-1.3936633247711718 13:-1.3936633247711736 14:1.4222726140386845 15:1.2034018267294897 16:-1.3306334296754496 17:-1.3936633247711718 18:-1.0850503096266177 19:-1.1480650040890679 20:-1.099286724972502 21:-1.1544463911016296 22:-1.0965861718114538 23:-1.0824978699152281 24:-1.1442385718094241 25:-1.1616712379047842 26:-0.22175429137292435 27:-0.6257399132720064 
0.6145221211195795 0.2552744501269498 0.271282144428414 0.2825153592219357 0.2872167827345018 1:-1.1542836588528977 2:-0.9457747885638108 3:-1.1086575350693755 4:-1.0123630629240918 5:-1.1309477099454321 6:-1.1359323651506477 7:-1.2223535329375725 8:-1.100224600360599 9:2.6278095559505843 10:-0.9421143298620122 11:1.7525863396763801 12:-1.3563817923706396 13:-1.3563817923706416 14:1.7630584271929481 15:1.6821412722895521 16:-1.4687030219871147 17:-1.3563817923706396 18:-1.0348990718394386 19:-1.091179748759306 20:-1.2054150592919006 21:-1.1959910538891287 22:-1.183450178076912 23:-1.2086790304354207 24:-1.1442385718094241 25:-1.1441423152848256 26:-0.8595618722740974 27:-0.6257399132720064 
0.2881199319461522 0.03873740661386623 0.03532858032842204 0.028118919574563618 0.02347327633828996 1:-1.162569697953767 2:-1.254975314838529 3:-1.129777152535255 4:-0.916843686214547 5:-1.129187870043931 6:-1.0945022665092423 7:-1.2223535329375725 8:-1.1214286737051364 9:2.468076664578669 10:-1.0111549242144027 11:2.0034978716376157 12:-1.3172513834974267 13:-1.3172513834974282 14:2.121698060752049 15:2.1889128991216165 16:-1.6067726142987804 17:-1.3172513834974267 18:-1.06664064810646 19:-1.0485158072619847 20:-1.0841255343554452 21:-1.0713570655266316 22:-1.0097221655459958 23:-1.040437483075164 24:-1.0793446659528145 25:-1.0296826074367342 26:-0.8595618722740974 27:-0.6257399132720064 
0.7718627269945444 0.8846936132097222 0.9921166720253277 1.0 1.0 1:-1.1459976197520283 2:-1.254975314838529 3:-1.129777152535255 4:-1.0123630629240918 5:-1.1239083503394278 6:-1.0841447418488912 7:-1.159437703124897 8:-1.1850408937387487 9:0.6674513436588987 10:-1.3700878689009932 11:2.5590876924089225 12:-1.060813635753377 13:-1.0608136357533786 14:2.8993593079413023 15:3.2984143115770372 16:-1.882911798922111 17:-1.060813635753377 18:-1.0437846623034805 19:-1.0627371210944252 20:-1.0689643437383882 21:-1.0090400713453829 22:-1.0097221655459958 23:-1.1666186435953565 24:-0.9495568542395953 25:-1.1831486316253488 26:-0.8595618722740974 27:-0.04695444984736337 
0.6663765376288783 0.7600934373910113 0.8611261101702778 0.9061252238029259 0.9252052163949707 1:-1.1542836588528977 2:-0.7911745254264517 3:-1.1139374394358452 4:-0.8690839978597746 5:-1.12742803014243 6:-1.115217315829945 7:-1.2695404052970791 8:-1.1214286737051364 9:2.1921743976635435 10:-1.042766993107426 11:0.9460849869438379 12:-1.6100135090340426 13:-1.6100135090340446 14:0.497858229836593 15:-0.17661555634882214 16:-0.9550841385877197 17:-1.6100135090340426 18:-1.103337290339483 19:-1.1480650040890679 20:-1.0841255343554452 21:-1.2375357166766279 22:-1.0676315030563013 23:-1.0824978699152281 24:-0.9495568542395953 25:-1.1516648275779557 26:0.20345076256119105 27:-0.04695444984736337 
0.0 0.0 0.08118464664213004 0.08543800478543453 0.08821118163715572 1:-1.1377115806511588 2:-1.254975314838529 3:-1.1086575350693755 4:-0.9646033745693195 5:-1.1063099513244175 6:-1.0841447418488912 7:-1.2223535329375725 8:-1.1638368203942113 9:0.8720678573997815 10:-1.296734067154198 11:1.2963835542923163 12:-1.4292371362761105 13:-1.429237136276112 14:1.0978801997028886 15:0.7501901823240045 16:-1.192563837363784 17:-1.4292371362761105 18:-1.1102338268929244 19:-1.1054010625917465 20:-1.1599314874407298 21:-1.0090400713453829 22:-0.9807674967908431 23:-1.1245582567552923 24:-0.9495568542395953 25:-1.0884280571827727 26:-0.8595618722740974 27:-0.6257399132720064 
0.25880298017441883 0.0 0.0 0.0 0.0 1:-1.1128534633485507 2:-1.254975314838529 3:-1.1033776307029057 4:-1.0123630629240918 5:-1.0763926729988995 6:-1.0634296925281885 7:-1.159437703124897 8:-1.1214286737051364 9:1.0425816188505177 10:-1.1805349418714255 11:1.6331046577900774 12:-1.213101577545696 13:-1.2131015775456973 14:1.6392996360664946 15:1.563086901407296 16:-1.399668225831282 17:-1.213101577545696 18:-0.8883408709590551 19:-1.0627371210944252 20:-1.0386419625042744 21:-1.0713570655266316 22:-0.9518128280356903 23:-1.1245582567552923 24:-1.1442385718094241 25:-0.9500609938014408 26:-0.00915176440586665 27:-0.6257399132720064 
0.1085386161628515 0.0 0.0 0.0 0.0 1:-1.0797093069450732 2:-1.10037505170117 3:-1.0822580132370263 4:-1.0601227512788645 5:-1.1045501114229164 6:-1.0323571185471345 7:-1.1279797882185594 8:-1.0790205270160618 9:1.005068591331356 10:-1.0943859359500387 11:1.309010595673482 12:-1.1930777427219907 13:-1.1930777427219925 14:1.2103674251036864 15:1.010823329109754 16:-1.2006855780879995 17:-1.1930777427219907 18:-1.1433431200528459 19:-1.0058518657646633 20:-0.9931583906531036 21:-1.0298124027391324 22:-1.0386768343011485 23:-1.0824978699152281 24:-1.014450760096205 25:-1.148895255779145 26:-0.6469593453070398 27:-0.04695444984736337 
1.0 1.0 1.0 1.0 1.0 1:-1.1294255415502894 2:-1.10037505170117 3:-1.092817821969966 4:-1.0123630629240918 5:-1.125668190240929 6:-1.0530721678678372 7:-1.2380824903907415 8:-1.3122653338059729 9:-2.1129259901142765 10:-1.9940718396549655 11:0.8432955988504747 12:-1.543957648930578 13:-1.5439576489305795 14:0.3932104382452494 15:-0.2567846213775938 16:-0.8806288325115029 17:-1.543957648930578 18:-0.9271003375524925 19:-1.0485158072619847 20:-1.0386419625042744 21:-0.9674954085578839 22:-0.9807674967908431 23:-0.9563167093950357 24:-1.014450760096205 25:-1.0085007883637083 26:-0.6469593453070398 27:-0.6257399132720064 
0.6118930120379854 0.12078919544646397 0.12033748562788772 0.12410940061654176 0.12609924223982566 1:-1.1459976197520283 2:-1.10037505170117 3:-1.156176674367604 4:-1.0601227512788645 5:-1.1379870695514362 6:-1.1255748404902963 7:-1.2380824903907415 8:-1.206244967083286 9:0.24542978406832738 10:-1.469155351767824 11:1.2569240499761722 12:-1.4768757470256209 13:-1.4768757470256224 14:1.0199839668706399 15:0.6182628320661399 16:-1.1669953943431055 17:-1.4768757470256209 18:-1.0590748648009165 19:-1.119622376424187 20:-1.099286724972502 21:-1.1544463911016296 22:-1.0676315030563013 23:-1.0824978699152281 24:-1.0793446659528145 25:-1.0415750399078356 26:0.20345076256119105 27:-0.04695444984736337 
0.08807670941045309 0.07824486788508539 0.09501948368797097 0.09969104276531153 0.10292286759154619 1:-1.1377115806511588 2:-1.10037505170117 3:-1.1139374394358452 4:-0.916843686214547 5:-1.1098296311274196 6:-1.1255748404902963 7:-1.2538114478439104 8:-1.1638368203942113 9:0.8720678573997815 10:-1.296734067154198 11:0.7913018990456734 12:-1.5931209942489408 13:-1.5931209942489426 14:0.2853331256247064 15:-0.44057177498772737 16:-0.842079487649557 17:-1.5931209942489408 18:-0.9796790940776249 19:-1.1054010625917465 20:-1.129609106206616 21:-1.13367405970788 22:-1.0386768343011485 23:-0.9142563225549715 24:-1.2091324776660337 25:-1.0499812125860106 26:-0.4343568183399821 27:-0.04695444984736337 
0.4410073330824524 0.07930532987124377 0.07449425953731978 0.07037259846837088 0.06820770634089719 1:-1.1708557370546364 2:-0.7911745254264517 3:-1.150896770001134 4:-1.1078824396336369 5:-1.1432665892559395 6:-1.1670049391317014 7:-1.2380824903907415 8:-1.1850408937387487 9:1.3659697871191545 10:-1.2901182779529758 11:1.9843396019558461 12:-1.3635246593524268 13:-1.3635246593524284 14:2.085791949219292 15:2.127550147955729 16:-1.5965452370905082 17:-1.3635246593524268 18:-1.1007488604259743 19:-1.1622863179215084 20:-1.114447915589559 21:-1.1544463911016296 22:-1.0965861718114538 23:-0.8721959357149073 24:-0.9495568542395953 25:-1.1489768399074032 26:-0.6469593453070398 27:-0.6257399132720064 
0.5588091135868188 0.5687742755256664 0.6494304262066389 0.6804262281191876 0.6930332199390922 1:-1.1459976197520283 2:-0.9457747885638108 3:-1.0875379176034963 4:-0.7735646211502297 5:-1.085191872506405 6:-1.1566474144713503 7:-1.2695404052970791 8:-1.2486531137723609 9:-0.5986133351128151 10:-1.6672903175014855 11:0.7360585930030721 12:-1.6433005915345185 13:-1.6433005915345198 14:0.16866258410996401 15:-0.641592259579958 16:-0.8004461951986543 17:-1.6433005915345185 18:-0.9274855994487176 19:-1.176507631753949 20:-1.129609106206616 21:-1.1129017283141307 22:-1.0097221655459958 23:-1.0824978699152281 24:-0.8846629483829858 25:-1.205109497869957 26:-0.6469593453070398 27:-0.04695444984736337 
0.48405610464117477 0.503187278487519 0.5722304672436034 0.6142077398733938 0.63165199735657 1:-1.1708557370546364 2:-0.4819739991517336 3:-1.1192173438023152 4:-0.9646033745693195 5:-1.12742803014243 6:-1.146289889810999 7:-1.2223535329375725 8:-1.1638368203942113 9:1.8316487494259912 10:-1.186052695651894 11:2.2717136471823847 12:-1.2761140486656375 13:-1.2761140486656395 14:2.4998411679909656 15:2.726576497647729 16:-1.7448422066104452 17:-1.2761140486656375 18:-1.088804442870508 19:-1.0627371210944252 20:-1.114447915589559 21:-1.1129017283141307 22:-1.0386768343011485 23:-1.1245582567552923 24:-1.0793446659528145 25:-1.115113702553212 26:-0.8595618722740974 27:-0.04695444984736337 
0.6774511173470369 0.8828330590182847 0.9838184211975204 1.0 1.0 1:-1.1128534633485507 2:-1.254975314838529 3:-1.1033776307029057 4:-1.0123630629240918 5:-1.0763926729988995 6:-1.1255748404902963 7:-1.159437703124897 8:-1.0154083069824495 9:2.9182329948086116 10:-0.713526349003304 11:1.6331046577900774 12:-1.213101577545696 13:-1.2131015775456973 14:1.6392996360664946 15:1.563086901407296 16:-1.399668225831282 17:-1.213101577545696 18:-1.1215337349021839 19:-1.1338436902566273 20:-1.114447915589559 21:-1.0921293969203811 22:-1.1255408405666065 23:-1.1245582567552923 24:-1.014450760096205 25:-1.211861554428294 26:0.8412583434623642 27:-0.04695444984736337 
1.0 1.0 1.0 1.0 1.0 1:-1.1791417761555059 2:-1.10037505170117 3:-1.187856100566423 4:-1.1078824396336369 5:-1.1837429069904635 6:-1.1670049391317014 7:-1.285269362750248 8:-1.100224600360599 9:3.5613134665656734 10:-0.8370157144401237 11:1.3685380764704076 12:-1.5886234377262936 13:-1.5886234377262953 14:1.125856544986197 15:0.6904384568858399 16:-1.2385870348010055 17:-1.5886234377262936 18:-1.1819513731584623 19:-1.176507631753949 20:-1.129609106206616 21:-1.13367405970788 22:-1.0676315030563013 23:-1.0824978699152281 24:-1.0793446659528145 25:-1.084171395852057 26:-0.8595618722740974 27:-0.6257399132720064 
0.800764086054808 0.9661071239405477 1.0 1.0 1.0 1:-1.1377115806511588 2:-1.254975314838529 3:-1.092817821969966 4:-0.9646033745693195 5:-1.0957509119154112 6:-1.1255748404902963 7:-1.2538114478439104 8:-1.1426327470496738 9:1.2813008848815473 10:-1.1991791537650163 11:0.7913018990456734 12:-1.5931209942489408 13:-1.5931209942489426 14:0.2853331256247064 15:-0.44057177498772737 16:-0.842079487649557 17:-1.5931209942489408 18:-1.051269060039667 19:-1.091179748759306 20:-1.129609106206616 21:-1.1959910538891287 22:-1.1255408405666065 23:-0.9983770962350998 24:-1.1442385718094241 25:-1.048943880790691 26:-0.00915176440586665 27:1.1106164770019227 
0.2924743269736809 0.0 0.0 0.0 0.0 1:-1.1045674242476813 2:-1.254975314838529 3:-1.1192173438023152 4:-1.0601227512788645 5:-1.085191872506405 6:-1.0530721678678372 7:-1.190895618031235 8:-1.1214286737051364 9:0.8499471532115778 10:-1.204680728916732 11:0.9824138767065658 12:-1.4020317235997433 13:-1.4020317235997453 14:0.6727634038292012 15:0.2099761143667399 16:-0.9808571291525636 17:-1.4020317235997433 18:-0.893563919752455 19:-1.0058518657646633 20:-1.0538031531213312 21:-0.9882677399516334 22:-0.9228581592805376 23:-0.9142563225549715 24:-0.8197690425263762 25:-1.0525543974959892 26:-0.22175429137292435 27:-0.6257399132720064 
0.35068833042888453 0.0 0.0 0.0 0.0 1:-1.0797093069450732 2:-0.9457747885638108 3:-1.0558584914046771 4:-0.8690839978597746 5:-1.0746328330973984 6:-1.0323571185471345 7:-1.1279797882185594 8:-1.1214286737051364 9:0.3298340959864413 10:-1.2716032367900623 11:1.309010595673482 12:-1.1930777427219907 13:-1.1930777427219925 14:1.2103674251036864 15:1.010823329109754 16:-1.2006855780879995 17:-1.1930777427219907 18:-0.9448073747235521 19:-0.9631879242673418 20:-0.9931583906531036 21:-1.0921293969203811 22:-0.9807674967908431 23:-1.1245582567552923 24:-1.014450760096205 25:-0.936613691595963 26:-0.6469593453070398 27:-0.6257399132720064 
0.9636386793107437 0.0 0.022561029266648876 0.019215771832385348 0.01771732947151769 1:-1.1045674242476813 2:-0.7911745254264517 3:-1.0980977263364358 4:-0.916843686214547 5:-1.0992705917184131 6:-1.0841447418488912 7:-1.190895618031235 8:-1.1214286737051364 9:0.8499471532115778 10:-1.204680728916732 11:0.9824138767065658 12:-1.4020317235997433 13:-1.4020317235997453 14:0.6727634038292012 15:0.2099761143667399 16:-0.9808571291525636 17:-1.4020317235997433 18:-1.129642682830064 19:-1.091179748759306 20:-1.0689643437383882 21:-1.2167633852828783 22:-1.183450178076912 23:-1.2086790304354207 24:-1.0793446659528145 25:-1.2359668119013665 26:-0.8595618722740974 27:-0.04695444984736337 
0.08566161559599024 0.0 0.0 0.0 0.0 1:-1.0879953460459426 2:-1.10037505170117 3:-1.0452986826717374 4:-0.916843686214547 5:-1.0728729931958976 6:-1.0737872171885399 7:-1.159437703124897 8:-1.0790205270160618 9:1.1868624939242167 10:-1.0706807553357733 11:1.0632689441784808 12:-1.3115915722348093 13:-1.3115915722348113 14:0.8292304695947028 15:0.46508711635918754 16:-1.0372355460131606 17:-1.3115915722348093 18:-1.1166355228385485 19:-1.0485158072619847 20:-1.0538031531213312 21:-1.1129017283141307 22:-1.0965861718114538 23:-1.0824978699152281 24:-1.1442385718094241 25:-0.9370888653553329 26:-0.4343568183399821 27:-0.04695444984736337 
0.38178291345176335 0.3416472227511945 0.3869435232327262 0.42482470756430274 0.4404141405344786 1:-1.096281385146812 2:-1.254975314838529 3:-1.0716982045040866 4:-0.8690839978597746 5:-1.0746328330973984 6:-1.146289889810999 7:-1.190895618031235 8:-1.1214286737051364 9:0.6674513436588987 10:-1.2278670091404353 11:0.8045935215521643 12:-1.4327824776575657 13:-1.4327824776575675 14:0.4080271160639558 15:-0.15007005782153 16:-0.8519921763283431 17:-1.4327824776575657 18:-1.0214164453070835 19:-1.1054010625917465 20:-1.1447702968236728 21:-1.0921293969203811 22:-1.0386768343011485 23:-0.8721959357149073 24:-1.014450760096205 25:-1.057443523490479 26:-0.22175429137292435 27:0.5318310135772796 
-1.0 1.0 1.0 1.0 1.0 1:-1.1791417761555059 2:-1.254975314838529 3:-1.0875379176034963 4:-0.7735646211502297 5:-1.1063099513244175 6:-1.1773624637920528 7:-1.2538114478439104 8:-1.0790205270160618 9:4.043623820383469 10:-0.7311081204236156 11:1.9638128844396654 12:-1.4107077952121736 13:-1.4107077952121752 14:2.046747476978851 15:2.0600365506244245 16:-1.5855311385585242 17:-1.4107077952121736 18:-1.1696963191046474 19:-1.176507631753949 20:-1.2357374405260144 21:-1.2375357166766279 22:-1.1255408405666065 23:-1.040437483075164 24:-0.9495568542395953 25:-1.1731670721155596 26:-0.8595618722740974 27:-0.6257399132720064 
-1.0 0.45234904530460956 0.6661647194150742 0.7044399944104517 0.7221789759800764 1:-1.0879953460459426 2:-0.4819739991517336 3:-1.092817821969966 4:-1.0601227512788645 5:-1.1080697912259185 6:-1.0530721678678372 7:-1.1437087456717283 8:-1.0366123803269869 9:1.8794106942779754 10:-0.891205818246772 11:1.2769573367828297 12:-1.2362159604954053 13:-1.236215960495407 14:1.1512375902936929 15:0.9162711177728043 16:-1.1800120562445415 17:-1.2362159604954053 18:-1.0803365786289496 19:-1.0769584349268655 20:-1.0689643437383882 21:-1.0298124027391324 22:-0.9807674967908431 23:-0.9142563225549715 24:-1.0793446659528145 25:-1.1810274873865465 26:-0.22175429137292435 27:-0.6257399132720064 
-1.0 0.22969214025153578 0.2650476530319777 0.2796288270845056 0.29128485121122333 1:-1.096281385146812 2:-1.254975314838529 3:-1.092817821969966 4:-1.0123630629240918 5:-1.09399107201391 6:-1.0427146432074859 7:-1.1122508307653904 8:-1.100224600360599 9:1.0228379201562214 10:-1.1369564520020223 11:1.9011523783376378 12:-1.0509776992845372 13:-1.050977699284539 14:2.032641254680453 15:2.1248103825981883 16:-1.5515447773741144 17:-1.0509776992845372 18:-0.9751244307807222 19:-1.091179748759306 20:-1.0083195812701604 21:-0.9467230771641343 22:-0.9518128280356903 23:-0.9563167093950357 24:-1.0793446659528145 25:-0.9632504294975204 26:-0.6469593453070398 27:-0.6257399132720064 
-0.0 0.9013277070297769 0.06743441937490219 0.07120597166137937 0.07207247844269411 1:-0.8974164467259467 2:-0.7911745254264517 3:-0.9397005953423408 4:-0.8690839978597746 5:-0.9144874020608031 6:-0.9287818719436215 7:-0.8920454264210262 8:-0.8033675735370757 9:1.3209040810894601 10:-0.5353134501094742 11:0.8116680948217476 12:-0.7943142705433376 13:-0.7943142705433389 14:0.7135242393692517 15:0.5538341116727094 16:-0.857251970321168 17:-0.7943142705433376 18:-0.7943280356113143 19:-0.9063026689375799 20:-0.9325136281848758 21:-0.9051784143766353 22:-0.9228581592805376 23:-0.7039543883546505 24:-0.9495568542395953 25:-1.0977158037673682 26:-0.4343568183399821 27:-0.6257399132720064 
-0.16962316765767405 0.46749679044823367 0.18219251315424592 0.2297749991651703 0.2360931759470801 1:-0.8642722903224691 2:-0.9457747885638108 3:-0.9080211691435219 4:-1.0123630629240918 5:-0.9144874020608031 6:-0.8148491006797571 7:-0.9077743838741951 8:-0.8669797935706878 9:0.2582183161771329 10:-0.8167336301080297 11:0.2862202437990313 12:-0.9424098527053016 13:-0.9424098527053034 14:-0.014618091399655113 15:-0.35863171777282227 16:-0.43318107964962466 17:-0.9424098527053016 18:-0.6032294540377082 19:-0.7356469029482944 20:-0.7505793407801926 21:-0.8220890888016371 22:-0.8359941530150795 23:-0.577773227834458 24:-0.689981230813157 25:-0.5182170251181896 26:-0.22175429137292435 27:-0.04695444984736337 
-1.0 0.5082405882287593 0.6116765740060984 0.6480552200961944 0.6633432429189041 1:-1.1459976197520283 2:-0.7911745254264517 3:-1.156176674367604 4:-1.1078824396336369 5:-1.1679043478769542 6:-1.1255748404902963 7:-1.2380824903907415 8:-1.1850408937387487 9:0.6674513436588987 10:-1.3700878689009932 11:1.2569240499761722 12:-1.4768757470256209 13:-1.4768757470256224 14:1.0199839668706399 15:0.6182628320661399 16:-1.1669953943431055 17:-1.4768757470256209 18:-1.0329165839786532 19:-1.091179748759306 20:-1.0841255343554452 21:-1.2167633852828783 22:-1.1544955093217593 23:-1.1666186435953565 24:-1.1442385718094241 25:-1.0665636909083394 26:-0.4343568183399821 27:-0.04695444984736337 
-0.4330105465335513 0.5258024393828379 0.6715582429226568 0.7119969219252015 0.73279305020117 1:-0.7896979384146446 2:-0.7911745254264517 3:-0.7707436556153063 4:-0.58252586773114 5:-0.7701805301377171 6:-0.8148491006797571 7:-0.8920454264210262 8:-0.9093879402597626 9:-0.8630801791229066 10:-1.0785599385985905 11:-0.3299793756018728 12:-1.0602589440460495 13:-1.0602589440460508 14:-0.8803442276608922 15:-1.4045976488645282 16:0.1684078582797741 17:-1.0602589440460495 18:-0.8722532512457645 19:-0.7640895306131753 20:-0.8567076750995912 21:-0.8428614201953867 22:-0.7780848155047742 23:-0.8301355488748431 24:-0.8846629483829858 25:-0.9214752947664776 26:-0.22175429137292435 27:-0.04695444984736337 
-0.6428650720760181 0.238906866423508 0.40051085637739736 0.42145559367698837 0.431876138322674 1:-1.013420994138118 2:-0.9457747885638108 3:-0.96610011717469 4:-0.8213243095050022 5:-0.9848809981208451 6:-0.9287818719436215 7:-1.0807929158590528 8:-1.100224600360599 9:-0.4579394819159578 10:-1.337402373932617 11:0.6492476835075558 12:-1.2097327922212866 13:-1.2097327922212884 14:0.32174271912758856 15:-0.10948877177457786 16:-0.733575733192572 17:-1.2097327922212866 18:-0.9445115557144665 19:-0.9063026689375799 20:-0.887030056333705 21:-0.9674954085578839 22:-1.0097221655459958 23:-1.2086790304354207 24:-1.014450760096205 25:-1.0615068937287604 26:-0.8595618722740974 27:-0.04695444984736337 
-0.28345906639743507 1.0 0.2552637112740774 0.3367523080410266 0.34805134420606654 1:-0.7814118993137752 2:-0.9457747885638108 3:-0.6651455682859096 4:-0.3914871143120503 5:-0.6786688552596626 6:-0.6905588047555414 7:-0.797671681702013 8:-0.8033675735370757 9:-0.043321809335747655 10:-0.7695295660136383 11:0.25631409315942755 12:-0.7538669212487886 13:-0.7538669212487895 14:0.036520779949916884 15:-0.2107718982481627 16:-0.40682233929921574 17:-0.7538669212487886 18:-0.6389065228786782 19:-0.7640895306131753 20:-0.8112241032484204 21:-0.8220890888016371 22:-0.5464474654635524 23:-0.8721959357149073 24:-0.5601934190999378 25:-0.8439667225602202 26:-0.8595618722740974 27:-0.6257399132720064 
-0.12428633088389411 1.0 0.22893196571350402 0.2165302955547741 0.22330108839738785 1:-0.7896979384146446 2:-0.6365742622890926 3:-0.8393824123794141 4:-0.916843686214547 5:-0.8264954069857506 6:-0.7630614773780007 7:-0.781942724248844 8:-0.718551280158926 9:0.7574826097048878 10:-0.4961644590970298 11:0.447846373477957 12:-0.6797800577818084 13:-0.67978005778181 14:0.3053434342359024 15:0.1239418076534834 16:-0.5712506719612904 17:-0.6797800577818084 18:-0.7296634575062716 19:-0.721425589115854 20:-0.7354181501631357 21:-0.6559104376516408 22:-0.7491301467496214 23:-0.5357128409943938 24:-0.8846629483829858 25:-0.5740746690060241 26:-0.4343568183399821 27:-0.6257399132720064 
-0.5326344613723979 1.0 1.0 0.7492938986652121 0.769487780465473 1:-0.5991190390946487 2:-0.4819739991517336 3:-0.6440259508200303 4:-0.6780452444406849 5:-0.6469917370326437 6:-0.5662685088313258 7:-0.5302794049981421 8:-0.5913268400917017 9:-0.021563447509380985 10:-0.46432802554711117 11:0.3480669770945387 12:-0.3000143465698457 13:-0.30001434656984693 14:0.3215116206810508 15:0.26893085337445577 16:-0.4868748099930499 17:-0.3000143465698457 18:-0.29878073533843724 19:-0.5649911369590088 20:-0.4776779096731679 21:-0.6559104376516408 22:-0.5754021342187051 23:-0.2833505199540086 24:-0.5601934190999378 25:-0.1702843853883805 26:-0.00915176440586665 27:-0.6257399132720064 
-0.3996824515834309 1.0 0.9371687171005367 0.6473361852980637 0.7220285298783374 1:-0.5162586480859549 2:-0.7911745254264517 3:-0.4750690110929957 4:-0.3914871143120503 5:-0.48332662619304617 6:-0.4523357375674614 7:-0.5460083624513109 8:-0.6761431334698512 9:-1.0831566072353231 10:-0.7981473003200609 11:-0.2960266643325148 12:-0.5076586568527467 13:-0.5076586568527485 14:-0.5350819121515313 15:-0.7308038263013935 16:0.13173746354106236 17:-0.5076586568527467 18:-0.28127091999513465 19:-0.4654419401319256 20:-0.6141286252266803 21:-0.4897317865016446 22:-0.6333114717290106 23:-0.6198336146745221 24:-0.49529951324332816 25:-0.5217049290858087 26:-0.6469593453070398 27:-0.6257399132720064 
-0.1270112579101196 0.08308671636311228 0.28685330402730486 0.3099493080387278 0.3203452850788683 1:-0.9719907986337711 2:-0.6365742622890926 3:-0.9766599259076297 4:-0.9646033745693195 5:-0.947924360189323 6:-0.9080668226229189 7:-1.049335000952715 8:-1.0578164536715242 9:-0.47917327107774754 10:-1.2616455134797164 11:0.3576940629377065 12:-1.201932009478366 13:-1.201932009478368 14:-0.062417083165372055 15:-0.5661681523356831 16:-0.49513538389203837 17:-1.201932009478366 18:-0.8651374004484288 19:-0.8636387274402586 20:-0.887030056333705 21:-0.9051784143766353 22:-0.8649488217702322 23:-0.8301355488748431 24:-0.7548751366697666 25:-0.7874552643859882 26:-0.8595618722740974 27:-0.6257399132720064 
-0.09901724422457613 1.0 0.4655376007601253 0.0712381430935554 0.07083446893324757 1:-0.6736933910024732 2:-0.7911745254264517 3:-0.6176264289876812 4:-0.58252586773114 5:-0.5660391015635955 6:-0.6802012800951902 7:-0.5931952348108176 8:-0.6761431334698512 9:-0.01537005612809323 10:-0.5790326265224691 11:0.5926742818138477 12:-0.3306642494546671 13:-0.3306642494546691 14:0.600758234282789 15:0.5694187518200312 16:-0.6890159124624163 17:-0.3306642494546671 18:-0.45094425346113626 19:-0.692982961450973 20:-0.5686450533755095 21:-0.6974551004391399 22:-0.6622661404841632 23:-0.577773227834458 24:-0.49529951324332816 25:-0.49939776972966615 26:-0.8595618722740974 27:-0.6257399132720064 
-0.10463058606523284 1.0 0.07450969892450446 0.1814295142196923 0.17298929611152042 1:-0.5908329999937794 2:-0.7911745254264517 3:-0.6070666202547416 4:-0.6780452444406849 5:-0.6047555793966185 6:-0.5144808855295693 7:-0.6246531497171554 8:-0.7397553535034634 9:-1.0376862708484598 10:-0.8712034410477439 11:-0.21886141144761168 12:-0.6012042938529506 13:-0.6012042938529522 14:-0.4834281920248043 15:-0.7160982154344455 16:0.050062493441204094 17:-0.6012042938529506 18:-0.6123879281223911 19:-0.4654419401319256 20:-0.5383226721413956 21:-0.40664246092664647 22:-0.6043568029738579 23:-0.4095316804742012 24:-0.2357238898168898 25:-0.6209868262933708 26:-0.4343568183399821 27:-0.6257399132720064 
-0.40802096707084373 0.4757469448408084 0.6905032680950223 0.7258163543277865 0.7439581980759334 1:-0.905702485826816 2:-0.7911745254264517 3:-0.8816216473111728 4:-0.7258049327954573 5:-0.9162472419623041 6:-0.8562791993211624 7:-0.9549612562337018 8:-0.9093879402597626 9:0.33536880496467825 10:-0.8743251497528015 11:0.3731605287185355 12:-1.0114796055235646 13:-1.0114796055235669 14:0.06235908595306049 15:-0.3059725432433237 16:-0.5083523021304199 17:-1.0114796055235646 18:-1.021661566069904 19:-0.8494174136078181 20:-0.8112241032484204 21:-0.9674954085578839 22:-1.0386768343011485 23:-0.7460147751947147 24:-1.014450760096205 25:-0.9999657455445192 26:-0.8595618722740974 27:0.5318310135772796 
-0.45885588607425715 0.5367131272668546 0.6864144326073887 0.7201697593167006 0.7403297957585926 1:-0.905702485826816 2:-1.10037505170117 3:-0.9027412647770521 4:-0.8213243095050022 5:-0.9426448404848199 6:-0.8148491006797571 7:-1.0021481285932083 8:-1.0154083069824495 9:-0.7715729906827216 10:-1.2330910885489195 11:-0.03670081447341253 12:-1.1922883750150428 13:-1.1922883750150448 14:-0.5810514114624558 15:-1.1634598374071352 16:-0.13403029630768326 17:-1.1922883750150428 18:-0.39758513212932023 19:-0.7356469029482944 20:-0.8263852938654773 21:-0.8636337515891362 22:-0.6622661404841632 23:-0.577773227834458 24:-1.014450760096205 25:-0.3656606542930412 26:-0.4343568183399821 27:-0.6257399132720064 
-0.24304362473219335 1.0 0.33839645007247066 0.3551036163743679 0.3636564426622154 1:-0.9222745640285548 2:-0.6365742622890926 3:-0.8077029861805951 4:-0.48700649102159516 5:-0.8792906040307822 6:-0.9080668226229189 7:-0.923503341327364 8:-0.824571646881613 9:1.4685770161020164 10:-0.5475137258524547 11:0.8640679002252746 12:-0.8433291802154922 13:-0.8433291802154943 14:0.7614406604097833 15:0.5926828012406413 16:-0.8958610964387163 17:-0.8433291802154922 18:-0.9309113398787173 19:-0.9774092380997823 20:-0.9779972000360466 21:-0.9259507457703848 22:-0.893903490525385 23:-0.8301355488748431 24:-0.8197690425263762 25:-0.8877149279677502 26:-0.22175429137292435 27:-0.04695444984736337 
-0.10960826715197855 0.4503247854893362 0.3454702153945661 0.36314051908158146 0.37633621832303993 1:-0.905702485826816 2:-0.9457747885638108 3:-0.9291407866094012 4:-0.916843686214547 5:-0.9144874020608031 6:-0.8148491006797571 7:-0.9706902136868706 8:-0.8881838669152252 9:0.5567571640941585 10:-0.8025719619935777 11:0.23654008098788618 12:-1.0717491953540574 13:-1.0717491953540592 14:-0.14721722317120792 15:-0.5835608499359837 16:-0.38924984573227617 17:-1.0717491953540574 18:-0.6656478934186982 19:-0.7925321582780562 20:-0.8263852938654773 21:-0.8844060829828857 22:-0.8649488217702322 23:-0.9563167093950357 24:-0.5601934190999378 25:-0.9498321261033387 26:-0.8595618722740974 27:-0.6257399132720064 
-0.25965336062382566 0.3682654128792838 0.3706491366297175 0.39662846838329885 0.4061971958555708 1:-0.9719907986337711 2:-1.254975314838529 3:-0.9291407866094012 4:-0.8213243095050022 5:-0.9672825991058346 6:-0.9391393966039728 7:-1.0021481285932083 8:-0.9730001602933748 9:0.5400486086881602 10:-0.953732407790522 11:0.8294212692529678 12:-1.007956691138569 13:-1.0079566911385704 14:0.6531668210972223 15:0.396399715168617 16:-0.8704014553032318 17:-1.007956691138569 18:-0.6103970559916965 19:-0.9631879242673418 20:-0.902191246950762 21:-0.9882677399516334 22:-0.8070394842599268 23:-0.7460147751947147 24:-0.7548751366697666 25:-0.7264805224142926 26:-0.8595618722740974 27:-0.6257399132720064 
-1.0 0.6375499722563965 0.7686451617109564 0.8151771768142146 0.8361004838609378 1:-1.1045674242476813 2:-1.10037505170117 3:-0.9924996390070392 4:-0.6780452444406849 5:-1.0323966754613734 6:-1.0945022665092423 7:-1.2066245754844036 8:-1.0790205270160618 9:1.5799303914222957 10:-1.0204189535637262 11:0.7571747601776572 12:-1.4794177044096095 13:-1.4794177044096115 14:0.31283175693397725 15:-0.3070931006637782 16:-0.8164432238251091 17:-1.4794177044096095 18:-0.6797285231803767 19:-1.1338436902566273 20:-1.0841255343554452 21:-1.1544463911016296 22:-1.1255408405666065 23:-1.040437483075164 24:-0.8846629483829858 25:-0.8159504175046722 26:-0.8595618722740974 27:-0.6257399132720064 
-0.3100685837548053 0.7107047821622862 0.5780397320086166 0.5740031967991923 0.5881748187367453 1:-0.731695664708559 2:-0.3273737360143746 3:-0.6968249944847287 4:-0.7735646211502297 5:-0.7191451729941867 6:-0.7009163294158928 7:-0.5931952348108176 8:-0.6549390601253139 9:0.6674513436588987 10:-0.4178019920260147 11:1.1362357123848439 12:-0.18880875863514215 13:-0.18880875863514357 14:1.270681003816248 15:1.3585550410656 16:-1.0869812079489813 17:-0.18880875863514215 18:-0.6312592815012695 19:-0.692982961450973 20:-0.7354181501631357 21:-0.8428614201953867 22:-0.8070394842599268 23:-0.7880751620347789 24:-0.689981230813157 25:-0.8012755835354337 26:-0.8595618722740974 27:-0.6257399132720064 
-1.0 0.0 0.032331883637560566 0.040791732028059774 0.04469994251177429 1:-1.054851189642465 2:-1.10037505170117 3:-1.0558584914046771 4:-1.0601227512788645 5:-1.0394360350673775 6:-1.0219995938867832 7:-1.1437087456717283 8:-1.1214286737051364 9:-0.1177050462770478 10:-1.3313939401744836 11:0.6209836664625038 12:-1.3547322161341377 13:-1.3547322161341397 14:0.2014126618551934 15:-0.35227217665657695 16:-0.7114122277928293 17:-1.3547322161341377 18:-0.8700853191590108 19:-1.0058518657646633 20:-0.9476748188019328 21:-0.9259507457703848 22:-0.9228581592805376 23:-0.9142563225549715 24:-1.014450760096205 25:-0.8828031680557398 26:-0.8595618722740974 27:-0.6257399132720064 
-0.03149300944804284 0.3863458219370141 0.0 0.0 0.0 1:-0.9139885249276855 2:-0.4819739991517336 3:-0.812982890547065 4:-0.4392468026668227 5:-0.838814286296258 6:-0.9494969212643242 7:-0.9549612562337018 8:-0.9093879402597626 9:0.4423731785439274 10:-0.8570564516220537 11:0.47562586451652206 12:-0.9889719038913488 13:-0.9889719038913505 14:0.20567632046269307 15:-0.12684998323391247 16:-0.5942622706799012 17:-0.9889719038913488 18:-0.9924016192532124 19:-0.9489666104349014 20:-0.8567076750995912 21:-1.0298124027391324 22:-0.7780848155047742 23:-0.7880751620347789 24:-0.6250873249565474 25:-0.9603401651591631 26:-0.4343568183399821 27:-0.04695444984736337 
-0.1585212273858424 1.0 0.26474235719030337 0.2702871157171118 0.27726652469920643 1:-0.8228420948181222 2:-0.6365742622890926 3:-0.7549039425158968 4:-0.6302855560859124 5:-0.7684206902362161 6:-0.8252066253401085 7:-0.8134006391551818 8:-0.7821635001925382 9:0.5723478936103193 10:-0.6273712193840963 11:0.5636594628781727 12:-0.7069416031990324 13:-0.706941603199034 14:0.4378383632865868 15:0.26509471307331534 16:-0.6658539111378012 17:-0.7069416031990324 18:-0.6506534522496896 19:-0.9631879242673418 20:-0.7809017220143065 21:-0.8013167574078875 22:-0.7491301467496214 23:-0.3254109067940728 24:-1.014450760096205 25:-0.8586154257666838 26:-0.22175429137292435 27:-0.04695444984736337 
-1.0 0.7047346544513847 0.8481410947490157 0.8999132978738371 0.9238589961215138 1:-1.1791417761555059 2:-0.6365742622890926 3:-1.1033776307029057 4:-0.8690839978597746 5:-1.0992705917184131 6:-1.146289889810999 7:-1.2538114478439104 8:-1.1426327470496738 9:2.5966927589300823 10:-1.04883090247314 11:1.9638128844396654 12:-1.4107077952121736 13:-1.4107077952121752 14:2.046747476978851 15:2.0600365506244245 16:-1.5855311385585242 17:-1.4107077952121736 18:-0.8419050508509335 19:-1.2191715732512702 20:-1.1902538686748436 21:-1.0921293969203811 22:-1.1544955093217593 23:-1.2507394172754849 24:-1.1442385718094241 25:-1.068467521865819 26:-0.4343568183399821 27:-0.6257399132720064 
-1.0 0.2987534384018766 0.41077272060974235 0.443799691530105 0.462120762186944 1:-1.1128534633485507 2:-0.7911745254264517 3:-1.1192173438023152 4:-1.0123630629240918 5:-1.1115894710289205 6:-1.1048597911695937 7:-1.190895618031235 8:-1.206244967083286 9:-0.4579394819159578 10:-1.5541418161659224 11:1.1701131404806557 12:-1.3700084256925733 13:-1.3700084256925749 14:0.9488573553535031 15:0.5870405462733393 16:-1.109722081976785 17:-1.3700084256925733 18:-1.094686626486831 19:-1.119622376424187 20:-1.129609106206616 21:-1.0921293969203811 22:-1.0386768343011485 23:-0.9142563225549715 24:-1.1442385718094241 25:-1.0862945114033227 26:-0.8595618722740974 27:-0.6257399132720064 
-0.371885628786337 0.6716423074603366 0.6186172704527003 0.6544126059416143 0.6724504935721436 1:-0.9388466422302936 2:-0.9457747885638108 3:-0.9344206909758711 4:-0.7735646211502297 5:-0.9373653207803168 6:-0.8252066253401085 7:-0.9549612562337018 8:-1.100224600360599 9:-1.3464059231592662 10:-1.4706044132953053 11:0.8045935215521643 12:-0.9179304827847231 13:-0.9179304827847247 14:0.6578751168917825 15:0.440312393687601 16:-0.8519921763283431 17:-0.9179304827847231 18:-0.8342806114065608 19:-0.8209747859429372 20:-0.8415464844825342 21:-0.8844060829828857 22:-0.8070394842599268 23:-0.9983770962350998 24:-0.8197690425263762 25:-0.9640840047916 26:-0.8595618722740974 27:-0.6257399132720064 
-0.0 0.3597917363889557 0.0 0.0 0.0 1:-0.6405492345989957 2:-0.4819739991517336 3:-0.6704254726523795 4:-0.7735646211502297 5:-0.6681098158506563 6:-0.5144808855295693 7:-0.6875689795298309 8:-0.6973472068143887 9:-0.42163655205870443 10:-0.6888057482139845 11:-0.21886141144761168 12:-0.6973014568224529 13:-0.6973014568224543 14:-0.5300886310089551 15:-0.8110653247027022 16:0.050062493441204094 17:-0.6973014568224529 18:-0.44140770326064427 19:-0.6076550784563303 20:-0.4776779096731679 21:-0.6974551004391399 22:-0.4595834591980943 23:-0.577773227834458 24:-0.9495568542395953 25:-0.6043946859354054 26:-0.6469593453070398 27:-0.6257399132720064 
-0.7282959721958718 0.726783708797729 0.7781074464494708 0.8195751697280823 0.8402995139810252 1:-0.947132681331163 2:-0.7911745254264517 3:-0.9185809778764615 4:-0.7735646211502297 5:-0.9144874020608031 6:-0.8873517733022163 7:-0.8920454264210262 8:-0.9730001602933748 9:0.18514098984110314 10:-1.0080801691564434 11:1.5173567784627222 12:-0.6413798940237836 13:-0.6413798940237856 14:1.6276213879010388 15:1.692974945660765 16:-1.3306334296754496 17:-0.6413798940237836 18:-0.805703142173377 19:-0.8209747859429372 20:-0.8718688657166481 21:-0.9467230771641343 22:-1.1255408405666065 23:-0.9563167093950357 24:-1.0793446659528145 25:-1.018538151447903 26:-0.00915176440586665 27:-0.6257399132720064 
-1.0 0.7941883367014507 0.9344040984362203 0.9880130415797999 1.0 1:-1.0714232678442037 2:-0.9457747885638108 3:-1.0400187783052677 4:-0.916843686214547 5:-1.0693533133928954 6:-1.0530721678678372 7:-1.049335000952715 8:-1.0366123803269869 9:1.4909080452990384 10:-0.9421757043727632 11:2.1525585552591853 12:-0.8565574171774278 13:-0.85655741717743 14:2.383077617493309 15:2.613529992072465 16:-1.684658025346386 17:-0.8565574171774278 18:-1.0497220539966305 19:-1.0058518657646633 20:-1.0234807718872174 21:-1.0713570655266316 22:-0.9807674967908431 23:-1.040437483075164 24:-0.8846629483829858 25:-0.9754864314609268 26:-0.8595618722740974 27:-0.6257399132720064 
-1.0 0.7946136676384125 1.0 1.0 1.0 1:-1.0714232678442037 2:-0.7911745254264517 3:-1.0769781088705566 4:-1.0123630629240918 5:-1.0799123528019017 6:-1.0841447418488912 7:-1.190895618031235 8:-1.100224600360599 9:0.5027600033308707 10:-1.2047398639898315 11:0.3231774380853707 12:-1.5181852011893455 13:-1.5181852011893473 14:-0.3254352167508878 15:-1.1400426061689255 16:-0.4653973178556798 17:-1.5181852011893455 18:-1.0030907616349989 19:-1.1054010625917465 20:-1.0841255343554452 21:-1.0921293969203811 22:-0.9807674967908431 23:-1.040437483075164 24:-0.8846629483829858 25:-0.7993222790034814 26:-0.6469593453070398 27:-0.6257399132720064 
-0.7733172377153085 1.0 1.0 1.0 1.0 1:-0.4416842961781304 2:-0.4819739991517336 3:-0.5648273853229828 4:-0.9646033745693195 5:-0.5537202222530881 6:-0.33840296630359706 7:-0.3415319155601156 8:-0.6337349867807764 9:-1.2370562073139357 10:-0.7791496267066403 11:0.20851537376108617 12:-0.06808825073721826 13:-0.06808825073721951 14:0.23183032322791977 15:0.23590994321583805 16:-0.36414628349379224 17:-0.06808825073721826 18:-0.5616998371716002 19:-0.3090074879750805 20:-0.235098859800257 21:-0.427414792320396 22:-0.4306287904429416 23:-0.7039543883546505 24:0.02385173360954857 25:-0.5071077971239435 26:-0.4343568183399821 27:-0.6257399132720064 
-1.0 0.7331909677779029 0.889778414689246 0.9459535568573627 0.9721998455397548 1:-1.1294255415502894 2:-1.254975314838529 3:-1.1033776307029057 4:-1.0123630629240918 5:-1.1010304316199142 6:-1.0634296925281885 7:-1.190895618031235 8:-1.206244967083286 9:-0.1269421802762945 10:-1.513523962097305 11:1.578635067518381 12:-1.3017739268233381 13:-1.3017739268233397 14:1.5386422729493574 15:1.3979887167692615 16:-1.367451987625227 17:-1.3017739268233381 18:-0.9350383384062151 19:-1.0200731795971036 20:-1.0234807718872174 21:-1.13367405970788 22:-1.0676315030563013 23:-0.9563167093950357 24:-1.2091324776660337 25:-1.0048581107586205 26:-0.8595618722740974 27:-0.04695444984736337 
-1.0 0.5958158802886965 0.6967106334090246 0.7370843044757157 0.7554638802531773 1:-1.0879953460459426 2:-0.9457747885638108 3:-1.0558584914046771 4:-0.916843686214547 5:-1.0587942739838891 6:-1.011642069226432 7:-1.0965218733122215 8:-1.1214286737051364 9:0.49431429357045903 10:-1.2501556924247745 11:1.9180225145958765 12:-1.0100891252771933 13:-1.0100891252771953 14:2.06175994061329 15:2.170891064568633 16:-1.5607494168615588 17:-1.0100891252771933 18:-0.9911282943429199 19:-0.9916305519322228 20:-0.9628360094189897 21:-1.0921293969203811 22:-0.9807674967908431 23:-0.9563167093950357 24:-0.9495568542395953 25:-0.9977107217946187 26:-0.8595618722740974 27:-0.6257399132720064 
-0.1895915428968754 1.0 0.38168993743858826 0.32725542832440796 0.3390991381157574 1:-0.6654073519016038 2:-0.7911745254264517 3:-0.6809852813853191 4:-0.7258049327954573 5:-0.7156254931911846 6:-0.5766260334916771 7:-0.6089241922639864 8:-0.6549390601253139 9:0.06724290335230829 10:-0.5331978166232975 11:0.42932671278558 12:-0.39918490972630544 13:-0.3991849097263074 14:0.3850527356194587 15:0.30939639089666915 16:-0.5557951205831181 17:-0.39918490972630544 18:-0.3221577237670223 19:-0.5365485092941279 20:-0.4776779096731679 21:-0.5520487806828932 22:-0.3727194529326362 23:-0.2412901331139444 24:-0.43040560738671857 25:-0.2668684326299857 26:-0.6469593453070398 27:-0.6257399132720064 
-1.0 0.5310558297577328 0.35052274700217684 0.3692182787807943 0.37792462377396624 1:-1.054851189642465 2:-0.9457747885638108 3:-1.0664183001376168 4:-1.0123630629240918 5:-1.0799123528019017 6:-1.0219995938867832 7:-1.0807929158590528 8:-0.9942042336379121 9:1.7666702895692243 10:-0.8186233124073883 11:1.3962252768410708 12:-1.0675953759206105 13:-1.0675953759206125 14:1.3675694664501372 15:1.2584852517435015 16:-1.25600121761509 17:-1.0675953759206105 18:-0.9843174374612954 19:-0.9916305519322228 20:-1.0386419625042744 21:-1.0298124027391324 22:-0.9807674967908431 23:-0.9563167093950357 24:-1.0793446659528145 25:-0.935958981225094 26:-0.6469593453070398 27:-0.6257399132720064 
-0.015194500054612422 0.5005314642189892 0.0 0.0 0.0 1:-0.9388466422302936 2:-0.4819739991517336 3:-0.9291407866094012 4:-0.7735646211502297 5:-0.9514440399923252 6:-0.9391393966039728 7:-1.0021481285932083 8:-0.9305920136043 9:0.5489891514931239 10:-0.8767791407053129 11:0.36596997883797433 12:-1.1049758604587907 13:-1.1049758604587925 14:0.003671342924595316 15:-0.4273861547985853 16:-0.5022158758054571 17:-1.1049758604587907 18:-0.9822264638472853 19:-0.877860041272699 20:-0.887030056333705 21:-0.9882677399516334 22:-0.9518128280356903 23:-1.040437483075164 24:-0.9495568542395953 25:-0.9082286014610467 26:-0.6469593453070398 27:-0.6257399132720064 
-0.0 0.586100476986684 0.0 0.0 0.0 1:-0.8559862512215998 2:-0.7911745254264517 3:-0.8816216473111728 4:-0.8690839978597746 5:-0.8511331656067653 6:-0.8148491006797571 7:-0.8920454264210262 8:-0.9305920136043 9:-0.4411426039223037 10:-1.03814713667959 11:0.32014363855440264 12:-0.9057354471866677 13:-0.9057354471866694 14:0.04669305342773387 15:-0.2697086023593935 16:-0.46276742085926736 17:-0.9057354471866677 18:-0.640601176250087 19:-0.877860041272699 20:-0.8567076750995912 21:-0.8636337515891362 22:-0.893903490525385 23:-0.6618940015145863 24:-0.9495568542395953 25:-0.820270482769696 26:-0.8595618722740974 27:-0.6257399132720064 
-1.0 0.8330357034985806 0.9742140058924593 1.0 1.0 1:-1.1791417761555059 2:-1.10037505170117 3:-1.1667364831005436 4:-1.1078824396336369 5:-1.1837429069904635 6:-1.1255748404902963 7:-1.300998320203417 8:-1.2910612604614355 9:-0.7794797177944887 10:-1.790184060588697 11:1.070900672485779 12:-1.677581258983354 13:-1.6775812589833554 14:0.6362084043057836 15:-0.051906795149550884 16:-1.0424881935467563 17:-1.677581258983354 18:-0.839475123497284 19:-1.091179748759306 20:-1.1447702968236728 21:-1.2167633852828783 22:-1.1544955093217593 23:-1.1245582567552923 24:-1.0793446659528145 25:-1.0952781375949878 26:-0.8595618722740974 27:-0.6257399132720064 
-1.0 0.545099985591732 0.6664394624289368 0.7036513935459334 0.7219861243873088 1:-1.1791417761555059 2:-1.10037505170117 3:-1.156176674367604 4:-1.0601227512788645 5:-1.1731838675814572 6:-1.1566474144713503 7:-1.2538114478439104 8:-1.1638368203942113 9:2.114382405112285 10:-1.154738496489648 11:1.9638128844396654 12:-1.4107077952121736 13:-1.4107077952121752 14:2.046747476978851 15:2.0600365506244245 16:-1.5855311385585242 17:-1.4107077952121736 18:-1.1451320556770732 19:-1.1907289455863892 20:-1.114447915589559 21:-1.1752187224953792 22:-1.2124048468320647 23:-1.1666186435953565 24:-0.9495568542395953 25:-1.2366144978910065 26:-0.6469593453070398 27:-0.6257399132720064 
-0.2776699495079624 0.6328376499324907 0.42853241783125834 0.45424715399698984 0.46566422996683327 1:-0.8891304076250773 2:-0.7911745254264517 3:-0.9397005953423408 4:-0.8213243095050022 5:-0.9514440399923252 6:-0.876994248641865 7:-0.9077743838741951 8:-0.824571646881613 9:0.9889915795374294 10:-0.6252005264071077 11:0.5748383325113979 12:-0.8769608676698128 13:-0.8769608676698142 14:0.38311924051894625 15:0.13322628292409902 16:-0.674802866195039 17:-0.8769608676698128 18:-0.8342917070722117 19:-0.8636387274402586 20:-0.8567076750995912 21:-0.9259507457703848 22:-0.9228581592805376 23:-0.9563167093950357 24:-0.689981230813157 25:-0.8818932668968914 26:-0.8595618722740974 27:0.5318310135772796 
-0.3915537552559469 0.1860487458036551 0.5705735592415025 0.6144078353511401 0.6281703078522086 1:-0.7399817038094283 2:-0.7911745254264517 3:-0.7549039425158968 4:-0.7735646211502297 5:-0.7596214907287109 6:-0.7837765266987032 7:-0.8134006391551818 8:-0.7609594268480008 9:-0.08280920672433949 10:-0.713526349003304 11:-0.21886141144761168 12:-0.8992878812519406 13:-0.8992878812519419 14:-0.6379017782072932 15:-1.0354776645398913 16:0.050062493441204094 17:-0.8992878812519406 18:-0.7706543647585794 19:-0.7783108444456158 20:-0.7202569595460788 21:-0.738999763226639 22:-0.8070394842599268 23:-0.8721959357149073 24:-0.3006177956734994 25:-0.8393066363101257 26:-0.8595618722740974 27:-0.6257399132720064 
-0.814208647257484 1.0 0.8113061341056538 0.8588244971176683 0.8823224438576845 1:-0.8311281339189915 2:-0.9457747885638108 3:-0.812982890547065 4:-0.8213243095050022 5:-0.7613813306302118 6:-0.8873517733022163 7:-0.7504848093425063 8:-0.6549390601253139 9:1.8249961928216087 10:-0.20891200224548098 11:1.1304281532827054 12:-0.46042290993768187 13:-0.4604229099376833 14:1.2024390748022145 15:1.22427050755363 16:-1.08306036759936 17:-0.46042290993768187 18:-0.8951938472476532 19:-0.8067534721104967 20:-0.8567076750995912 21:-0.7597720946203885 22:-0.8359941530150795 23:-0.7880751620347789 24:-1.014450760096205 25:-0.9065811948935495 26:-0.00915176440586665 27:-0.04695444984736337 
-0.03221851259344125 0.8258236836819128 0.07330374033610855 0.0815393298071234 0.07686730990997519 1:-0.6985515083050814 2:-0.7911745254264517 3:-0.6968249944847287 4:-0.48700649102159516 5:-0.6980270941761741 6:-0.7112738540762441 7:-0.7347558518893375 8:-0.6973472068143887 9:0.039326231710141046 10:-0.5983742722022111 11:-0.05735274261874314 12:-0.7288241469546545 13:-0.7288241469546561 14:-0.34371012972311055 15:-0.6227374688975253 16:-0.11374888726755183 17:-0.7288241469546545 18:-0.7183367888208863 19:-0.7356469029482944 20:-0.6596121970778511 21:-0.8636337515891362 22:-0.6043568029738579 23:-0.8301355488748431 24:-0.689981230813157 25:-0.8877685687456118 26:-0.8595618722740974 27:-0.6257399132720064 
-0.0 0.6259867464932655 0.0 0.0 0.0 1:-0.839414173019861 2:-0.9457747885638108 3:-0.8763417429447029 4:-0.8213243095050022 5:-0.8652118848187738 6:-0.8148491006797571 7:-0.781942724248844 8:-0.8033675735370757 9:0.569591271869781 10:-0.6613414984570976 11:0.988942546750882 12:-0.5501978666766721 13:-0.5501978666766736 14:1.009224439370899 15:0.9765924579155115 16:-0.9854594488962858 17:-0.5501978666766721 18:-0.7939015716189474 19:-0.8209747859429372 20:-0.8263852938654773 21:-0.8013167574078875 22:-0.893903490525385 23:-0.9983770962350998 24:-0.6250873249565474 25:-0.8931039607800427 26:-0.8595618722740974 27:-0.6257399132720064 
-0.21139873895212857 0.12298613615065415 0.2446256424321156 0.2619732308995414 0.2693672297004593 1:-0.9222745640285548 2:-0.9457747885638108 3:-0.871061838578233 4:-0.7735646211502297 5:-0.8740110843262789 6:-0.9080668226229189 7:-0.9077743838741951 8:-0.9305920136043 9:0.32411176975470524 10:-0.9123097665975808 11:1.0053195495739125 12:-0.7820465851584658 13:-0.7820465851584677 14:0.9593847536179074 15:0.849823743701388 16:-0.9969652482555912 17:-0.7820465851584658 18:-0.836602291526241 19:-0.877860041272699 20:-0.8567076750995912 21:-0.8428614201953867 22:-0.9518128280356903 23:-0.8721959357149073 24:-1.014450760096205 25:-0.7799400048179235 26:-0.8595618722740974 27:-0.6257399132720064 
-0.7315191989942638 0.0 0.0 0.0 0.0 1:-1.0382791114407262 2:-1.10037505170117 3:-1.029458969572328 4:-0.916843686214547 5:-1.018317956249365 6:-0.9909270199057294 7:-1.0965218733122215 8:-1.1214286737051364 9:-0.3829134268776343 10:-1.3678878959812293 11:0.8923182300950026 12:-1.1974596220358198 13:-1.1974596220358216 14:0.6520748885118434 15:0.3035316394579732 16:-0.9164246527404534 17:-1.1974596220358198 18:-1.0924214387186466 19:-0.9347452966024609 20:-0.9628360094189897 21:-1.0090400713453829 22:-1.1544955093217593 23:-1.1245582567552923 24:-1.014450760096205 25:-1.0535310560413846 26:-0.8595618722740974 27:-0.6257399132720064 
-0.41362248017691394 0.4785585660097493 0.5842657329100308 0.6743506782735442 0.6787109820885847 1:-0.6985515083050814 2:-0.7911745254264517 3:-0.7021048988511984 4:-0.48700649102159516 5:-0.727944372501692 6:-0.6491287061141363 7:-0.7504848093425063 8:-0.8669797935706878 9:-1.2169239921873733 10:-1.081819056318739 11:-0.15425794391606426 12:-0.7795832486655206 13:-0.7795832486655222 14:-0.49083588568813813 15:-0.8091145393370373 16:-0.016591792502358198 17:-0.7795832486655206 18:-0.33370601460637134 19:-0.7072042752834135 20:-0.6292898158437372 21:-0.5728211120766428 22:-0.3727194529326362 23:-0.4095316804742012 24:-1.1442385718094241 25:-0.6816404491081131 26:-0.8595618722740974 27:-0.6257399132720064 
-0.23258160443724227 0.9577571155003872 0.2574022022377737 0.2920152257501052 0.29804124633048334 1:-0.8559862512215998 2:-0.7911745254264517 3:-0.8393824123794141 4:-0.7735646211502297 5:-0.8352946064932559 6:-0.8666367239815137 7:-0.781942724248844 8:-0.8457757202261504 9:0.3651075397731161 10:-0.7642870712380618 11:1.1908441039422712 12:-0.5031817756568008 13:-0.503181775656802 14:1.2641880881414849 15:1.2870054528774866 16:-1.1235290412079515 17:-0.5031817756568008 18:-0.7646095442874938 19:-0.9205239827700205 20:-0.8718688657166481 21:-0.8636337515891362 22:-0.8070394842599268 23:-0.7880751620347789 24:-0.689981230813157 25:-0.6463806794288909 26:-0.8595618722740974 27:-0.6257399132720064 
-1.0 0.16198436995048798 0.19912651335241557 0.20303582154614108 0.2035515690017185 1:-1.0797093069450732 2:-1.254975314838529 3:-1.061138395771147 4:-0.9646033745693195 5:-1.0605541138853902 6:-1.0219995938867832 7:-1.159437703124897 8:-1.1214286737051364 9:0.3298340959864413 10:-1.2716032367900623 11:0.8923182300950026 12:-1.3419326489086814 13:-1.3419326489086831 14:0.5803208547473357 15:0.1303742215071467 16:-0.9164246527404534 17:-1.3419326489086814 18:-0.9840328086143246 19:-1.0627371210944252 20:-1.114447915589559 21:-0.9674954085578839 22:-0.893903490525385 23:-0.8301355488748431 24:-1.2091324776660337 25:-0.8842707121566624 26:-0.8595618722740974 27:-0.6257399132720064 
-0.0 0.5260767406158461 0.17138009996839154 0.1753063808961535 0.17759054294782786 1:-0.8808443685242079 2:-0.7911745254264517 3:-0.9449804997088107 4:-0.8690839978597746 5:-0.9338456409773146 6:-0.8252066253401085 7:-0.923503341327364 8:-0.9730001602933748 9:-0.5986133351128151 10:-1.1338340825846132 11:0.34540950027324707 12:-0.9581279493070197 13:-0.9581279493070215 14:0.05340511621446471 15:-0.28833885053783653 16:-0.4845899704039683 17:-0.9581279493070197 18:-0.987850094147091 19:-0.7925321582780562 20:-0.8718688657166481 21:-0.8428614201953867 22:-0.9518128280356903 23:-1.0824978699152281 24:-1.014450760096205 25:-0.9057987034615553 26:-0.6469593453070398 27:-0.6257399132720064 
-0.0 0.9349352154885974 0.0 0.006736238521588269 0.0 1:-0.690265469204212 2:-0.6365742622890926 3:-0.6493058551865002 4:-0.48700649102159516 5:-0.6452318971311427 6:-0.7216313787365954 7:-0.7190268944361686 8:-0.7609594268480008 9:-0.49674606210819455 10:-0.792205084393714 11:-0.027278714629918994 12:-0.6956187712928954 13:-0.6956187712928971 14:-0.2902787187074199 15:-0.5485696509206928 16:-0.14323493579512758 17:-0.6956187712928954 18:-0.7151369548762468 19:-0.7072042752834135 20:-0.7505793407801926 21:-0.6766827690453904 22:-0.5464474654635524 23:-0.4515920673142654 24:-0.8846629483829858 25:-0.2786657182081408 26:-0.8595618722740974 27:-0.6257399132720064 
-0.08600279640312834 1.0 0.20141636868994434 0.16254104130119593 0.20244038454773164 1:-0.5825469608929099 2:-0.4819739991517336 3:-0.6704254726523795 4:-0.9646033745693195 5:-0.6364326976236374 6:-0.4834083115485154 7:-0.6089241922639864 8:-0.6549390601253139 9:-0.5479707479619469 10:-0.6574853178591297 11:-0.1910819204090457 12:-0.5697835001434977 13:-0.5697835001434997 14:-0.4345254376349001 15:-0.6496842367167005 16:0.021212130868617646 17:-0.5697835001434977 18:-0.6436853828820286 19:-0.39433537096972326 20:-0.3867107659708263 21:-0.46895945510789505 22:-0.5464474654635524 23:-0.577773227834458 24:-0.7548751366697666 25:-0.4389372353216483 26:-0.8595618722740974 27:-0.6257399132720064 
-0.34278781112127604 1.0 0.43754502206658 0.38942106579147745 0.3995216292981463 1:-0.7482677429102977 2:-0.3273737360143746 3:-0.7337843250500174 4:-0.7735646211502297 5:-0.7508222912212056 6:-0.7216313787365954 7:-0.6875689795298309 8:-0.7397553535034634 9:0.16102547215021343 10:-0.6369038241704797 11:0.6839720473057623 12:-0.4606654269933441 13:-0.46066542699334584 14:0.6693858687940959 15:0.6103561249055581 16:-0.7605396291627669 17:-0.4606654269933441 18:-1.0224947136109168 19:-0.6360977061212112 20:-0.7050957689290219 21:-0.8220890888016371 22:-0.8359941530150795 23:-0.9142563225549715 24:-1.014450760096205 25:-0.689458469749295 26:-0.4343568183399821 27:-0.04695444984736337 
-0.722213197603446 0.9358137531620109 1.0 1.0 1.0 1:-0.5991190390946487 2:-0.17277347287701553 3:-0.6281862377206209 4:-0.8213243095050022 5:-0.659310616343151 6:-0.44197821290711015 7:-0.7190268944361686 8:-0.7821635001925382 9:-1.261790071612284 10:-0.9738179374336696 11:-0.6724041222813311 12:-0.8706138134574941 13:-0.8706138134574959 14:-1.2029617194484408 15:-1.627165630126782 16:0.565522304738088 17:-0.8706138134574941 18:-0.6334032599057211 19:-0.25212223264531863 20:-0.5686450533755095 21:-0.7597720946203885 22:-0.6333114717290106 23:-0.6198336146745221 24:-0.365511701530109 25:0.11600239906108548 26:0.20345076256119105 27:-0.6257399132720064 
-0.3635197077929728 1.0 0.5071635643707965 0.5869300056428275 0.6085272943578558 1:-0.6239771563972569 2:-0.3273737360143746 3:-0.7337843250500174 4:-1.0601227512788645 5:-0.7578616508272098 6:-0.5455534595106232 7:-0.6561110646234931 8:-0.7397553535034634 9:-0.8251722776298588 10:-0.8277828578195249 11:-0.1603782724190529 12:-0.6327369816376447 13:-0.6327369816376466 14:-0.4259119225625133 15:-0.6680980562744656 16:-0.010342953195149503 17:-0.6327369816376447 18:-0.46778428375894365 19:-0.3090074879750805 20:-0.447355528439054 21:-0.6559104376516408 22:-0.5754021342187051 23:-0.8301355488748431 24:-1.0793446659528145 25:-0.3182284495853952 26:-0.6469593453070398 27:-0.6257399132720064 
-0.3267079203090666 1.0 0.3818919080100914 0.3894942203663143 0.3960613582627825 1:-0.6985515083050814 2:-0.17277347287701553 3:-0.7918632730811856 4:-1.0123630629240918 5:-0.8176962074782455 6:-0.6284136567934336 7:-0.7032979369829997 8:-0.7609594268480008 9:-0.43176760225142624 10:-0.779666066245909 11:0.1364576599758991 12:-0.627305943532923 13:-0.6273059435329245 14:-0.05679532360180557 15:-0.2615143918664816 16:-0.2985066412472625 17:-0.627305943532923 18:-0.6295377723245876 19:-0.4512206262994851 20:-0.5231614815243387 21:-0.6351381062578914 22:-0.7491301467496214 23:-0.577773227834458 24:-0.365511701530109 25:-0.6062699483195132 26:-0.4343568183399821 27:-0.04695444984736337 
-0.5543153449128628 0.4560723077187739 0.4761549412506749 0.505505928293784 0.517750408713384 1:-0.9222745640285548 2:-0.7911745254264517 3:-0.9766599259076297 4:-1.0123630629240918 5:-0.9848809981208451 6:-0.8873517733022163 7:-0.9549612562337018 8:-0.824571646881613 9:1.4685770161020164 10:-0.5475137258524547 11:0.5815646015279998 12:-0.9658943703295453 13:-0.9658943703295472 14:0.3525937620247317 15:0.05708563505520829 16:-0.6801722392293815 17:-0.9658943703295453 18:-0.9991494720681998 19:-0.8067534721104967 20:-0.887030056333705 21:-1.1129017283141307 22:-0.9807674967908431 23:-1.1666186435953565 24:-0.5601934190999378 25:-0.9186825689850222 26:-0.6469593453070398 27:-0.04695444984736337 
-0.9140177544954055 0.013260162371557532 0.14163862870244948 0.14953409091705852 0.15399749904984064 1:-1.0051349550372488 2:-0.9457747885638108 3:-0.9924996390070392 4:-0.8690839978597746 5:-0.981361318317843 6:-1.0219995938867832 7:-1.049335000952715 8:-0.9942042336379121 9:0.8052543018925548 10:-0.953702196764052 11:0.8583025267824731 12:-1.1010252574407833 13:-1.1010252574407848 14:0.6508611184598221 15:0.3506516908919907 16:-0.8916429310434879 17:-1.1010252574407833 18:-0.5469655149358154 19:-1.0342944934295442 20:-1.0689643437383882 21:-0.9882677399516334 22:-1.0097221655459958 23:-0.8721959357149073 24:-1.2091324776660337 25:-0.8127438426977968 26:-0.8595618722740974 27:-0.04695444984736337 
-0.8452598032036421 0.28584933585739436 0.5362047408650864 0.5674119370422811 0.5826303308846924 1:-1.0217070332389875 2:-1.10037505170117 3:-0.9555403084417504 4:-0.8213243095050022 5:-0.9708022789088366 6:-1.0841447418488912 7:-1.049335000952715 8:-0.9305920136043 9:1.9604535687874571 10:-0.6663287259843717 11:1.1405604904396283 12:-1.0458068675997667 13:-1.0458068675997687 14:1.0414708155274768 15:0.8563466250138905 16:-1.0898967046192127 17:-1.0458068675997667 18:-0.8140462405217533 19:-1.0200731795971036 20:-1.0234807718872174 21:-0.8428614201953867 22:-0.7491301467496214 23:-0.8301355488748431 24:-0.689981230813157 25:-0.987109429941474 26:-0.4343568183399821 27:-0.6257399132720064 
-0.09123048554882456 1.0 0.3000859189730998 0.12060197456634146 0.12311949595244592 1:-0.7151235865068202 2:-0.6365742622890926 3:-0.6176264289876812 4:-0.34372742595727784 5:-0.6540310966386479 6:-0.6905588047555414 7:-0.7190268944361686 8:-0.7397553535034634 9:-0.1363992460374277 10:-0.6927738119279931 11:0.1779884605318936 12:-0.6420218249385601 13:-0.6420218249385615 14:-0.011917591498240556 15:-0.21774544274811566 16:-0.3365323650314592 17:-0.6420218249385601 18:-0.23001898421682943 19:-0.7783108444456158 20:-0.7657405313972496 21:-0.6143657748641418 22:-0.5464474654635524 23:-0.4095316804742012 24:-0.5601934190999378 25:-0.5401530258069981 26:-0.6469593453070398 27:-0.6257399132720064 
-1.0 0.0 0.0 0.0 0.0 1:-1.1128534633485507 2:-0.9457747885638108 3:-1.0875379176034963 4:-0.916843686214547 5:-1.1168689907334237 6:-1.0530721678678372 7:-1.190895618031235 8:-1.206244967083286 9:-0.4579394819159578 10:-1.5541418161659224 11:1.1701131404806557 12:-1.3700084256925733 13:-1.3700084256925749 14:0.9488573553535031 15:0.5870405462733393 16:-1.109722081976785 17:-1.3700084256925733 18:-0.8958921482002986 19:-1.0485158072619847 20:-1.0689643437383882 21:-1.0921293969203811 22:-1.0965861718114538 23:-1.040437483075164 24:-1.2091324776660337 25:-0.9024809980856134 26:-0.6469593453070398 27:-0.6257399132720064 
-1.0 0.1643903134039186 0.0 0.0 0.0 1:-1.0382791114407262 2:-0.9457747885638108 3:-1.0822580132370263 4:-1.1078824396336369 5:-1.0658336335898932 6:-0.9909270199057294 7:-1.0807929158590528 8:-1.0790205270160618 9:0.21729501342895607 10:-1.2008058224244866 11:1.0775148370187708 12:-1.127288746317489 13:-1.1272887463174905 14:0.9280106591790286 15:0.6811543755246366 16:-1.0470310238460827 17:-1.127288746317489 18:-1.0594017458829983 19:-0.9489666104349014 20:-1.0234807718872174 21:-1.050584734132882 22:-1.0097221655459958 23:-0.9983770962350998 24:-1.014450760096205 25:-1.0034210620596251 26:-0.4343568183399821 27:-0.6257399132720064 
